Values
-0.003429
0.071938
-0.098573
-0.217587
-0.02617
0.033636
0.02413
-0.105074
-0.02806
0.188733
0.032517
0.037958
-0.070163
-0.002454
0.115489
-0.026679
0.06007
0.007987
0.0759
0.011311
0.219253
-0.038083
0.022282
-0.018756
0.026594
-0.02905
0.013845
-0.118309
0.001468
-0.089907
0.005054
-0.151286
0.004121
0.014295
0.000114
-0.188915
0.044957
-0.019267
-0.061313
0.002275
-0.140886
-0.007853
0.123505
-0.13952
0.031873
0.00358
-0.051999
0.0582
0.120012
-0.057139
0.047144
-0.100401
-0.03822
-0.021594
0.019839
-0.015808
0.013371
-0.030642
0.148032
-0.164369
-0.076091
-0.003362
-0.062021
-0.102299
0.030367
-0.263335
0.043251
-0.128471
-0.025028
-0.061313
0.017014
-0.026018
-0.072289
-0.035427
0.036541
0.072005
-0.002355
0.24123
-0.011653
0.178309
0.002363
0.097605
0.033123
0.14302
0.009017
-0.00308
0.021636
-0.077401
-0.072842
0.109605
0.014608
0.106825
-0.057051
-0.013986
-0.068768
-0.073789
0.028955
-0.046929
0.035151
-0.027795
-0.081049
-0.129583
0.091406
0.018085
-0.107192
0.105195
0.002974
0.021353
-0.041813
-0.036141
0.0075
-0.01553
0.038815
-0.011367
-0.007572
-0.244707
-0.081147
-0.089902
0.005929
0.024753
