Values
8.20301
-10.8078
3.97247
2.36883
-6.01926
4.74413
-22.3129
3.45255
12.0375
8.34925
9.28043
-10.997
5.24106
7.71473
-5.79
8.26972
-14.0991
-1.75052
13.7498
-8.49708
16.4629
6.73005
-7.51899
-10.1928
8.95824
7.42585
7.83687
-7.86651
6.5201
-24.7229
24.4631
25.8266
-25.0308
-36.8923
31.8594
7.92589
24.3702
-7.84292
-11.6085
-34.3303
16.1704
27.7077
-25.0046
-40.6897
42.948
28.2734
12.5143
2.91087
-27.6761
-22.267
1.67652
0.521739
-0.0380807
4.25183
-2.84199
4.28975
-22.7625
2.4681
18.3851
-1.79519
0.102677
-4.52334
6.91437
8.13026
-6.15337
8.4659
-23.6362
3.01542
25.5919
-2.62643
19.8787
4.62933
-0.167689
-6.04846
7.67679
22.5592
-9.42412
0.482501
15.79
-14.298
34.8851
19.7794
-14.8724
-27.9281
30.0376
35.0931
8.49279
0.87409
-11.992
-27.8869
21.067
24.3669
-24.1474
-36.8257
40.8405
29.722
17.7562
2.68871
-36.0633
-20.118
17.9824
17.1746
-12.9022
-3.80402
4.11885
-15.0689
19.1529
-39.2831
-20.7131
-14.6239
0.0348063
-0.76177
-0.509767
1.76792
1.20617
-0.00964633
-0.0149037
0.297617
-0.0490337
0.486773
