Values
0.91291
-0.792387
-0.664879
0.516004
-0.00702368
-0.0334945
0.285093
-0.93269
0.844007
0.123453
1.3938
-0.859543
-0.7075
1.38189
1.39652
-0.804676
1.22761
0.236406
0.307669
0.984701
1.58786
-2.11247
0.596926
1.58305
1.06481
-1.47677
0.946059
0.509563
-0.434374
-0.188826
1.00096
-1.24876
1.64205
1.15282
0.139306
-1.11943
1.5499
0.785556
-0.527493
-1.48713
-0.127239
0.52433
2.75358
0.414488
-0.77673
0.891632
1.40131
-0.470055
0.221655
-1.30614
0.0121135
0.119609
-0.174488
-1.35393
-1.40017
-0.501393
-1.25593
0.0452529
0.404314
-0.911484
-0.971663
0.558436
-1.07307
-1.90182
-1.17048
-1.05184
-1.92292
0.734646
-0.606347
-0.272921
-1.67198
1.02184
-1.88117
-1.19306
0.200848
0.324411
-1.68057
0.597265
-0.567263
1.28842
-1.69485
2.29017
-1.14584
-0.660583
0.883285
1.57891
-0.932263
-0.313904
-0.107598
1.71054
-0.505537
0.649086
0.435528
0.201476
-0.0599735
2.0917
0.623967
-1.22103
0.411433
-0.124543
-1.02858
-1.01332
1.23257
0.868849
-1.11114
1.28527
-1.14308
1.16535
0.819136
1.31487
0.895114
0.86228
1.02208
0.853771
-0.707171
-0.831493
-0.865809
-0.615356
-0.566356
0.797625
