Values
-7.52361
5.83349
-5.98687
7.43384
-7.71219
1.47956
7.32615
-1.70693
-2.65679
-0.554954
6.38689
5.42993
-4.23768
-2.73233
2.21789
6.76716
-0.732546
11.2514
4.6579
9.50894
3.69562
5.60533
-6.18127
-3.0065
24.675
2.90792
0.619354
0.927842
8.06221
14.54
7.63996
7.18353
-9.69053
0.534806
10.6925
3.81151
-5.3471
-4.81726
-3.40486
3.90399
-10.0655
23.9907
-4.75403
-3.7021
9.24797
10.7832
-3.37015
2.58018
-3.19944
5.68814
-3.29258
-2.88533
11.2894
5.07632
-13.5216
7.12173
0.308524
-9.75475
13.1735
4.1564
-0.0536415
-13.8585
2.11717
0.0159531
-10.797
5.36815
-9.2919
-20.4074
-4.79558
-1.04676
-9.42042
4.81308
-9.33284
-6.18495
11.1912
-4.67585
3.57084
-0.894485
-0.595284
14.0591
-2.42942
21.7067
0.25093
-5.02716
14.6447
0.0266747
3.55665
-10.4462
-3.32722
8.41352
7.43112
14.5274
-5.99819
7.50738
-0.95396
11.7433
-1.26198
-6.13192
-7.8182
1.32104
7.21106
24.475
6.90428
-8.2797
-12.0076
7.2639
5.18216
0.00371816
0.561322
-0.358676
5.88523
-6.09465
-13.1362
-3.85427
-12.071
3.54637
-2.47903
-12.6733
-6.01989
-15.9743
