0,1,2,3,4,5,6,7,8,9,10,11,12,13,14,15,16,17,18,19,20,21,22,23,24,25,26,27,28,29,30,31,32,33,34,35,36,37,38,39,40,41,42,43,44,45,46,47,48,49,50,51,52,53,54,55,56,57,58,59,60,61,62,63,64,65,66,67,68,69,70,71,72,73,74,75,76,77,78,79,80,81,82,83,84,85,86,87,88,89,90,91,92,93,94,95,96,97,98,99,100,101,102,103,104,105,106,107,108,109,110,111,112,113,114,115,116,117,118,119,120,121,122,123,124,125,126,127,128,129,130,131,132,133,134,135,136,137,138,139,140,141,142,143,144,145,146,147,148,149,150,151,152,153,154,155,156,157,158,159,160,161,162,163,164,165,166,167,168,169,170,171,172,173,174,175,176,177,178,179,180,181,182,183,184,185,186,187,188,189,190,191,192,193,194,195,196,197,198,199,200,201,202,203,204,205,206,207,208,209,210,211,212,213,214,215,216,217,218,219,220,221,222,223,224,225,226,227,228,229,230,231,232,233,234,235,236,237,238,239,240,241,242,243,244,245,246,247,248,249,250,251,252,253,254,255,256,257,258,259,260,261,262,263,264,265,266,267,268,269,270,271,272,273,274,275,276,277,278,279,280,281,282,283,284,285,286,287,288,289,290,291,292,293,294,295,296,297,298,299,300,301,302,303,304,305,306,307,308,309,310,311,312,313,314,315,316,317,318,319,320,321,322,323,324,325,326,327,328,329,330,331,332,333,334,335,336,337,338,339,340,341,342,343,344,345,346,347,348,349,350,351,352,353,354,355,356,357,358,359,360,361,362,363,364,365,366,367,368,369,370,371,372,373,374,375,376,377,378,379,380,381,382,383,384,385,386,387,388,389,390,391,392,393,394,395,396,397,398,399,400,401,402,403,404,405,406,407,408,409,410,411,412,413,414,415,416,417,418,419,420,421,422,423,424,425,426,427,428,429,430,431,432,433,434,435,436,437,438,439,440,441,442,443,444,445,446,447,448,449,450,451,452,453,454,455,456,457,458,459,460,461,462,463,464,465,466,467,468,469,470,471,472,473,474,475,476,477,478,479,480,481,482,483,484,485,486,487,488,489,490,491,492,493,494,495,496,497,498,499,500,501,502,503,504,505,506,507,508,509,510,511,512,513,514,515,516,517,518,519,520,521,522,523,524,525,526,527,528,529,530,531,532,533,534,535,536,537,538,539,540,541,542,543,544,545,546,547,548,549,550,551,552,553,554,555,556,557,558,559,560,561,562,563,564,565,566,567,568,569,570,571,572,573,574,575,576,577,578,579,580,581,582,583,584,585,586,587,588,589,590,591,592,593,594,595,596,597,598,599,600,601,602,603,604,605,606,607,608,609,610,611,612,613,614,615,616,617,618,619,620,621,622,623,624,625,626,627,628,629,630,631,632,633,634,635,636,637,638,639,640,641,642,643,644,645,646,647,648,649,650,651,652,653,654,655,656,657,658,659,660,661,662,663,664,665,666,667,668,669,670,671,672,673,674,675,676,677,678,679,680,681,682,683,684,685,686,687,688,689,690,691,692,693,694,695,696,697,698,699,700
-0.00344954,-0.00347849,-0.00351576,-0.00356137,-0.00361432,-0.00367262,-0.00373362,-0.00379458,-0.00385299,-0.00390682,-0.00395448,-0.00399473,-0.00402643,-0.00404809,-0.0040564,-0.00404189,-0.00398738,-0.00392182,-0.00384997,-0.00375336,-0.00367871,-0.00355936,-0.00362138,-0.00352732,-0.0035917,-0.00350716,-0.00357273,-0.00350068,-0.00356323,-0.00351393,-0.003559,-0.00354974,-0.00352726,-0.00352291,-0.00355319,-0.0035588,-0.00356014,-0.00357936,-0.00359764,-0.00360681,-0.00362092,-0.00360019,-0.00362798,-0.00360568,-0.00363872,-0.00361331,-0.00364897,-0.00362035,-0.00365833,-0.00362619,-0.0036669,-0.00363111,-0.00367494,-0.00363552,-0.0036828,-0.00363986,-0.00369078,-0.00364447,-0.0036991,-0.00364957,-0.00370788,-0.00365525,-0.00371714,-0.00366148,-0.00372683,-0.0036682,-0.00373685,-0.00367529,-0.00374711,-0.00368265,-0.00375752,-0.00369018,-0.00376798,-0.0036978,-0.00377846,-0.00370547,-0.0037889,-0.00371314,-0.00379927,-0.0037208,-0.00380957,-0.00372843,-0.00381978,-0.00373602,-0.00382991,-0.00374357,-0.00383994,-0.00375108,-0.00384988,-0.00375855,-0.00385973,-0.00376598,-0.00386949,-0.00377337,-0.00387917,-0.00378072,-0.00388877,-0.00378803,-0.00389828,-0.00379529,-0.0039077,-0.00380251,-0.00391704,-0.00380968,-0.00392629,-0.0038168,-0.00393546,-0.00382387,-0.00394453,-0.00383089,-0.00395352,-0.00383785,-0.00396241,-0.00384475,-0.00397121,-0.00385159,-0.00397992,-0.00385837,-0.00398854,-0.00386508,-0.00399706,-0.00387173,-0.00400549,-0.00387831,-0.00401381,-0.00388482,-0.00402205,-0.00389126,-0.00403018,-0.00389762,-0.00403822,-0.00390391,-0.00404616,-0.00391013,-0.00405399,-0.00391628,-0.00406173,-0.00392234,-0.00406938,-0.00392833,-0.00407692,-0.00393424,-0.00408436,-0.00394008,-0.00409171,-0.00394583,-0.00409895,-0.00395151,-0.00410609,-0.0039571,-0.00411314,-0.00396261,-0.00412009,-0.00396805,-0.00412694,-0.0039734,-0.00413369,-0.00397867,-0.00414034,-0.00398386,-0.00414689,-0.00398897,-0.00415335,-0.003994,-0.00415971,-0.00399894,-0.00416597,-0.00400381,-0.00417214,-0.00400859,-0.0041782,-0.00401329,-0.00418418,-0.00401791,-0.00419006,-0.00402244,-0.00419584,-0.0040269,-0.00420152,-0.00403128,-0.00420712,-0.00403557,-0.00421262,-0.00403978,-0.00421802,-0.00404392,-0.00422334,-0.00404797,-0.00422856,-0.00405194,-0.00423368,-0.00405583,-0.00423872,-0.00405965,-0.00424367,-0.00406338,-0.00424852,-0.00406703,-0.00425328,-0.0040706,-0.00425796,-0.0040741,-0.00426254,-0.00407752,-0.00426704,-0.00408086,-0.00427144,-0.00408412,-0.00427576,-0.0040873,-0.00427999,-0.0040904,-0.00428414,-0.00409343,-0.0042882,-0.00409638,-0.00429217,-0.00409926,-0.00429605,-0.00410206,-0.00429985,-0.00410478,-0.00430357,-0.00410743,-0.0043072,-0.00411,-0.00431074,-0.0041125,-0.00431421,-0.00411492,-0.00431759,-0.00411726,-0.00432088,-0.00411954,-0.0043241,-0.00412174,-0.00432723,-0.00412386,-0.00433028,-0.00412592,-0.00433325,-0.0041279,-0.00433614,-0.0041298,-0.00433895,-0.00413164,-0.00434168,-0.0041334,-0.00434433,-0.00413509,-0.0043469,-0.00413671,-0.00434939,-0.00413826,-0.00435181,-0.00413973,-0.00435414,-0.00414114,-0.0043564,-0.00414248,-0.00435858,-0.00414374,-0.00436069,-0.00414494,-0.00436272,-0.00414607,-0.00436467,-0.00414712,-0.00436654,-0.00414811,-0.00436835,-0.00414903,-0.00437007,-0.00414988,-0.00437172,-0.00415066,-0.0043733,-0.00415138,-0.0043748,-0.00415202,-0.00437623,-0.0041526,-0.00437759,-0.00415312,-0.00437887,-0.00415356,-0.00438008,-0.00415394,-0.00438122,-0.00415425,-0.00438228,-0.00415449,-0.00438328,-0.00415467,-0.0043842,-0.00415478,-0.00438505,-0.00415483,-0.00438583,-0.00415481,-0.00438654,-0.00415473,-0.00438717,-0.00415458,-0.00438774,-0.00415437,-0.00438824,-0.00415409,-0.00438867,-0.00415374,-0.00438903,-0.00415333,-0.00438931,-0.00415286,-0.00438953,-0.00415233,-0.00438969,-0.00415173,-0.00438977,-0.00415106,-0.00438978,-0.00415033,-0.00438973,-0.00414954,-0.00438961,-0.00414869,-0.00438942,-0.00414777,-0.00438916,-0.00414679,-0.00438884,-0.00414575,-0.00438845,-0.00414464,-0.00438799,-0.00414347,-0.00438746,-0.00414224,-0.00438687,-0.00414095,-0.00438622,-0.00413959,-0.00438549,-0.00413818,-0.0043847,-0.0041367,-0.00438385,-0.00413516,-0.00438293,-0.00413355,-0.00438194,-0.00413189,-0.00438089,-0.00413016,-0.00437977,-0.00412838,-0.00437859,-0.00412653,-0.00437734,-0.00412462,-0.00437603,-0.00412265,-0.00437465,-0.00412062,-0.00437321,-0.00411853,-0.00437171,-0.00411637,-0.00437014,-0.00411416,-0.0043685,-0.00411189,-0.0043668,-0.00410955,-0.00436504,-0.00410716,-0.00436322,-0.0041047,-0.00436133,-0.00410218,-0.00435937,-0.00409961,-0.00435736,-0.00409697,-0.00435528,-0.00409427,-0.00435314,-0.00409152,-0.00435093,-0.0040887,-0.00434866,-0.00408582,-0.00434633,-0.00408289,-0.00434393,-0.00407989,-0.00434148,-0.00407683,-0.00433895,-0.00407372,-0.00433637,-0.00407054,-0.00433372,-0.00406731,-0.00433102,-0.00406401,-0.00432825,-0.00406065,-0.00432541,-0.00405724,-0.00432252,-0.00405376,-0.00431956,-0.00405023,-0.00431654,-0.00404664,-0.00431345,-0.00404298,-0.00431031,-0.00403927,-0.0043071,-0.0040355,-0.00430383,-0.00403166,-0.0043005,-0.00402777,-0.00429711,-0.00402382,-0.00429366,-0.00401981,-0.00429014,-0.00401574,-0.00428656,-0.00401161,-0.00428292,-0.00400742,-0.00427922,-0.00400317,-0.00427545,-0.00399887,-0.00427163,-0.0039945,-0.00426774,-0.00399007,-0.00426379,-0.00398559,-0.00425978,-0.00398104,-0.00425571,-0.00397643,-0.00425157,-0.00397177,-0.00424738,-0.00396704,-0.00424312,-0.00396226,-0.0042388,-0.00395742,-0.00423442,-0.00395251,-0.00422998,-0.00394755,-0.00422547,-0.00394253,-0.00422091,-0.00393744,-0.00421628,-0.0039323,-0.00421159,-0.0039271,-0.00420684,-0.00392184,-0.00420203,-0.00391652,-0.00419715,-0.00391114,-0.00419222,-0.00390569,-0.00418722,-0.00390019,-0.00418216,-0.00389463,-0.00417704,-0.00388901,-0.00417186,-0.00388333,-0.00416662,-0.00387759,-0.00416131,-0.00387179,-0.00415594,-0.00386593,-0.00415051,-0.00386001,-0.00414502,-0.00385403,-0.00413947,-0.00384798,-0.00413385,-0.00384188,-0.00412818,-0.00383572,-0.00412244,-0.0038295,-0.00411664,-0.00382321,-0.00411078,-0.00381687,-0.00410485,-0.00381046,-0.00409886,-0.003804,-0.00409282,-0.00379747,-0.0040867,-0.00379089,-0.00408053,-0.00378424,-0.0040743,-0.00377753,-0.004068,-0.00377076,-0.00406164,-0.00376393,-0.00405522,-0.00375704,-0.00404873,-0.00375009,-0.00404219,-0.00374308,-0.00403558,-0.003736,-0.00402891,-0.00372887,-0.00402217,-0.00372167,-0.00401537,-0.00371441,-0.00400852,-0.00370709,-0.00400159,-0.00369971,-0.00399461,-0.00369227,-0.00398756,-0.00368477,-0.00398045,-0.0036772,-0.00397328,-0.00366957,-0.00396604,-0.00366188,-0.00395874,-0.00365413,-0.00395138,-0.00364632,-0.00394395,-0.00363844,-0.00393646,-0.0036305,-0.00392891,-0.0036225,-0.0039213,-0.00361444,-0.00391362,-0.00360631,-0.00390588,-0.00359813,-0.00389807,-0.00358988,-0.0038902,-0.00358156,-0.00388227,-0.00357319,-0.00387427,-0.00356475,-0.00386621,-0.00355625,-0.00385809,-0.00354769,-0.0038499,-0.00353906,-0.00384165,-0.00353037,-0.00383333,-0.00352162,-0.00382496,-0.0035128,-0.00381651,-0.00350392,-0.003808,-0.00349498,-0.00379943,-0.00348597,-0.00379079,-0.0034769,-0.00378209,-0.00346777,-0.00377333,-0.00345857,-0.0037645,-0.00344931,-0.0037556,-0.00343998,-0.00374664,-0.00343059,-0.00373762,-0.00342114,-0.00372853,-0.00341162,-0.00371938,-0.00340204,-0.00371016,-0.00339239,-0.00370087,-0.00338268,-0.00369152,-0.00337291,-0.00368211,-0.00336307,-0.00367263,-0.00335316,-0.00366308,-0.00334319,-0.00365347,-0.00333316,-0.00364379,-0.00332306,-0.00363405,-0.00331289,-0.00362424,-0.00330266,-0.00361437,-0.00329237,-0.00360443,-0.00328201,-0.00359443,-0.00327158,-0.00358435,-0.00326109,-0.00357422,-0.00325054,-0.00356401,-0.00323991,-0.00355374,-0.00322922,-0.00354341,-0.00321847,-0.003533,-0.00320765,-0.00352253,-0.00319676,-0.003512,-0.00318581,-0.0035014,-0.00317479,-0.00349073,-0.00316371,-0.00347999,-0.00315255,-0.00346919,-0.00314134,-0.00345832,-0.00313005,-0.00344738,-0.0031187,-0.00343637,-0.00310728,-0.0034253,-0.0030958,-0.00341416,-0.00308424,-0.00340295,-0.00307262,-0.00339168,-0.00306094,-0.00338034,-0.00304918,-0.00336893,-0.00303736,-0.00335745,-0.00302547,-0.00334591,-0.00301352,-0.00333429,-0.00300149,-0.00332261,-0.0029894,-0.00331086,-0.00297724,-0.00329904,-0.00296501,-0.00328716,-0.00295272,-0.0032752,-0.00294035,-0.00326318,-0.00292792,-0.00325109,-0.00291542,-0.00323893
0.0719739,0.0720097,0.0720404,0.0720627,0.072074,0.0720723,0.072057,0.0720287,0.0719891,0.0719403,0.0718851,0.0718267,0.0717697,0.0717217,0.0716984,0.0717395,0.0719112,0.0721067,0.0723217,0.0726278,0.0728798,0.0733489,0.0731228,0.0735448,0.0732989,0.0737009,0.0734422,0.0738075,0.0735551,0.0738381,0.073654,0.0737663,0.0738693,0.0739076,0.0737347,0.0737342,0.0736595,0.0735316,0.0733675,0.0733636,0.0732362,0.0734768,0.0732541,0.0735345,0.0732729,0.0735833,0.073303,0.0736414,0.0733475,0.0737149,0.0734069,0.0738014,0.0734781,0.0738957,0.0735562,0.0739919,0.0736361,0.0740856,0.0737138,0.074174,0.0737869,0.0742559,0.0738544,0.0743312,0.0739162,0.0744006,0.0739731,0.0744652,0.074026,0.074526,0.0740758,0.0745839,0.0741234,0.0746397,0.0741695,0.074694,0.0742144,0.0747471,0.0742587,0.0747995,0.0743025,0.0748512,0.0743461,0.0749026,0.0743895,0.0749536,0.0744328,0.0750044,0.0744762,0.0750549,0.0745196,0.0751054,0.0745631,0.0751558,0.0746067,0.0752062,0.0746506,0.0752565,0.0746946,0.075307,0.0747388,0.0753575,0.0747833,0.0754081,0.0748281,0.075459,0.0748732,0.07551,0.0749186,0.0755612,0.0749644,0.0756126,0.0750106,0.0756643,0.0750571,0.0757164,0.0751041,0.0757687,0.0751514,0.0758213,0.0751992,0.0758743,0.0752475,0.0759276,0.0752961,0.0759813,0.0753453,0.0760353,0.0753948,0.0760897,0.0754449,0.0761445,0.0754954,0.0761997,0.0755463,0.0762553,0.0755977,0.0763113,0.0756496,0.0763676,0.0757019,0.0764244,0.0757547,0.0764816,0.075808,0.0765391,0.0758617,0.0765971,0.0759158,0.0766554,0.0759704,0.0767142,0.0760255,0.0767733,0.076081,0.0768329,0.0761369,0.0768928,0.0761932,0.0769531,0.07625,0.0770138,0.0763072,0.0770748,0.0763648,0.0771363,0.0764228,0.0771981,0.0764813,0.0772602,0.0765401,0.0773227,0.0765993,0.0773856,0.0766589,0.0774488,0.0767189,0.0775124,0.0767792,0.0775763,0.0768399,0.0776405,0.076901,0.0777051,0.0769625,0.07777,0.0770242,0.0778352,0.0770864,0.0779007,0.0771489,0.0779665,0.0772117,0.0780326,0.0772748,0.0780991,0.0773383,0.0781658,0.077402,0.0782328,0.0774661,0.0783001,0.0775305,0.0783677,0.0775952,0.0784355,0.0776601,0.0785036,0.0777254,0.078572,0.077791,0.0786406,0.0778568,0.0787095,0.0779229,0.0787786,0.0779892,0.078848,0.0780559,0.0789176,0.0781227,0.0789874,0.0781899,0.0790575,0.0782572,0.0791278,0.0783249,0.0791983,0.0783927,0.079269,0.0784608,0.0793399,0.0785291,0.0794111,0.0785976,0.0794824,0.0786664,0.079554,0.0787353,0.0796257,0.0788045,0.0796976,0.0788739,0.0797697,0.0789435,0.079842,0.0790132,0.0799145,0.0790832,0.0799872,0.0791533,0.08006,0.0792237,0.0801329,0.0792942,0.0802061,0.0793649,0.0802794,0.0794357,0.0803529,0.0795068,0.0804265,0.0795779,0.0805002,0.0796493,0.0805741,0.0797208,0.0806482,0.0797925,0.0807223,0.0798643,0.0807967,0.0799362,0.0808711,0.0800083,0.0809457,0.0800806,0.0810204,0.080153,0.0810952,0.0802255,0.0811702,0.0802981,0.0812452,0.0803709,0.0813204,0.0804438,0.0813957,0.0805168,0.0814711,0.0805899,0.0815466,0.0806632,0.0816222,0.0807365,0.0816978,0.08081,0.0817736,0.0808835,0.0818495,0.0809572,0.0819255,0.081031,0.0820016,0.0811049,0.0820777,0.0811788,0.082154,0.0812529,0.0822303,0.0813271,0.0823067,0.0814013,0.0823831,0.0814756,0.0824597,0.0815501,0.0825363,0.0816245,0.082613,0.0816991,0.0826898,0.0817738,0.0827666,0.0818485,0.0828435,0.0819233,0.0829204,0.0819981,0.0829974,0.0820731,0.0830745,0.0821481,0.0831516,0.0822231,0.0832288,0.0822982,0.083306,0.0823734,0.0833833,0.0824487,0.0834606,0.082524,0.083538,0.0825993,0.0836154,0.0826747,0.0836928,0.0827501,0.0837703,0.0828256,0.0838478,0.0829012,0.0839254,0.0829767,0.084003,0.0830524,0.0840806,0.083128,0.0841583,0.0832037,0.084236,0.0832795,0.0843137,0.0833552,0.0843914,0.083431,0.0844692,0.0835069,0.084547,0.0835827,0.0846248,0.0836586,0.0847027,0.0837346,0.0847805,0.0838105,0.0848584,0.0838865,0.0849363,0.0839625,0.0850142,0.0840385,0.0850921,0.0841145,0.08517,0.0841905,0.0852479,0.0842666,0.0853259,0.0843427,0.0854038,0.0844188,0.0854817,0.0844949,0.0855597,0.084571,0.0856377,0.0846471,0.0857156,0.0847232,0.0857936,0.0847993,0.0858715,0.0848755,0.0859495,0.0849516,0.0860274,0.0850278,0.0861054,0.0851039,0.0861833,0.08518,0.0862612,0.0852562,0.0863391,0.0853323,0.086417,0.0854084,0.0864949,0.0854845,0.0865728,0.0855607,0.0866507,0.0856368,0.0867285,0.0857129,0.0868064,0.0857889,0.0868842,0.085865,0.086962,0.0859411,0.0870397,0.0860171,0.0871175,0.0860931,0.0871952,0.0861691,0.0872729,0.0862451,0.0873506,0.0863211,0.0874283,0.086397,0.0875059,0.086473,0.0875835,0.0865489,0.0876611,0.0866247,0.0877386,0.0867006,0.0878161,0.0867764,0.0878936,0.0868522,0.087971,0.086928,0.0880485,0.0870037,0.0881258,0.0870794,0.0882032,0.0871551,0.0882805,0.0872307,0.0883577,0.0873063,0.0884349,0.0873819,0.0885121,0.0874574,0.0885892,0.0875329,0.0886663,0.0876084,0.0887434,0.0876838,0.0888204,0.0877592,0.0888973,0.0878345,0.0889742,0.0879098,0.0890511,0.0879851,0.0891279,0.0880603,0.0892047,0.0881354,0.0892814,0.0882105,0.089358,0.0882856,0.0894346,0.0883606,0.0895112,0.0884356,0.0895876,0.0885105,0.0896641,0.0885853,0.0897405,0.0886601,0.0898168,0.0887349,0.089893,0.0888096,0.0899692,0.0888842,0.0900454,0.0889588,0.0901214,0.0890333,0.0901974,0.0891078,0.0902734,0.0891822,0.0903493,0.0892565,0.0904251,0.0893308,0.0905008,0.089405,0.0905765,0.0894792,0.0906521,0.0895533,0.0907277,0.0896273,0.0908031,0.0897013,0.0908785,0.0897752,0.0909539,0.089849,0.0910291,0.0899227,0.0911043,0.0899964,0.0911794,0.09007,0.0912544,0.0901435,0.0913294,0.090217,0.0914042,0.0902904,0.091479,0.0903637,0.0915537,0.0904369,0.0916284,0.0905101,0.0917029,0.0905832,0.0917774,0.0906562,0.0918518,0.0907291,0.091926,0.0908019,0.0920003,0.0908747,0.0920744,0.0909474,0.0921484,0.0910199,0.0922224,0.0910924,0.0922962,0.0911649,0.09237,0.0912372,0.0924437,0.0913094,0.0925172,0.0913816,0.0925907,0.0914537,0.0926641,0.0915256,0.0927374,0.0915975,0.0928106,0.0916693,0.0928838,0.091741,0.0929568,0.0918126,0.0930297,0.0918841,0.0931025,0.0919556,0.0931752,0.0920269,0.0932478,0.0920981,0.0933204,0.0921692,0.0933928,0.0922402,0.0934651,0.0923112,0.0935373,0.092382,0.0936094,0.0924527,0.0936814,0.0925233,0.0937533,0.0925938,0.093825,0.0926643,0.0938967,0.0927346,0.0939683,0.0928048,0.0940397,0.0928749,0.094111,0.0929448,0.0941823,0.0930147,0.0942534,0.0930845,0.0943244,0.0931541,0.0943953,0.0932237,0.094466,0.0932931,0.0945367,0.0933624,0.0946072,0.0934316,0.0946776,0.0935007,0.0947479,0.0935697,0.0948181,0.0936386,0.0948882,0.0937073,0.0949581,0.0937759,0.0950279,0.0938444,0.0950976,0.0939128,0.0951672,0.0939811,0.0952366,0.0940492,0.0953059,0.0941172,0.0953751,0.0941851,0.0954442,0.0942529,0.0955131,0.0943205,0.0955819,0.094388,0.0956506,0.0944554,0.0957192,0.0945227,0.0957876,0.0945898,0.0958559,0.0946568,0.095924,0.0947237,0.095992,0.0947905,0.0960599,0.0948571,0.0961276,0.0949235,0.0961952,0.0949899,0.0962627,0.0950561,0.09633,0.0951222,0.0963972,0.0951881,0.0964643,0.0952539,0.0965312,0.0953196,0.096598,0.0953851,0.0966646,0.0954505,0.0967311,0.0955158,0.0967974,0.0955809
-0.098704,-0.098849,-0.0990036,-0.0991675,-0.0993401,-0.0995202,-0.0997066,-0.0998981,-0.100093,-0.100289,-0.100484,-0.100672,-0.100847,-0.100994,-0.101083,-0.101042,-0.100765,-0.100463,-0.100157,-0.0997702,-0.0994651,-0.0990061,-0.0991634,-0.0987982,-0.0989616,-0.0986362,-0.0988022,-0.0985288,-0.0986854,-0.0985055,-0.098613,-0.0985971,-0.0985305,-0.0985349,-0.0986805,-0.0987485,-0.0988647,-0.0990149,-0.0992045,-0.0992514,-0.0994122,-0.099212,-0.0994668,-0.0992448,-0.0995387,-0.099302,-0.0996088,-0.0993555,-0.0996662,-0.0993916,-0.0997051,-0.0994091,-0.0997263,-0.0994121,-0.0997344,-0.0994063,-0.0997347,-0.0993969,-0.0997318,-0.0993873,-0.099729,-0.0993795,-0.099728,-0.0993743,-0.0997294,-0.0993716,-0.0997329,-0.099371,-0.0997381,-0.0993718,-0.0997445,-0.0993735,-0.0997515,-0.0993758,-0.0997587,-0.0993783,-0.0997658,-0.0993808,-0.0997727,-0.0993832,-0.0997793,-0.0993854,-0.0997855,-0.0993874,-0.0997913,-0.0993892,-0.0997968,-0.0993909,-0.099802,-0.0993924,-0.0998069,-0.0993938,-0.0998115,-0.0993951,-0.0998159,-0.0993963,-0.0998202,-0.0993975,-0.0998243,-0.0993986,-0.0998282,-0.0993997,-0.099832,-0.0994008,-0.0998357,-0.0994018,-0.0998393,-0.0994029,-0.0998429,-0.099404,-0.0998463,-0.0994051,-0.0998497,-0.0994062,-0.099853,-0.0994073,-0.0998563,-0.0994084,-0.0998595,-0.0994096,-0.0998627,-0.0994108,-0.0998658,-0.099412,-0.0998689,-0.0994132,-0.0998719,-0.0994144,-0.099875,-0.0994157,-0.099878,-0.099417,-0.0998809,-0.0994183,-0.0998839,-0.0994197,-0.0998868,-0.099421,-0.0998897,-0.0994224,-0.0998926,-0.0994238,-0.0998955,-0.0994253,-0.0998983,-0.0994267,-0.0999011,-0.0994282,-0.0999039,-0.0994297,-0.0999067,-0.0994312,-0.0999095,-0.0994327,-0.0999123,-0.0994343,-0.099915,-0.0994358,-0.0999178,-0.0994374,-0.0999205,-0.099439,-0.0999232,-0.0994405,-0.0999258,-0.0994421,-0.0999285,-0.0994437,-0.0999311,-0.0994453,-0.0999337,-0.0994469,-0.0999363,-0.0994485,-0.0999389,-0.0994501,-0.0999414,-0.0994517,-0.0999439,-0.0994533,-0.0999464,-0.0994548,-0.0999489,-0.0994564,-0.0999513,-0.099458,-0.0999537,-0.0994595,-0.0999561,-0.099461,-0.0999584,-0.0994626,-0.0999607,-0.0994641,-0.099963,-0.0994655,-0.0999652,-0.099467,-0.0999674,-0.0994684,-0.0999696,-0.0994698,-0.0999717,-0.0994712,-0.0999738,-0.0994726,-0.0999758,-0.0994739,-0.0999778,-0.0994752,-0.0999798,-0.0994764,-0.0999817,-0.0994777,-0.0999835,-0.0994789,-0.0999854,-0.09948,-0.0999871,-0.0994811,-0.0999888,-0.0994822,-0.0999905,-0.0994832,-0.0999921,-0.0994842,-0.0999937,-0.0994851,-0.0999952,-0.099486,-0.0999966,-0.0994869,-0.099998,-0.0994877,-0.0999993,-0.0994884,-0.100001,-0.0994891,-0.100002,-0.0994898,-0.100003,-0.0994904,-0.100004,-0.0994909,-0.100005,-0.0994914,-0.100006,-0.0994918,-0.100007,-0.0994922,-0.100008,-0.0994925,-0.100009,-0.0994928,-0.100009,-0.0994929,-0.10001,-0.0994931,-0.100011,-0.0994931,-0.100011,-0.0994931,-0.100011,-0.0994931,-0.100012,-0.0994929,-0.100012,-0.0994927,-0.100012,-0.0994924,-0.100012,-0.0994921,-0.100012,-0.0994917,-0.100012,-0.0994912,-0.100012,-0.0994907,-0.100012,-0.09949,-0.100012,-0.0994893,-0.100012,-0.0994885,-0.100011,-0.0994877,-0.100011,-0.0994868,-0.10001,-0.0994858,-0.10001,-0.0994847,-0.100009,-0.0994835,-0.100008,-0.0994823,-0.100007,-0.099481,-0.100006,-0.0994796,-0.100005,-0.0994781,-0.100004,-0.0994765,-0.100003,-0.0994749,-0.100002,-0.0994731,-0.1,-0.0994713,-0.0999987,-0.0994694,-0.0999971,-0.0994675,-0.0999955,-0.0994654,-0.0999937,-0.0994632,-0.0999919,-0.099461,-0.09999,-0.0994587,-0.099988,-0.0994562,-0.0999859,-0.0994537,-0.0999837,-0.0994511,-0.0999814,-0.0994485,-0.0999791,-0.0994457,-0.0999766,-0.0994428,-0.099974,-0.0994399,-0.0999714,-0.0994368,-0.0999686,-0.0994337,-0.0999658,-0.0994304,-0.0999629,-0.0994271,-0.0999599,-0.0994237,-0.0999567,-0.0994202,-0.0999535,-0.0994166,-0.0999502,-0.0994129,-0.0999468,-0.0994091,-0.0999433,-0.0994052,-0.0999397,-0.0994012,-0.099936,-0.0993971,-0.0999322,-0.0993929,-0.0999283,-0.0993886,-0.0999243,-0.0993842,-0.0999202,-0.0993797,-0.099916,-0.0993751,-0.0999117,-0.0993704,-0.0999073,-0.0993657,-0.0999028,-0.0993608,-0.0998982,-0.0993558,-0.0998935,-0.0993507,-0.0998887,-0.0993455,-0.0998838,-0.0993402,-0.0998788,-0.0993348,-0.0998737,-0.0993293,-0.0998685,-0.0993237,-0.0998631,-0.099318,-0.0998577,-0.0993122,-0.0998522,-0.0993063,-0.0998466,-0.0993003,-0.0998408,-0.0992941,-0.099835,-0.0992879,-0.099829,-0.0992816,-0.099823,-0.0992751,-0.0998168,-0.0992686,-0.0998105,-0.0992619,-0.0998042,-0.0992551,-0.0997977,-0.0992483,-0.0997911,-0.0992413,-0.0997844,-0.0992342,-0.0997776,-0.099227,-0.0997706,-0.0992197,-0.0997636,-0.0992123,-0.0997565,-0.0992047,-0.0997492,-0.0991971,-0.0997419,-0.0991894,-0.0997344,-0.0991815,-0.0997268,-0.0991735,-0.0997191,-0.0991654,-0.0997113,-0.0991572,-0.0997034,-0.0991489,-0.0996954,-0.0991405,-0.0996873,-0.099132,-0.099679,-0.0991233,-0.0996706,-0.0991146,-0.0996622,-0.0991057,-0.0996536,-0.0990967,-0.0996449,-0.0990876,-0.0996361,-0.0990784,-0.0996271,-0.0990691,-0.0996181,-0.0990596,-0.0996089,-0.0990501,-0.0995996,-0.0990404,-0.0995902,-0.0990306,-0.0995807,-0.0990207,-0.0995711,-0.0990106,-0.0995614,-0.0990005,-0.0995515,-0.0989902,-0.0995415,-0.0989798,-0.0995314,-0.0989693,-0.0995212,-0.0989587,-0.0995109,-0.098948,-0.0995004,-0.0989371,-0.0994899,-0.0989262,-0.0994792,-0.0989151,-0.0994684,-0.0989038,-0.0994575,-0.0988925,-0.0994464,-0.0988811,-0.0994353,-0.0988695,-0.099424,-0.0988578,-0.0994126,-0.098846,-0.0994011,-0.098834,-0.0993894,-0.098822,-0.0993776,-0.0988098,-0.0993658,-0.0987975,-0.0993537,-0.098785,-0.0993416,-0.0987725,-0.0993294,-0.0987598,-0.099317,-0.098747,-0.0993045,-0.0987341,-0.0992919,-0.098721,-0.0992791,-0.0987078,-0.0992662,-0.0986945,-0.0992532,-0.0986811,-0.0992401,-0.0986676,-0.0992269,-0.0986539,-0.0992135,-0.0986401,-0.0992,-0.0986262,-0.0991864,-0.0986121,-0.0991726,-0.0985979,-0.0991588,-0.0985836,-0.0991448,-0.0985692,-0.0991306,-0.0985546,-0.0991164,-0.0985399,-0.099102,-0.0985251,-0.0990875,-0.0985101,-0.0990729,-0.0984951,-0.0990581,-0.0984798,-0.0990432,-0.0984645,-0.0990282,-0.098449,-0.099013,-0.0984334,-0.0989978,-0.0984177,-0.0989823,-0.0984019,-0.0989668,-0.0983859,-0.0989511,-0.0983697,-0.0989353,-0.0983535,-0.0989194,-0.0983371,-0.0989033,-0.0983206,-0.0988872,-0.0983039,-0.0988708,-0.0982871,-0.0988544,-0.0982702,-0.0988378,-0.0982532,-0.0988211,-0.098236,-0.0988042,-0.0982187,-0.0987872,-0.0982012,-0.0987701,-0.0981836,-0.0987529,-0.0981659,-0.0987355,-0.0981481,-0.098718,-0.0981301,-0.0987003,-0.098112,-0.0986825,-0.0980937,-0.0986646,-0.0980753,-0.0986465,-0.0980568,-0.0986283,-0.0980381,-0.09861,-0.0980193,-0.0985916,-0.0980003,-0.098573,-0.0979813,-0.0985542,-0.097962,-0.0985353,-0.0979427,-0.0985163,-0.0979232,-0.0984972,-0.0979035,-0.0984779,-0.0978838,-0.0984585,-0.0978638,-0.0984389,-0.0978438,-0.0984192,-0.0978236,-0.0983994,-0.0978033,-0.0983794,-0.0977828,-0.0983593,-0.0977622,-0.098339,-0.0977414,-0.0983186,-0.0977205,-0.0982981,-0.0976995,-0.0982774,-0.0976783,-0.0982566,-0.0976569,-0.0982356,-0.0976355,-0.0982145,-0.0976139,-0.0981932,-0.0975921,-0.0981719,-0.0975702,-0.0981503,-0.0975482,-0.0981286,-0.097526,-0.0981068,-0.0975036,-0.0980849,-0.0974812,-0.0980628,-0.0974585,-0.0980405,-0.0974358,-0.0980181,-0.0974128,-0.0979956,-0.0973898,-0.0979729,-0.0973666,-0.0979501,-0.0973432,-0.0979271,-0.0973197,-0.097904,-0.0972961,-0.0978807,-0.0972723,-0.0978573,-0.0972483,-0.0978337,-0.0972242,-0.09781,-0.0972,-0.0977862,-0.0971756,-0.0977622,-0.097151,-0.097738,-0.0971264,-0.0977137,-0.0971015,-0.0976893,-0.0970765,-0.0976647,-0.0970514,-0.09764,-0.0970261,-0.0976151,-0.0970006,-0.09759
-0.217556,-0.217521,-0.217486,-0.217453,-0.217424,-0.217402,-0.21739,-0.21739,-0.217403,-0.217428,-0.217465,-0.21751,-0.217562,-0.217611,-0.217645,-0.217627,-0.2175,-0.217356,-0.217204,-0.217003,-0.216847,-0.216598,-0.216688,-0.216484,-0.216578,-0.216396,-0.216492,-0.216336,-0.21643,-0.216317,-0.216392,-0.216357,-0.216351,-0.216347,-0.216438,-0.216462,-0.216556,-0.216641,-0.21675,-0.21679,-0.216886,-0.216811,-0.216941,-0.21685,-0.21699,-0.216887,-0.217028,-0.216915,-0.217054,-0.21693,-0.217069,-0.216934,-0.217075,-0.216931,-0.217074,-0.216923,-0.217068,-0.216913,-0.217061,-0.216903,-0.217055,-0.216893,-0.217048,-0.216885,-0.217044,-0.216878,-0.21704,-0.216873,-0.217036,-0.216867,-0.217034,-0.216863,-0.217031,-0.216858,-0.217029,-0.216854,-0.217026,-0.216849,-0.217023,-0.216845,-0.21702,-0.21684,-0.217017,-0.216835,-0.217013,-0.216829,-0.217009,-0.216824,-0.217004,-0.216818,-0.217,-0.216812,-0.216995,-0.216806,-0.216989,-0.216799,-0.216984,-0.216793,-0.216978,-0.216786,-0.216972,-0.216779,-0.216966,-0.216772,-0.216959,-0.216764,-0.216952,-0.216757,-0.216945,-0.216749,-0.216938,-0.216741,-0.216931,-0.216733,-0.216923,-0.216725,-0.216916,-0.216717,-0.216908,-0.216708,-0.2169,-0.2167,-0.216891,-0.216691,-0.216883,-0.216682,-0.216874,-0.216673,-0.216865,-0.216664,-0.216856,-0.216655,-0.216847,-0.216645,-0.216838,-0.216635,-0.216828,-0.216626,-0.216818,-0.216616,-0.216809,-0.216606,-0.216799,-0.216595,-0.216788,-0.216585,-0.216778,-0.216575,-0.216768,-0.216564,-0.216757,-0.216553,-0.216746,-0.216542,-0.216735,-0.216531,-0.216724,-0.21652,-0.216713,-0.216509,-0.216702,-0.216498,-0.21669,-0.216486,-0.216679,-0.216475,-0.216667,-0.216463,-0.216655,-0.216451,-0.216643,-0.216439,-0.216631,-0.216427,-0.216619,-0.216415,-0.216607,-0.216402,-0.216594,-0.21639,-0.216582,-0.216377,-0.216569,-0.216365,-0.216556,-0.216352,-0.216543,-0.216339,-0.21653,-0.216326,-0.216517,-0.216313,-0.216503,-0.2163,-0.21649,-0.216287,-0.216476,-0.216273,-0.216463,-0.21626,-0.216449,-0.216246,-0.216435,-0.216232,-0.216421,-0.216218,-0.216407,-0.216205,-0.216393,-0.216191,-0.216379,-0.216176,-0.216364,-0.216162,-0.21635,-0.216148,-0.216335,-0.216134,-0.216321,-0.216119,-0.216306,-0.216104,-0.216291,-0.21609,-0.216276,-0.216075,-0.216261,-0.21606,-0.216246,-0.216045,-0.216231,-0.21603,-0.216216,-0.216015,-0.2162,-0.216,-0.216185,-0.215985,-0.216169,-0.215969,-0.216153,-0.215954,-0.216138,-0.215938,-0.216122,-0.215923,-0.216106,-0.215907,-0.21609,-0.215891,-0.216074,-0.215875,-0.216058,-0.215859,-0.216041,-0.215843,-0.216025,-0.215827,-0.216009,-0.215811,-0.215992,-0.215795,-0.215976,-0.215779,-0.215959,-0.215762,-0.215943,-0.215746,-0.215926,-0.215729,-0.215909,-0.215713,-0.215892,-0.215696,-0.215875,-0.215679,-0.215858,-0.215663,-0.215841,-0.215646,-0.215824,-0.215629,-0.215807,-0.215612,-0.215789,-0.215595,-0.215772,-0.215578,-0.215754,-0.21556,-0.215737,-0.215543,-0.215719,-0.215526,-0.215702,-0.215509,-0.215684,-0.215491,-0.215666,-0.215474,-0.215649,-0.215456,-0.215631,-0.215438,-0.215613,-0.215421,-0.215595,-0.215403,-0.215577,-0.215385,-0.215559,-0.215367,-0.215541,-0.21535,-0.215522,-0.215332,-0.215504,-0.215314,-0.215486,-0.215296,-0.215467,-0.215278,-0.215449,-0.215259,-0.215431,-0.215241,-0.215412,-0.215223,-0.215393,-0.215205,-0.215375,-0.215186,-0.215356,-0.215168,-0.215337,-0.215149,-0.215319,-0.215131,-0.2153,-0.215112,-0.215281,-0.215094,-0.215262,-0.215075,-0.215243,-0.215056,-0.215224,-0.215038,-0.215205,-0.215019,-0.215186,-0.215,-0.215167,-0.214981,-0.215148,-0.214962,-0.215129,-0.214943,-0.215109,-0.214924,-0.21509,-0.214905,-0.215071,-0.214886,-0.215051,-0.214867,-0.215032,-0.214848,-0.215013,-0.214829,-0.214993,-0.21481,-0.214974,-0.21479,-0.214954,-0.214771,-0.214934,-0.214752,-0.214915,-0.214732,-0.214895,-0.214713,-0.214875,-0.214693,-0.214856,-0.214674,-0.214836,-0.214654,-0.214816,-0.214635,-0.214796,-0.214615,-0.214776,-0.214596,-0.214756,-0.214576,-0.214736,-0.214556,-0.214716,-0.214536,-0.214696,-0.214517,-0.214676,-0.214497,-0.214656,-0.214477,-0.214636,-0.214457,-0.214616,-0.214437,-0.214596,-0.214417,-0.214576,-0.214397,-0.214556,-0.214377,-0.214535,-0.214357,-0.214515,-0.214337,-0.214495,-0.214317,-0.214474,-0.214297,-0.214454,-0.214277,-0.214434,-0.214257,-0.214413,-0.214237,-0.214393,-0.214216,-0.214372,-0.214196,-0.214352,-0.214176,-0.214331,-0.214156,-0.214311,-0.214135,-0.21429,-0.214115,-0.214269,-0.214095,-0.214249,-0.214074,-0.214228,-0.214054,-0.214208,-0.214033,-0.214187,-0.214013,-0.214166,-0.213992,-0.214145,-0.213972,-0.214125,-0.213951,-0.214104,-0.213931,-0.214083,-0.21391,-0.214062,-0.21389,-0.214041,-0.213869,-0.21402,-0.213848,-0.214,-0.213828,-0.213979,-0.213807,-0.213958,-0.213786,-0.213937,-0.213765,-0.213916,-0.213745,-0.213895,-0.213724,-0.213874,-0.213703,-0.213853,-0.213682,-0.213832,-0.213662,-0.213811,-0.213641,-0.21379,-0.21362,-0.213769,-0.213599,-0.213747,-0.213578,-0.213726,-0.213557,-0.213705,-0.213536,-0.213684,-0.213515,-0.213663,-0.213494,-0.213642,-0.213473,-0.21362,-0.213452,-0.213599,-0.213431,-0.213578,-0.21341,-0.213557,-0.213389,-0.213535,-0.213368,-0.213514,-0.213347,-0.213493,-0.213326,-0.213471,-0.213305,-0.21345,-0.213284,-0.213429,-0.213262,-0.213407,-0.213241,-0.213386,-0.21322,-0.213365,-0.213199,-0.213343,-0.213178,-0.213322,-0.213156,-0.2133,-0.213135,-0.213279,-0.213114,-0.213257,-0.213093,-0.213236,-0.213071,-0.213215,-0.21305,-0.213193,-0.213029,-0.213172,-0.213007,-0.21315,-0.212986,-0.213128,-0.212965,-0.213107,-0.212943,-0.213085,-0.212922,-0.213064,-0.212901,-0.213042,-0.212879,-0.213021,-0.212858,-0.212999,-0.212837,-0.212978,-0.212815,-0.212956,-0.212794,-0.212934,-0.212772,-0.212913,-0.212751,-0.212891,-0.212729,-0.212869,-0.212708,-0.212848,-0.212686,-0.212826,-0.212665,-0.212804,-0.212644,-0.212783,-0.212622,-0.212761,-0.212601,-0.212739,-0.212579,-0.212718,-0.212557,-0.212696,-0.212536,-0.212674,-0.212514,-0.212653,-0.212493,-0.212631,-0.212471,-0.212609,-0.21245,-0.212587,-0.212428,-0.212566,-0.212407,-0.212544,-0.212385,-0.212522,-0.212363,-0.2125,-0.212342,-0.212479,-0.21232,-0.212457,-0.212299,-0.212435,-0.212277,-0.212413,-0.212255,-0.212391,-0.212234,-0.21237,-0.212212,-0.212348,-0.21219,-0.212326,-0.212169,-0.212304,-0.212147,-0.212282,-0.212126,-0.212261,-0.212104,-0.212239,-0.212082,-0.212217,-0.212061,-0.212195,-0.212039,-0.212173,-0.212017,-0.212151,-0.211995,-0.21213,-0.211974,-0.212108,-0.211952,-0.212086,-0.21193,-0.212064,-0.211909,-0.212042,-0.211887,-0.21202,-0.211865,-0.211998,-0.211844,-0.211977,-0.211822,-0.211955,-0.2118,-0.211933,-0.211778,-0.211911,-0.211757,-0.211889,-0.211735,-0.211867,-0.211713,-0.211845,-0.211692,-0.211824,-0.21167,-0.211802,-0.211648,-0.21178,-0.211626,-0.211758,-0.211605,-0.211736,-0.211583,-0.211714,-0.211561,-0.211692,-0.211539,-0.21167,-0.211518,-0.211648,-0.211496,-0.211627,-0.211474,-0.211605,-0.211452,-0.211583,-0.211431,-0.211561,-0.211409,-0.211539,-0.211387,-0.211517,-0.211365,-0.211495
-0.0261473,-0.0261267,-0.0261103,-0.0260982,-0.0260902,-0.026085,-0.0260809,-0.0260759,-0.0260683,-0.0260569,-0.0260409,-0.0260207,-0.0259972,-0.0259736,-0.0259568,-0.0259638,-0.0260194,-0.026075,-0.0261275,-0.026193,-0.0262403,-0.0263204,-0.0262956,-0.0263611,-0.0263375,-0.0263936,-0.0263728,-0.0264173,-0.0264025,-0.0264302,-0.026428,-0.0264339,-0.0264577,-0.0264662,-0.0264855,-0.0264903,-0.0265101,-0.0265178,-0.0265313,-0.0265257,-0.0265377,-0.0265137,-0.0265481,-0.0265216,-0.0265696,-0.0265391,-0.0265947,-0.0265593,-0.0266196,-0.0265786,-0.0266426,-0.026596,-0.0266635,-0.0266118,-0.0266827,-0.0266267,-0.026701,-0.0266414,-0.026719,-0.0266565,-0.0267374,-0.0266722,-0.0267563,-0.0266887,-0.0267759,-0.0267059,-0.0267962,-0.0267238,-0.026817,-0.0267421,-0.0268381,-0.0267608,-0.0268596,-0.0267798,-0.0268813,-0.026799,-0.0269031,-0.0268184,-0.0269249,-0.0268379,-0.0269468,-0.0268574,-0.0269687,-0.026877,-0.0269905,-0.0268967,-0.0270124,-0.0269164,-0.0270342,-0.0269361,-0.027056,-0.0269559,-0.0270778,-0.0269757,-0.0270996,-0.0269955,-0.0271213,-0.0270153,-0.027143,-0.0270352,-0.0271646,-0.0270551,-0.0271863,-0.027075,-0.0272078,-0.0270949,-0.0272294,-0.0271148,-0.0272508,-0.0271347,-0.0272723,-0.0271546,-0.0272937,-0.0271745,-0.027315,-0.0271943,-0.0273363,-0.0272142,-0.0273575,-0.027234,-0.0273787,-0.0272539,-0.0273998,-0.0272737,-0.0274208,-0.0272934,-0.0274418,-0.0273132,-0.0274627,-0.0273329,-0.0274836,-0.0273526,-0.0275044,-0.0273722,-0.0275251,-0.0273918,-0.0275458,-0.0274114,-0.0275664,-0.027431,-0.0275869,-0.0274505,-0.0276073,-0.0274699,-0.0276277,-0.0274893,-0.0276481,-0.0275087,-0.0276683,-0.0275281,-0.0276885,-0.0275473,-0.0277086,-0.0275666,-0.0277287,-0.0275858,-0.0277487,-0.0276049,-0.0277686,-0.027624,-0.0277885,-0.0276431,-0.0278083,-0.0276621,-0.027828,-0.0276811,-0.0278476,-0.0277,-0.0278672,-0.0277189,-0.0278868,-0.0277377,-0.0279062,-0.0277565,-0.0279256,-0.0277752,-0.027945,-0.0277939,-0.0279642,-0.0278125,-0.0279834,-0.0278311,-0.0280026,-0.0278496,-0.0280217,-0.0278681,-0.0280407,-0.0278865,-0.0280596,-0.0279049,-0.0280785,-0.0279233,-0.0280974,-0.0279415,-0.0281161,-0.0279598,-0.0281348,-0.027978,-0.0281535,-0.0279961,-0.0281721,-0.0280142,-0.0281906,-0.0280322,-0.0282091,-0.0280502,-0.0282275,-0.0280682,-0.0282459,-0.0280861,-0.0282642,-0.0281039,-0.0282824,-0.0281217,-0.0283006,-0.0281395,-0.0283188,-0.0281572,-0.0283368,-0.0281748,-0.0283549,-0.0281924,-0.0283728,-0.02821,-0.0283907,-0.0282275,-0.0284086,-0.028245,-0.0284264,-0.0282624,-0.0284442,-0.0282798,-0.0284619,-0.0282971,-0.0284795,-0.0283144,-0.0284971,-0.0283316,-0.0285146,-0.0283488,-0.0285321,-0.0283659,-0.0285496,-0.028383,-0.028567,-0.0284001,-0.0285843,-0.0284171,-0.0286016,-0.0284341,-0.0286188,-0.028451,-0.028636,-0.0284678,-0.0286532,-0.0284847,-0.0286703,-0.0285015,-0.0286873,-0.0285182,-0.0287043,-0.0285349,-0.0287213,-0.0285515,-0.0287382,-0.0285681,-0.028755,-0.0285847,-0.0287719,-0.0286012,-0.0287886,-0.0286177,-0.0288053,-0.0286341,-0.028822,-0.0286505,-0.0288386,-0.0286669,-0.0288552,-0.0286832,-0.0288718,-0.0286995,-0.0288883,-0.0287157,-0.0289047,-0.0287319,-0.0289211,-0.028748,-0.0289375,-0.0287641,-0.0289538,-0.0287802,-0.0289701,-0.0287962,-0.0289863,-0.0288121,-0.0290025,-0.0288281,-0.0290186,-0.028844,-0.0290347,-0.0288598,-0.0290508,-0.0288756,-0.0290668,-0.0288914,-0.0290828,-0.0289071,-0.0290987,-0.0289228,-0.0291146,-0.0289385,-0.0291305,-0.0289541,-0.0291463,-0.0289697,-0.029162,-0.0289852,-0.0291778,-0.0290007,-0.0291935,-0.0290161,-0.0292091,-0.0290315,-0.0292247,-0.0290469,-0.0292403,-0.0290622,-0.0292558,-0.0290775,-0.0292713,-0.0290928,-0.0292868,-0.029108,-0.0293022,-0.0291232,-0.0293175,-0.0291383,-0.0293329,-0.0291534,-0.0293482,-0.0291685,-0.0293634,-0.0291835,-0.0293786,-0.0291985,-0.0293938,-0.0292135,-0.029409,-0.0292284,-0.0294241,-0.0292432,-0.0294391,-0.0292581,-0.0294541,-0.0292729,-0.0294691,-0.0292876,-0.0294841,-0.0293024,-0.029499,-0.029317,-0.0295139,-0.0293317,-0.0295287,-0.0293463,-0.0295435,-0.0293609,-0.0295583,-0.0293754,-0.029573,-0.0293899,-0.0295877,-0.0294044,-0.0296023,-0.0294188,-0.0296169,-0.0294332,-0.0296315,-0.0294475,-0.029646,-0.0294618,-0.0296605,-0.0294761,-0.029675,-0.0294904,-0.0296894,-0.0295046,-0.0297038,-0.0295187,-0.0297182,-0.0295329,-0.0297325,-0.0295469,-0.0297468,-0.029561,-0.029761,-0.029575,-0.0297752,-0.029589,-0.0297894,-0.0296029,-0.0298036,-0.0296169,-0.0298177,-0.0296307,-0.0298317,-0.0296446,-0.0298457,-0.0296584,-0.0298597,-0.0296721,-0.0298737,-0.0296859,-0.0298876,-0.0296995,-0.0299015,-0.0297132,-0.0299153,-0.0297268,-0.0299292,-0.0297404,-0.0299429,-0.0297539,-0.0299567,-0.0297675,-0.0299704,-0.0297809,-0.029984,-0.0297944,-0.0299977,-0.0298078,-0.0300113,-0.0298211,-0.0300248,-0.0298344,-0.0300383,-0.0298477,-0.0300518,-0.029861,-0.0300653,-0.0298742,-0.0300787,-0.0298874,-0.0300921,-0.0299005,-0.0301054,-0.0299137,-0.0301187,-0.0299267,-0.030132,-0.0299398,-0.0301452,-0.0299528,-0.0301585,-0.0299657,-0.0301716,-0.0299787,-0.0301847,-0.0299915,-0.0301978,-0.0300044,-0.0302109,-0.0300172,-0.0302239,-0.03003,-0.0302369,-0.0300427,-0.0302499,-0.0300555,-0.0302628,-0.0300681,-0.0302757,-0.0300808,-0.0302885,-0.0300934,-0.0303013,-0.0301059,-0.0303141,-0.0301185,-0.0303268,-0.030131,-0.0303395,-0.0301434,-0.0303522,-0.0301558,-0.0303648,-0.0301682,-0.0303774,-0.0301806,-0.0303899,-0.0301929,-0.0304025,-0.0302051,-0.0304149,-0.0302174,-0.0304274,-0.0302296,-0.0304398,-0.0302417,-0.0304522,-0.0302539,-0.0304645,-0.0302659,-0.0304768,-0.030278,-0.0304891,-0.03029,-0.0305013,-0.030302,-0.0305135,-0.0303139,-0.0305257,-0.0303258,-0.0305378,-0.0303377,-0.0305499,-0.0303495,-0.0305619,-0.0303613,-0.0305739,-0.0303731,-0.0305859,-0.0303848,-0.0305978,-0.0303965,-0.0306097,-0.0304081,-0.0306216,-0.0304197,-0.0306334,-0.0304313,-0.0306452,-0.0304428,-0.030657,-0.0304543,-0.0306687,-0.0304658,-0.0306804,-0.0304772,-0.030692,-0.0304886,-0.0307036,-0.0305,-0.0307152,-0.0305113,-0.0307267,-0.0305225,-0.0307382,-0.0305338,-0.0307497,-0.030545,-0.0307611,-0.0305561,-0.0307725,-0.0305673,-0.0307838,-0.0305783,-0.0307952,-0.0305894,-0.0308064,-0.0306004,-0.0308177,-0.0306114,-0.0308289,-0.0306223,-0.03084,-0.0306332,-0.0308511,-0.0306441,-0.0308622,-0.0306549,-0.0308733,-0.0306657,-0.0308843,-0.0306764,-0.0308953,-0.0306871,-0.0309062,-0.0306978,-0.0309171,-0.0307084,-0.030928,-0.030719,-0.0309388,-0.0307295,-0.0309496,-0.0307401,-0.0309603,-0.0307505,-0.030971,-0.030761,-0.0309817,-0.0307714,-0.0309923,-0.0307817,-0.0310029,-0.0307921,-0.0310135,-0.0308023,-0.031024,-0.0308126,-0.0310345,-0.0308228,-0.0310449,-0.030833,-0.0310553,-0.0308431,-0.0310657,-0.0308532,-0.031076,-0.0308632,-0.0310863,-0.0308732,-0.0310966,-0.0308832,-0.0311068,-0.0308931,-0.0311169,-0.030903,-0.0311271,-0.0309129,-0.0311372,-0.0309227,-0.0311472,-0.0309325,-0.0311572,-0.0309422,-0.0311672,-0.0309519,-0.0311772,-0.0309616,-0.0311871,-0.0309712,-0.0311969,-0.0309808,-0.0312067,-0.0309903,-0.0312165,-0.0309998,-0.0312263,-0.0310093,-0.031236,-0.0310187,-0.0312456,-0.0310281,-0.0312553,-0.0310374,-0.0312648,-0.0310467,-0.0312744,-0.031056,-0.0312839,-0.0310652,-0.0312934,-0.0310744,-0.0313028,-0.0310835,-0.0313122,-0.0310926,-0.0313215,-0.0311017,-0.0313308,-0.0311107,-0.0313401,-0.0311197,-0.0313493,-0.0311286,-0.0313585,-0.0311375,-0.0313677,-0.0311464,-0.0313768,-0.0311552,-0.0313858,-0.031164,-0.0313949,-0.0311727,-0.0314039,-0.0311814,-0.0314128,-0.0311901,-0.0314217,-0.0311987,-0.0314306,-0.0312073,-0.0314394,-0.0312158,-0.0314482,-0.0312243,-0.0314569,-0.0312328,-0.0314656,-0.0312412,-0.0314743,-0.0312496,-0.0314829,-0.0312579,-0.0314915,-0.0312662,-0.0315001
0.0343221,0.0351366,0.0360577,0.0370832,0.0381999,0.0393854,0.0406118,0.0418505,0.0430742,0.0442574,0.0453735,0.0463908,0.0472631,0.0479078,0.0481473,0.0475423,0.0455021,0.0434314,0.0414579,0.0390589,0.0372745,0.0345033,0.0356854,0.0334739,0.0347026,0.0327349,0.0339873,0.0323312,0.0335309,0.0324187,0.0333218,0.0331678,0.0329953,0.0331374,0.0341683,0.0346116,0.0354241,0.0364629,0.0375256,0.038092,0.0389611,0.0383052,0.0396207,0.0388622,0.040325,0.0394991,0.0409839,0.0400927,0.0415628,0.0405953,0.0420499,0.0410104,0.0424566,0.0413608,0.042806,0.0416727,0.0431225,0.0419684,0.0434259,0.0422628,0.0437297,0.0425642,0.0440409,0.0428757,0.0443619,0.043197,0.044692,0.0435263,0.0450289,0.043861,0.0453704,0.0441989,0.045714,0.0445381,0.0460582,0.0448772,0.0464016,0.0452154,0.0467433,0.045552,0.0470831,0.0458866,0.0474205,0.0462192,0.0477557,0.0465498,0.0480885,0.0468783,0.0484191,0.0472049,0.0487475,0.0475297,0.049074,0.0478527,0.0493986,0.048174,0.0497214,0.0484937,0.0500425,0.0488119,0.050362,0.0491286,0.0506799,0.049444,0.0509964,0.0497579,0.0513114,0.0500705,0.051625,0.0503819,0.0519373,0.0506919,0.0522483,0.0510008,0.052558,0.0513085,0.0528665,0.051615,0.0531738,0.0519204,0.0534799,0.0522247,0.0537849,0.0525279,0.0540888,0.05283,0.0543916,0.0531311,0.0546934,0.0534312,0.0549941,0.0537303,0.0552938,0.0540284,0.0555926,0.0543255,0.0558903,0.0546217,0.0561872,0.054917,0.0564831,0.0552113,0.056778,0.0555048,0.0570721,0.0557974,0.0573653,0.0560891,0.0576576,0.0563799,0.0579491,0.0566699,0.0582397,0.0569591,0.0585295,0.0572474,0.0588185,0.0575349,0.0591066,0.0578216,0.059394,0.0581076,0.0596806,0.0583927,0.0599663,0.058677,0.0602513,0.0589606,0.0605356,0.0592434,0.0608191,0.0595255,0.0611018,0.0598068,0.0613838,0.0600874,0.0616651,0.0603672,0.0619456,0.0606463,0.0622254,0.0609247,0.0625045,0.0612024,0.0627829,0.0614793,0.0630606,0.0617556,0.0633376,0.0620311,0.0636139,0.062306,0.0638895,0.0625801,0.0641644,0.0628536,0.0644387,0.0631264,0.0647122,0.0633985,0.0649851,0.06367,0.0652574,0.0639408,0.0655289,0.0642109,0.0657999,0.0644804,0.0660701,0.0647492,0.0663398,0.0650174,0.0666087,0.0652849,0.0668771,0.0655518,0.0671448,0.0658181,0.0674119,0.0660837,0.0676783,0.0663487,0.0679442,0.066613,0.0682094,0.0668768,0.068474,0.0671399,0.068738,0.0674025,0.0690013,0.0676644,0.0692641,0.0679257,0.0695263,0.0681864,0.0697879,0.0684465,0.0700489,0.0687061,0.0703093,0.068965,0.0705691,0.0692234,0.0708283,0.0694812,0.071087,0.0697384,0.0713451,0.069995,0.0716026,0.0702511,0.0718596,0.0705066,0.072116,0.0707615,0.0723718,0.0710159,0.0726271,0.0712697,0.0728818,0.071523,0.073136,0.0717757,0.0733896,0.0720279,0.0736427,0.0722795,0.0738953,0.0725307,0.0741473,0.0727812,0.0743988,0.0730313,0.0746498,0.0732808,0.0749002,0.0735298,0.0751501,0.0737783,0.0753995,0.0740262,0.0756484,0.0742737,0.0758968,0.0745206,0.0761447,0.0747671,0.0763921,0.075013,0.0766389,0.0752584,0.0768853,0.0755034,0.0771312,0.0757478,0.0773766,0.0759918,0.0776215,0.0762353,0.0778659,0.0764783,0.0781098,0.0767208,0.0783533,0.0769628,0.0785962,0.0772044,0.0788387,0.0774454,0.0790808,0.0776861,0.0793223,0.0779262,0.0795634,0.0781659,0.0798041,0.0784052,0.0800442,0.0786439,0.080284,0.0788823,0.0805232,0.0791202,0.0807621,0.0793576,0.0810004,0.0795946,0.0812384,0.0798311,0.0814759,0.0800672,0.0817129,0.0803029,0.0819495,0.0805381,0.0821857,0.0807729,0.0824215,0.0810073,0.0826568,0.0812413,0.0828917,0.0814748,0.0831262,0.0817079,0.0833602,0.0819406,0.0835938,0.0821729,0.0838271,0.0824047,0.0840599,0.0826362,0.0842922,0.0828672,0.0845242,0.0830978,0.0847558,0.0833281,0.084987,0.0835579,0.0852177,0.0837873,0.0854481,0.0840163,0.0856781,0.084245,0.0859076,0.0844732,0.0861368,0.0847011,0.0863656,0.0849285,0.086594,0.0851556,0.086822,0.0853823,0.0870497,0.0856086,0.0872769,0.0858345,0.0875038,0.0860601,0.0877302,0.0862852,0.0879563,0.08651,0.0881821,0.0867345,0.0884074,0.0869585,0.0886324,0.0871822,0.088857,0.0874055,0.0890813,0.0876285,0.0893051,0.0878511,0.0895287,0.0880733,0.0897518,0.0882951,0.0899746,0.0885166,0.090197,0.0887378,0.0904191,0.0889586,0.0906408,0.089179,0.0908622,0.0893991,0.0910832,0.0896188,0.0913038,0.0898382,0.0915241,0.0900573,0.0917441,0.090276,0.0919637,0.0904943,0.0921829,0.0907123,0.0924018,0.09093,0.0926204,0.0911473,0.0928386,0.0913643,0.0930565,0.0915809,0.0932741,0.0917972,0.0934913,0.0920132,0.0937082,0.0922288,0.0939247,0.0924441,0.0941409,0.0926591,0.0943568,0.0928737,0.0945723,0.0930881,0.0947875,0.093302,0.0950024,0.0935157,0.095217,0.093729,0.0954312,0.093942,0.0956451,0.0941547,0.0958587,0.0943671,0.0960719,0.0945791,0.0962848,0.0947909,0.0964974,0.0950023,0.0967097,0.0952134,0.0969217,0.0954241,0.0971333,0.0956346,0.0973447,0.0958447,0.0975557,0.0960545,0.0977664,0.0962641,0.0979768,0.0964732,0.0981868,0.0966821,0.0983966,0.0968907,0.0986061,0.097099,0.0988152,0.0973069,0.099024,0.0975146,0.0992325,0.0977219,0.0994407,0.097929,0.0996486,0.0981357,0.0998562,0.0983421,0.100064,0.0985483,0.10027,0.0987541,0.100477,0.0989596,0.100684,0.0991648,0.10089,0.0993697,0.101095,0.0995743,0.101301,0.0997787,0.101506,0.0999827,0.101711,0.100186,0.101915,0.10039,0.10212,0.100593,0.102324,0.100796,0.102527,0.100998,0.102731,0.101201,0.102934,0.101402,0.103137,0.101604,0.103339,0.101806,0.103541,0.102007,0.103743,0.102207,0.103945,0.102408,0.104146,0.102608,0.104347,0.102808,0.104548,0.103008,0.104748,0.103207,0.104948,0.103406,0.105148,0.103605,0.105348,0.103803,0.105547,0.104001,0.105746,0.104199,0.105945,0.104397,0.106143,0.104594,0.106341,0.104791,0.106539,0.104988,0.106736,0.105184,0.106934,0.10538,0.107131,0.105576,0.107327,0.105772,0.107524,0.105967,0.10772,0.106162,0.107916,0.106357,0.108111,0.106551,0.108307,0.106746,0.108501,0.10694,0.108696,0.107133,0.108891,0.107327,0.109085,0.10752,0.109279,0.107712,0.109472,0.107905,0.109665,0.108097,0.109858,0.108289,0.110051,0.108481,0.110244,0.108672,0.110436,0.108863,0.110628,0.109054,0.110819,0.109245,0.11101,0.109435,0.111202,0.109625,0.111392,0.109815,0.111583,0.110004,0.111773,0.110193,0.111963,0.110382,0.112153,0.110571,0.112342,0.110759,0.112531,0.110947,0.11272,0.111135,0.112908,0.111323,0.113097,0.11151,0.113285,0.111697,0.113472,0.111883,0.11366,0.11207,0.113847,0.112256,0.114034,0.112442,0.11422,0.112628,0.114407,0.112813,0.114593,0.112998,0.114779,0.113183,0.114964,0.113367,0.115149,0.113551,0.115334,0.113735,0.115519,0.113919,0.115703,0.114103,0.115888,0.114286,0.116071,0.114469,0.116255,0.114651,0.116438,0.114834,0.116621,0.115016,0.116804,0.115198,0.116987,0.115379,0.117169,0.11556,0.117351,0.115741,0.117533,0.115922,0.117714,0.116102,0.117895,0.116283,0.118076,0.116463,0.118257,0.116642,0.118437,0.116822,0.118617,0.117001,0.118797,0.11718,0.118976,0.117358,0.119156,0.117536,0.119335,0.117715,0.119513
0.0243227,0.0245671,0.0248565,0.0251931,0.0255752,0.0259976,0.0264521,0.0269291,0.0274181,0.0279083,0.0283872,0.0288389,0.0292394,0.0295463,0.0296694,0.0293869,0.0283894,0.0273544,0.0263321,0.0250325,0.0240098,0.0224121,0.0230398,0.0217331,0.0223881,0.0211943,0.0218579,0.0208141,0.0214283,0.0206632,0.0210401,0.0207997,0.0203186,0.0202344,0.0205387,0.0205975,0.020628,0.0209966,0.0213548,0.021385,0.0216662,0.0209634,0.0215476,0.0207452,0.0214539,0.0205916,0.0213514,0.0204384,0.0212251,0.0202599,0.0210682,0.0200582,0.0208868,0.0198451,0.0206932,0.0196334,0.0204999,0.0194328,0.0203162,0.0192487,0.0201473,0.0190826,0.0199947,0.0189333,0.0198574,0.0187984,0.0197332,0.0186752,0.0196195,0.0185611,0.019514,0.018454,0.0194147,0.0183522,0.01932,0.0182545,0.0192288,0.0181601,0.0191403,0.0180683,0.019054,0.0179787,0.0189696,0.017891,0.0188868,0.0178051,0.0188053,0.0177208,0.0187252,0.0176379,0.0186462,0.0175564,0.0185684,0.0174761,0.0184915,0.017397,0.0184156,0.0173189,0.0183405,0.0172418,0.0182662,0.0171656,0.0181926,0.0170902,0.0181197,0.0170156,0.0180473,0.0169416,0.0179755,0.0168683,0.0179042,0.0167955,0.0178333,0.0167233,0.0177628,0.0166515,0.0176927,0.0165802,0.0176228,0.0165092,0.0175533,0.0164385,0.0174839,0.0163682,0.0174148,0.0162981,0.0173459,0.0162283,0.0172771,0.0161587,0.0172085,0.0160893,0.01714,0.0160201,0.0170716,0.015951,0.0170032,0.015882,0.016935,0.0158131,0.0168668,0.0157444,0.0167986,0.0156757,0.0167304,0.0156071,0.0166623,0.0155385,0.0165942,0.01547,0.016526,0.0154015,0.0164579,0.015333,0.0163897,0.0152645,0.0163215,0.0151961,0.0162533,0.0151276,0.016185,0.0150591,0.0161167,0.0149906,0.0160483,0.0149221,0.0159799,0.0148535,0.0159114,0.0147849,0.0158428,0.0147163,0.0157742,0.0146476,0.0157055,0.0145789,0.0156367,0.0145101,0.0155679,0.0144413,0.015499,0.0143724,0.0154299,0.0143034,0.0153609,0.0142344,0.0152917,0.0141653,0.0152224,0.0140962,0.0151531,0.014027,0.0150837,0.0139577,0.0150141,0.0138883,0.0149445,0.0138189,0.0148748,0.0137494,0.0148051,0.0136798,0.0147352,0.0136101,0.0146652,0.0135404,0.0145951,0.0134706,0.014525,0.0134007,0.0144548,0.0133307,0.0143844,0.0132606,0.014314,0.0131905,0.0142435,0.0131203,0.0141729,0.01305,0.0141022,0.0129797,0.0140314,0.0129092,0.0139605,0.0128387,0.0138896,0.0127681,0.0138185,0.0126974,0.0137474,0.0126266,0.0136762,0.0125558,0.0136049,0.0124849,0.0135335,0.0124139,0.013462,0.0123429,0.0133904,0.0122717,0.0133188,0.0122005,0.0132471,0.0121292,0.0131753,0.0120579,0.0131034,0.0119864,0.0130314,0.0119149,0.0129594,0.0118434,0.0128873,0.0117717,0.0128151,0.0117,0.0127428,0.0116283,0.0126705,0.0115564,0.0125981,0.0114845,0.0125256,0.0114126,0.0124531,0.0113405,0.0123805,0.0112684,0.0123078,0.0111963,0.0122351,0.0111241,0.0121622,0.0110518,0.0120894,0.0109794,0.0120164,0.0109071,0.0119434,0.0108346,0.0118704,0.0107621,0.0117973,0.0106895,0.0117241,0.0106169,0.0116508,0.0105443,0.0115776,0.0104715,0.0115042,0.0103988,0.0114308,0.010326,0.0113574,0.0102531,0.0112839,0.0101802,0.0112103,0.0101072,0.0111367,0.0100342,0.011063,0.00996114,0.0109893,0.00988805,0.0109156,0.00981491,0.0108418,0.00974173,0.010768,0.00966851,0.0106941,0.00959525,0.0106202,0.00952195,0.0105462,0.00944861,0.0104722,0.00937523,0.0103982,0.00930182,0.0103241,0.00922838,0.01025,0.0091549,0.0101758,0.00908138,0.0101017,0.00900784,0.0100274,0.00893426,0.00995318,0.00886066,0.0098789,0.00878702,0.00980458,0.00871336,0.00973023,0.00863966,0.00965586,0.00856594,0.00958146,0.0084922,0.00950703,0.00841843,0.00943257,0.00834464,0.00935809,0.00827082,0.00928358,0.00819698,0.00920905,0.00812312,0.00913449,0.00804923,0.00905992,0.00797533,0.00898532,0.00790141,0.0089107,0.00782747,0.00883607,0.00775351,0.00876141,0.00767953,0.00868674,0.00760554,0.00861204,0.00753153,0.00853734,0.00745751,0.00846261,0.00738348,0.00838787,0.00730943,0.00831312,0.00723537,0.00823836,0.0071613,0.00816358,0.00708721,0.00808879,0.00701312,0.00801399,0.00693902,0.00793918,0.0068649,0.00786435,0.00679078,0.00778952,0.00671666,0.00771469,0.00664252,0.00763984,0.00656838,0.00756499,0.00649423,0.00749013,0.00642008,0.00741526,0.00634593,0.00734039,0.00627177,0.00726552,0.0061976,0.00719064,0.00612344,0.00711576,0.00604927,0.00704088,0.00597511,0.00696599,0.00590094,0.00689111,0.00582677,0.00681622,0.0057526,0.00674133,0.00567843,0.00666644,0.00560427,0.00659156,0.00553011,0.00651668,0.00545595,0.00644179,0.00538179,0.00636691,0.00530764,0.00629204,0.00523349,0.00621717,0.00515935,0.0061423,0.00508521,0.00606744,0.00501108,0.00599258,0.00493695,0.00591773,0.00486283,0.00584289,0.00478872,0.00576805,0.00471462,0.00569322,0.00464052,0.0056184,0.00456644,0.00554358,0.00449236,0.00546878,0.00441829,0.00539398,0.00434424,0.0053192,0.00427019,0.00524442,0.00419616,0.00516966,0.00412213,0.0050949,0.00404812,0.00502016,0.00397412,0.00494543,0.00390014,0.00487071,0.00382616,0.00479601,0.0037522,0.00472132,0.00367826,0.00464664,0.00360433,0.00457198,0.00353041,0.00449733,0.00345651,0.00442269,0.00338263,0.00434807,0.00330876,0.00427347,0.00323491,0.00419888,0.00316107,0.00412431,0.00308725,0.00404976,0.00301345,0.00397522,0.00293967,0.0039007,0.0028659,0.0038262,0.00279216,0.00375171,0.00271843,0.00367725,0.00264472,0.0036028,0.00257103,0.00352837,0.00249736,0.00345396,0.00242371,0.00337958,0.00235009,0.00330521,0.00227648,0.00323086,0.00220289,0.00315653,0.00212933,0.00308223,0.00205578,0.00300794,0.00198226,0.00293368,0.00190876,0.00285944,0.00183529,0.00278522,0.00176183,0.00271102,0.0016884,0.00263685,0.001615,0.0025627,0.00154161,0.00248857,0.00146825,0.00241447,0.00139492,0.00234039,0.00132161,0.00226633,0.00124832,0.0021923,0.00117506,0.00211829,0.00110182,0.00204431,0.00102861,0.00197035,0.000955428,0.00189642,0.000882269,0.00182252,0.000809136,0.00174863,0.00073603,0.00167478,0.000662951,0.00160095,0.000589898,0.00152715,0.000516873,0.00145338,0.000443875,0.00137963,0.000370904,0.00130591,0.000297961,0.00123222,0.000225046,0.00115855,0.00015216,0.00108491,7.93012e-005,0.0010113,6.47136e-006,0.000937724,-6.63297e-005,0.000864171,-0.000139102,0.000790647,-0.000211845,0.000717151,-0.000284558,0.000643685,-0.000357243,0.000570247,-0.000429897,0.000496839,-0.000502522,0.000423461,-0.000575116,0.000350112,-0.00064768,0.000276793,-0.000720214,0.000203504,-0.000792717,0.000130245,-0.00086519,5.70172e-005,-0.000937632,-1.61806e-005,-0.00101004,-8.93477e-005,-0.00108242,-0.000162484,-0.00115477,-0.000235589,-0.00122709,-0.000308663,-0.00129937,-0.000381706,-0.00137162,-0.000454717,-0.00144384,-0.000527697,-0.00151603,-0.000600645,-0.00158819,-0.000673561,-0.00166031,-0.000746445,-0.00173241,-0.000819297,-0.00180447,-0.000892116,-0.00187649,-0.000964903,-0.00194849,-0.00103766,-0.00202045,-0.00111038,-0.00209237,-0.00118307,-0.00216427,-0.00125572,-0.00223613,-0.00132835,-0.00230795,-0.00140094,-0.00237975,-0.00147349,-0.00245151,-0.00154602,-0.00252323,-0.00161851,-0.00259492,-0.00169096,-0.00266658,-0.00176339,-0.0027382,-0.00183577,-0.00280979,-0.00190813,-0.00288135,-0.00198045,-0.00295287,-0.00205273,-0.00302435,-0.00212499,-0.0030958,-0.0021972,-0.00316722,-0.00226939,-0.0032386,-0.00234154,-0.00330995,-0.00241365,-0.00338126,-0.00248573,-0.00345253,-0.00255777,-0.00352377,-0.00262978,-0.00359498,-0.00270176,-0.00366615,-0.0027737,-0.00373728,-0.0028456,-0.00380838,-0.00291747,-0.00387944,-0.0029893,-0.00395047,-0.0030611,-0.00402146,-0.00313286,-0.00409241,-0.00320459,-0.00416333,-0.00327628,-0.00423421,-0.00334794,-0.00430506,-0.00341956,-0.00437587,-0.00349114,-0.00444665,-0.00356269
-0.104838,-0.104548,-0.104212,-0.103833,-0.103413,-0.102963,-0.102494,-0.102016,-0.101541,-0.101078,-0.100638,-0.100233,-0.0998792,-0.0996065,-0.0994786,-0.0996548,-0.100361,-0.101097,-0.101807,-0.102678,-0.103317,-0.104347,-0.103885,-0.104722,-0.10425,-0.105008,-0.10454,-0.105205,-0.104778,-0.105288,-0.105013,-0.105249,-0.105485,-0.105631,-0.105452,-0.105542,-0.105553,-0.105503,-0.105336,-0.105457,-0.105326,-0.105753,-0.105492,-0.105953,-0.105637,-0.106114,-0.105774,-0.106264,-0.10591,-0.106416,-0.106051,-0.106569,-0.106193,-0.106719,-0.106335,-0.106863,-0.10647,-0.106996,-0.106596,-0.107119,-0.106712,-0.10723,-0.106818,-0.107332,-0.106916,-0.107425,-0.107005,-0.107512,-0.107089,-0.107593,-0.107168,-0.10767,-0.107243,-0.107743,-0.107314,-0.107813,-0.107383,-0.10788,-0.10745,-0.107946,-0.107514,-0.108009,-0.107577,-0.10807,-0.107638,-0.10813,-0.107697,-0.108187,-0.107754,-0.108244,-0.10781,-0.108298,-0.107865,-0.108352,-0.107919,-0.108404,-0.107971,-0.108455,-0.108022,-0.108504,-0.108072,-0.108553,-0.108121,-0.1086,-0.108168,-0.108646,-0.108215,-0.108692,-0.108261,-0.108736,-0.108306,-0.10878,-0.108351,-0.108823,-0.108394,-0.108865,-0.108437,-0.108906,-0.108479,-0.108946,-0.10852,-0.108986,-0.108561,-0.109025,-0.108601,-0.109064,-0.10864,-0.109102,-0.108679,-0.109139,-0.108717,-0.109176,-0.108755,-0.109212,-0.108792,-0.109248,-0.108829,-0.109284,-0.108865,-0.109318,-0.108901,-0.109353,-0.108936,-0.109387,-0.108971,-0.10942,-0.109005,-0.109453,-0.109039,-0.109486,-0.109073,-0.109518,-0.109106,-0.10955,-0.109139,-0.109582,-0.109171,-0.109613,-0.109203,-0.109644,-0.109235,-0.109674,-0.109266,-0.109704,-0.109297,-0.109734,-0.109328,-0.109764,-0.109358,-0.109793,-0.109389,-0.109822,-0.109418,-0.109851,-0.109448,-0.109879,-0.109477,-0.109907,-0.109506,-0.109935,-0.109534,-0.109962,-0.109563,-0.10999,-0.109591,-0.110017,-0.109619,-0.110043,-0.109646,-0.11007,-0.109673,-0.110096,-0.1097,-0.110122,-0.109727,-0.110148,-0.109754,-0.110174,-0.10978,-0.110199,-0.109806,-0.110224,-0.109832,-0.110249,-0.109858,-0.110274,-0.109883,-0.110298,-0.109908,-0.110323,-0.109933,-0.110347,-0.109958,-0.110371,-0.109983,-0.110395,-0.110007,-0.110418,-0.110031,-0.110441,-0.110055,-0.110465,-0.110079,-0.110488,-0.110103,-0.11051,-0.110126,-0.110533,-0.110149,-0.110555,-0.110172,-0.110578,-0.110195,-0.1106,-0.110218,-0.110622,-0.110241,-0.110644,-0.110263,-0.110665,-0.110285,-0.110687,-0.110307,-0.110708,-0.110329,-0.110729,-0.110351,-0.11075,-0.110372,-0.110771,-0.110394,-0.110792,-0.110415,-0.110813,-0.110436,-0.110833,-0.110457,-0.110853,-0.110478,-0.110874,-0.110499,-0.110894,-0.110519,-0.110914,-0.11054,-0.110933,-0.11056,-0.110953,-0.11058,-0.110973,-0.1106,-0.110992,-0.11062,-0.111011,-0.11064,-0.111031,-0.110659,-0.11105,-0.110679,-0.111069,-0.110698,-0.111087,-0.110718,-0.111106,-0.110737,-0.111125,-0.110756,-0.111143,-0.110775,-0.111162,-0.110793,-0.11118,-0.110812,-0.111198,-0.110831,-0.111216,-0.110849,-0.111234,-0.110867,-0.111252,-0.110886,-0.11127,-0.110904,-0.111287,-0.110922,-0.111305,-0.11094,-0.111322,-0.110958,-0.11134,-0.110975,-0.111357,-0.110993,-0.111374,-0.11101,-0.111391,-0.111028,-0.111408,-0.111045,-0.111425,-0.111062,-0.111442,-0.11108,-0.111459,-0.111097,-0.111475,-0.111114,-0.111492,-0.11113,-0.111508,-0.111147,-0.111525,-0.111164,-0.111541,-0.111181,-0.111557,-0.111197,-0.111574,-0.111214,-0.11159,-0.11123,-0.111606,-0.111246,-0.111622,-0.111263,-0.111637,-0.111279,-0.111653,-0.111295,-0.111669,-0.111311,-0.111685,-0.111327,-0.1117,-0.111343,-0.111716,-0.111358,-0.111731,-0.111374,-0.111747,-0.11139,-0.111762,-0.111405,-0.111777,-0.111421,-0.111792,-0.111436,-0.111807,-0.111452,-0.111823,-0.111467,-0.111838,-0.111482,-0.111852,-0.111497,-0.111867,-0.111512,-0.111882,-0.111527,-0.111897,-0.111542,-0.111912,-0.111557,-0.111926,-0.111572,-0.111941,-0.111587,-0.111956,-0.111602,-0.11197,-0.111616,-0.111984,-0.111631,-0.111999,-0.111646,-0.112013,-0.11166,-0.112028,-0.111675,-0.112042,-0.111689,-0.112056,-0.111704,-0.11207,-0.111718,-0.112084,-0.111732,-0.112098,-0.111746,-0.112112,-0.111761,-0.112126,-0.111775,-0.11214,-0.111789,-0.112154,-0.111803,-0.112168,-0.111817,-0.112182,-0.111831,-0.112195,-0.111845,-0.112209,-0.111859,-0.112223,-0.111872,-0.112237,-0.111886,-0.11225,-0.1119,-0.112264,-0.111914,-0.112277,-0.111927,-0.112291,-0.111941,-0.112304,-0.111955,-0.112318,-0.111968,-0.112331,-0.111982,-0.112344,-0.111995,-0.112358,-0.112009,-0.112371,-0.112022,-0.112384,-0.112035,-0.112397,-0.112049,-0.112411,-0.112062,-0.112424,-0.112075,-0.112437,-0.112089,-0.11245,-0.112102,-0.112463,-0.112115,-0.112476,-0.112128,-0.112489,-0.112141,-0.112502,-0.112154,-0.112515,-0.112167,-0.112528,-0.11218,-0.112541,-0.112193,-0.112554,-0.112206,-0.112567,-0.112219,-0.11258,-0.112232,-0.112592,-0.112245,-0.112605,-0.112258,-0.112618,-0.112271,-0.112631,-0.112284,-0.112644,-0.112297,-0.112656,-0.112309,-0.112669,-0.112322,-0.112682,-0.112335,-0.112694,-0.112348,-0.112707,-0.11236,-0.11272,-0.112373,-0.112732,-0.112386,-0.112745,-0.112398,-0.112757,-0.112411,-0.11277,-0.112424,-0.112782,-0.112436,-0.112795,-0.112449,-0.112808,-0.112461,-0.11282,-0.112474,-0.112832,-0.112486,-0.112845,-0.112499,-0.112857,-0.112511,-0.11287,-0.112524,-0.112882,-0.112536,-0.112895,-0.112549,-0.112907,-0.112561,-0.11292,-0.112574,-0.112932,-0.112586,-0.112944,-0.112599,-0.112957,-0.112611,-0.112969,-0.112623,-0.112981,-0.112636,-0.112994,-0.112648,-0.113006,-0.11266,-0.113018,-0.112673,-0.113031,-0.112685,-0.113043,-0.112697,-0.113055,-0.11271,-0.113068,-0.112722,-0.11308,-0.112734,-0.113092,-0.112747,-0.113104,-0.112759,-0.113117,-0.112771,-0.113129,-0.112783,-0.113141,-0.112796,-0.113153,-0.112808,-0.113166,-0.11282,-0.113178,-0.112833,-0.11319,-0.112845,-0.113202,-0.112857,-0.113215,-0.112869,-0.113227,-0.112882,-0.113239,-0.112894,-0.113251,-0.112906,-0.113264,-0.112918,-0.113276,-0.11293,-0.113288,-0.112943,-0.1133,-0.112955,-0.113313,-0.112967,-0.113325,-0.112979,-0.113337,-0.112992,-0.113349,-0.113004,-0.113362,-0.113016,-0.113374,-0.113028,-0.113386,-0.11304,-0.113398,-0.113053,-0.113411,-0.113065,-0.113423,-0.113077,-0.113435,-0.113089,-0.113447,-0.113102,-0.11346,-0.113114,-0.113472,-0.113126,-0.113484,-0.113138,-0.113497,-0.113151,-0.113509,-0.113163,-0.113521,-0.113175,-0.113533,-0.113187,-0.113546,-0.1132,-0.113558,-0.113212,-0.11357,-0.113224,-0.113583,-0.113236,-0.113595,-0.113249,-0.113607,-0.113261,-0.11362,-0.113273,-0.113632,-0.113286,-0.113645,-0.113298,-0.113657,-0.11331,-0.113669,-0.113323,-0.113682,-0.113335,-0.113694,-0.113347,-0.113706,-0.11336,-0.113719,-0.113372,-0.113731,-0.113384,-0.113744,-0.113397,-0.113756,-0.113409,-0.113769,-0.113422,-0.113781,-0.113434,-0.113794,-0.113446,-0.113806,-0.113459,-0.113819,-0.113471,-0.113831,-0.113484,-0.113844,-0.113496,-0.113856,-0.113509,-0.113869,-0.113521,-0.113881,-0.113534,-0.113894,-0.113546,-0.113907,-0.113559,-0.113919,-0.113571,-0.113932,-0.113584,-0.113945,-0.113596
-0.0280762,-0.0280983,-0.0281259,-0.028159,-0.0281966,-0.0282374,-0.0282795,-0.0283208,-0.0283596,-0.0283943,-0.0284238,-0.0284472,-0.0284637,-0.028473,-0.0284747,-0.0284704,-0.0284695,-0.0284788,-0.0284997,-0.0285405,-0.0285752,-0.0286447,-0.0286155,-0.0286751,-0.0286455,-0.0286982,-0.0286694,-0.0287134,-0.0286874,-0.0287183,-0.0286998,-0.0287109,-0.0287198,-0.0287237,-0.0287211,-0.0287211,-0.0287239,-0.0287252,-0.0287364,-0.0287254,-0.028738,-0.0286973,-0.028732,-0.028677,-0.0287274,-0.0286617,-0.0287226,-0.0286473,-0.0287163,-0.0286311,-0.0287076,-0.0286127,-0.0286966,-0.0285926,-0.0286841,-0.028572,-0.0286711,-0.0285516,-0.0286583,-0.0285322,-0.0286464,-0.028514,-0.0286354,-0.0284971,-0.0286255,-0.0284813,-0.0286165,-0.0284664,-0.0286081,-0.0284522,-0.0286002,-0.0284385,-0.0285926,-0.0284252,-0.0285851,-0.028412,-0.0285777,-0.0283991,-0.0285702,-0.0283862,-0.0285627,-0.0283734,-0.0285551,-0.0283607,-0.0285474,-0.0283481,-0.0285396,-0.0283354,-0.0285317,-0.0283228,-0.0285237,-0.0283103,-0.0285156,-0.0282978,-0.0285074,-0.0282853,-0.0284992,-0.0282729,-0.0284909,-0.0282605,-0.0284825,-0.028248,-0.028474,-0.0282356,-0.0284654,-0.0282232,-0.0284567,-0.0282108,-0.0284479,-0.0281984,-0.028439,-0.028186,-0.02843,-0.0281735,-0.0284209,-0.028161,-0.0284116,-0.0281485,-0.0284023,-0.0281359,-0.0283929,-0.0281233,-0.0283833,-0.0281107,-0.0283736,-0.028098,-0.0283638,-0.0280852,-0.0283539,-0.0280724,-0.0283438,-0.0280596,-0.0283337,-0.0280466,-0.0283234,-0.0280337,-0.028313,-0.0280206,-0.0283025,-0.0280075,-0.0282918,-0.0279943,-0.0282811,-0.027981,-0.0282702,-0.0279677,-0.0282592,-0.0279543,-0.0282481,-0.0279409,-0.0282368,-0.0279274,-0.0282255,-0.0279138,-0.028214,-0.0279001,-0.0282025,-0.0278864,-0.0281908,-0.0278726,-0.028179,-0.0278588,-0.0281672,-0.0278449,-0.0281552,-0.0278309,-0.0281431,-0.0278168,-0.0281309,-0.0278027,-0.0281186,-0.0277886,-0.0281062,-0.0277744,-0.0280938,-0.0277601,-0.0280812,-0.0277457,-0.0280686,-0.0277313,-0.0280558,-0.0277169,-0.028043,-0.0277024,-0.0280301,-0.0276878,-0.0280171,-0.0276732,-0.028004,-0.0276585,-0.0279909,-0.0276438,-0.0279777,-0.0276291,-0.0279644,-0.0276143,-0.027951,-0.0275994,-0.0279376,-0.0275845,-0.0279241,-0.0275696,-0.0279105,-0.0275546,-0.0278969,-0.0275396,-0.0278832,-0.0275245,-0.0278694,-0.0275094,-0.0278556,-0.0274943,-0.0278418,-0.0274791,-0.0278278,-0.0274639,-0.0278139,-0.0274487,-0.0277998,-0.0274335,-0.0277857,-0.0274182,-0.0277716,-0.0274028,-0.0277574,-0.0273875,-0.0277432,-0.0273721,-0.027729,-0.0273567,-0.0277147,-0.0273413,-0.0277003,-0.0273259,-0.0276859,-0.0273104,-0.0276715,-0.0272949,-0.027657,-0.0272794,-0.0276425,-0.0272639,-0.027628,-0.0272483,-0.0276135,-0.0272328,-0.0275989,-0.0272172,-0.0275842,-0.0272016,-0.0275696,-0.027186,-0.0275549,-0.0271704,-0.0275402,-0.0271547,-0.0275255,-0.0271391,-0.0275107,-0.0271234,-0.0274959,-0.0271078,-0.0274812,-0.0270921,-0.0274663,-0.0270764,-0.0274515,-0.0270607,-0.0274366,-0.027045,-0.0274218,-0.0270293,-0.0274069,-0.0270136,-0.027392,-0.0269979,-0.027377,-0.0269822,-0.0273621,-0.0269664,-0.0273471,-0.0269507,-0.0273322,-0.026935,-0.0273172,-0.0269193,-0.0273022,-0.0269035,-0.0272872,-0.0268878,-0.0272722,-0.0268721,-0.0272572,-0.0268564,-0.0272422,-0.0268406,-0.0272271,-0.0268249,-0.0272121,-0.0268092,-0.027197,-0.0267935,-0.027182,-0.0267778,-0.0271669,-0.0267621,-0.0271519,-0.0267464,-0.0271368,-0.0267307,-0.0271218,-0.026715,-0.0271067,-0.0266993,-0.0270916,-0.0266836,-0.0270765,-0.0266679,-0.0270615,-0.0266522,-0.0270464,-0.0266366,-0.0270313,-0.0266209,-0.0270163,-0.0266053,-0.0270012,-0.0265896,-0.0269861,-0.026574,-0.026971,-0.0265584,-0.026956,-0.0265427,-0.0269409,-0.0265271,-0.0269259,-0.0265115,-0.0269108,-0.026496,-0.0268957,-0.0264804,-0.0268807,-0.0264648,-0.0268656,-0.0264493,-0.0268506,-0.0264337,-0.0268356,-0.0264182,-0.0268205,-0.0264026,-0.0268055,-0.0263871,-0.0267905,-0.0263716,-0.0267755,-0.0263561,-0.0267605,-0.0263407,-0.0267455,-0.0263252,-0.0267305,-0.0263097,-0.0267155,-0.0262943,-0.0267005,-0.0262789,-0.0266855,-0.0262635,-0.0266706,-0.0262481,-0.0266556,-0.0262327,-0.0266407,-0.0262173,-0.0266257,-0.0262019,-0.0266108,-0.0261866,-0.0265959,-0.0261712,-0.026581,-0.0261559,-0.0265661,-0.0261406,-0.0265512,-0.0261253,-0.0265363,-0.02611,-0.0265214,-0.0260948,-0.0265066,-0.0260795,-0.0264917,-0.0260643,-0.0264769,-0.026049,-0.026462,-0.0260338,-0.0264472,-0.0260186,-0.0264324,-0.0260034,-0.0264176,-0.0259883,-0.0264028,-0.0259731,-0.026388,-0.025958,-0.0263732,-0.0259428,-0.0263585,-0.0259277,-0.0263437,-0.0259126,-0.026329,-0.0258975,-0.0263142,-0.0258825,-0.0262995,-0.0258674,-0.0262848,-0.0258524,-0.0262701,-0.0258374,-0.0262554,-0.0258224,-0.0262408,-0.0258074,-0.0262261,-0.0257924,-0.0262115,-0.0257774,-0.0261968,-0.0257625,-0.0261822,-0.0257475,-0.0261676,-0.0257326,-0.026153,-0.0257177,-0.0261384,-0.0257028,-0.0261238,-0.0256879,-0.0261092,-0.0256731,-0.0260947,-0.0256582,-0.0260802,-0.0256434,-0.0260656,-0.0256286,-0.0260511,-0.0256138,-0.0260366,-0.025599,-0.0260221,-0.0255842,-0.0260076,-0.0255695,-0.0259931,-0.0255547,-0.0259787,-0.02554,-0.0259642,-0.0255253,-0.0259498,-0.0255106,-0.0259354,-0.0254959,-0.025921,-0.0254812,-0.0259066,-0.0254666,-0.0258922,-0.0254519,-0.0258778,-0.0254373,-0.0258634,-0.0254227,-0.0258491,-0.0254081,-0.0258348,-0.0253935,-0.0258204,-0.0253789,-0.0258061,-0.0253644,-0.0257918,-0.0253499,-0.0257775,-0.0253353,-0.0257633,-0.0253208,-0.025749,-0.0253063,-0.0257347,-0.0252918,-0.0257205,-0.0252774,-0.0257063,-0.0252629,-0.025692,-0.0252485,-0.0256778,-0.0252341,-0.0256636,-0.0252196,-0.0256495,-0.0252053,-0.0256353,-0.0251909,-0.0256211,-0.0251765,-0.025607,-0.0251621,-0.0255929,-0.0251478,-0.0255787,-0.0251335,-0.0255646,-0.0251192,-0.0255505,-0.0251049,-0.0255364,-0.0250906,-0.0255224,-0.0250763,-0.0255083,-0.0250621,-0.0254942,-0.0250478,-0.0254802,-0.0250336,-0.0254662,-0.0250194,-0.0254522,-0.0250052,-0.0254382,-0.024991,-0.0254242,-0.0249768,-0.0254102,-0.0249626,-0.0253962,-0.0249485,-0.0253823,-0.0249343,-0.0253683,-0.0249202,-0.0253544,-0.0249061,-0.0253404,-0.024892,-0.0253265,-0.0248779,-0.0253126,-0.0248639,-0.0252987,-0.0248498,-0.0252849,-0.0248358,-0.025271,-0.0248217,-0.0252571,-0.0248077,-0.0252433,-0.0247937,-0.0252295,-0.0247797,-0.0252156,-0.0247657,-0.0252018,-0.0247518,-0.025188,-0.0247378,-0.0251742,-0.0247239,-0.0251605,-0.0247099,-0.0251467,-0.024696,-0.0251329,-0.0246821,-0.0251192,-0.0246682,-0.0251055,-0.0246544,-0.0250917,-0.0246405,-0.025078,-0.0246266,-0.0250643,-0.0246128,-0.0250506,-0.024599,-0.025037,-0.0245852,-0.0250233,-0.0245713,-0.0250096,-0.0245576,-0.024996,-0.0245438,-0.0249824,-0.02453,-0.0249687,-0.0245162,-0.0249551,-0.0245025,-0.0249415,-0.0244888,-0.0249279,-0.0244751,-0.0249143,-0.0244613,-0.0249008,-0.0244476,-0.0248872,-0.024434,-0.0248736,-0.0244203,-0.0248601,-0.0244066,-0.0248466,-0.024393,-0.024833,-0.0243793,-0.0248195,-0.0243657,-0.024806,-0.0243521,-0.0247925,-0.0243385,-0.0247791,-0.0243249,-0.0247656,-0.0243113,-0.0247521,-0.0242978,-0.0247387,-0.0242842,-0.0247253,-0.0242707,-0.0247118,-0.0242571,-0.0246984,-0.0242436,-0.024685,-0.0242301,-0.0246716,-0.0242166,-0.0246582,-0.0242031,-0.0246448,-0.0241896,-0.0246315,-0.0241762,-0.0246181,-0.0241627,-0.0246048,-0.0241493,-0.0245914,-0.0241358,-0.0245781,-0.0241224,-0.0245648,-0.024109,-0.0245515,-0.0240956,-0.0245382,-0.0240822,-0.0245249,-0.0240688,-0.0245116,-0.0240555,-0.0244983,-0.0240421,-0.0244851,-0.0240288,-0.0244718,-0.0240154,-0.0244586,-0.0240021,-0.0244453,-0.0239888,-0.0244321,-0.0239755,-0.0244189,-0.0239622,-0.0244057,-0.0239489,-0.0243925,-0.0239356,-0.0243793,-0.0239224,-0.0243662,-0.0239091,-0.024353
0.188669,0.188588,0.188492,0.18838,0.188255,0.188119,0.187975,0.187828,0.18768,0.187536,0.187397,0.187268,0.187153,0.187061,0.18701,0.187053,0.187277,0.187533,0.187818,0.18824,0.18858,0.189258,0.188898,0.18951,0.189119,0.189697,0.189284,0.189796,0.189386,0.189749,0.189431,0.189495,0.189594,0.189563,0.189231,0.189132,0.188941,0.188636,0.188323,0.188204,0.187951,0.188259,0.187851,0.18822,0.187759,0.18817,0.187693,0.18814,0.187655,0.188138,0.187644,0.188157,0.187654,0.18819,0.187676,0.188227,0.187702,0.188262,0.187727,0.188292,0.187746,0.188314,0.18776,0.188329,0.187767,0.188337,0.187768,0.188341,0.187766,0.188341,0.18776,0.188338,0.187753,0.188333,0.187744,0.188327,0.187734,0.188321,0.187724,0.188314,0.187714,0.188308,0.187703,0.188301,0.187694,0.188294,0.187684,0.188288,0.187675,0.188281,0.187666,0.188275,0.187657,0.18827,0.187649,0.188264,0.187641,0.188259,0.187633,0.188254,0.187626,0.188249,0.187619,0.188245,0.187613,0.188241,0.187607,0.188237,0.187602,0.188234,0.187597,0.188232,0.187592,0.188229,0.187588,0.188227,0.187584,0.188226,0.187581,0.188225,0.187578,0.188224,0.187576,0.188224,0.187574,0.188224,0.187573,0.188225,0.187572,0.188226,0.187572,0.188227,0.187572,0.188229,0.187572,0.188231,0.187573,0.188234,0.187575,0.188237,0.187577,0.188241,0.187579,0.188245,0.187582,0.188249,0.187585,0.188254,0.187588,0.188259,0.187592,0.188265,0.187597,0.188271,0.187601,0.188277,0.187607,0.188284,0.187612,0.188291,0.187618,0.188298,0.187624,0.188306,0.187631,0.188314,0.187638,0.188323,0.187645,0.188331,0.187653,0.188341,0.187661,0.18835,0.187669,0.18836,0.187678,0.18837,0.187687,0.18838,0.187696,0.188391,0.187706,0.188402,0.187716,0.188413,0.187726,0.188425,0.187736,0.188437,0.187747,0.188449,0.187758,0.188461,0.18777,0.188474,0.187781,0.188487,0.187793,0.1885,0.187805,0.188513,0.187818,0.188527,0.18783,0.188541,0.187843,0.188555,0.187856,0.188569,0.18787,0.188584,0.187883,0.188599,0.187897,0.188614,0.187911,0.188629,0.187925,0.188644,0.18794,0.18866,0.187954,0.188676,0.187969,0.188692,0.187984,0.188708,0.187999,0.188724,0.188015,0.188741,0.18803,0.188758,0.188046,0.188775,0.188062,0.188792,0.188078,0.188809,0.188094,0.188826,0.188111,0.188844,0.188128,0.188862,0.188144,0.188879,0.188161,0.188897,0.188178,0.188916,0.188196,0.188934,0.188213,0.188952,0.188231,0.188971,0.188248,0.18899,0.188266,0.189009,0.188284,0.189028,0.188302,0.189047,0.18832,0.189066,0.188339,0.189085,0.188357,0.189105,0.188375,0.189124,0.188394,0.189144,0.188413,0.189164,0.188432,0.189183,0.188451,0.189203,0.18847,0.189224,0.188489,0.189244,0.188508,0.189264,0.188528,0.189284,0.188547,0.189305,0.188567,0.189325,0.188587,0.189346,0.188606,0.189367,0.188626,0.189388,0.188646,0.189408,0.188666,0.189429,0.188686,0.18945,0.188707,0.189472,0.188727,0.189493,0.188747,0.189514,0.188768,0.189535,0.188788,0.189557,0.188809,0.189578,0.188829,0.1896,0.18885,0.189621,0.188871,0.189643,0.188891,0.189664,0.188912,0.189686,0.188933,0.189708,0.188954,0.18973,0.188975,0.189752,0.188996,0.189774,0.189017,0.189796,0.189039,0.189818,0.18906,0.18984,0.189081,0.189862,0.189102,0.189884,0.189124,0.189906,0.189145,0.189929,0.189167,0.189951,0.189188,0.189973,0.18921,0.189996,0.189231,0.190018,0.189253,0.19004,0.189275,0.190063,0.189296,0.190085,0.189318,0.190108,0.18934,0.19013,0.189362,0.190153,0.189383,0.190176,0.189405,0.190198,0.189427,0.190221,0.189449,0.190244,0.189471,0.190266,0.189493,0.190289,0.189515,0.190312,0.189537,0.190335,0.189559,0.190357,0.189581,0.19038,0.189603,0.190403,0.189625,0.190426,0.189647,0.190449,0.189669,0.190472,0.189691,0.190494,0.189713,0.190517,0.189735,0.19054,0.189758,0.190563,0.18978,0.190586,0.189802,0.190609,0.189824,0.190632,0.189846,0.190655,0.189869,0.190678,0.189891,0.190701,0.189913,0.190724,0.189935,0.190747,0.189958,0.19077,0.18998,0.190793,0.190002,0.190816,0.190024,0.190839,0.190047,0.190862,0.190069,0.190884,0.190091,0.190907,0.190113,0.19093,0.190136,0.190953,0.190158,0.190976,0.19018,0.190999,0.190202,0.191022,0.190225,0.191045,0.190247,0.191068,0.190269,0.191091,0.190291,0.191114,0.190314,0.191137,0.190336,0.19116,0.190358,0.191183,0.19038,0.191206,0.190403,0.191229,0.190425,0.191252,0.190447,0.191275,0.190469,0.191298,0.190492,0.19132,0.190514,0.191343,0.190536,0.191366,0.190558,0.191389,0.19058,0.191412,0.190602,0.191435,0.190625,0.191457,0.190647,0.19148,0.190669,0.191503,0.190691,0.191526,0.190713,0.191549,0.190735,0.191571,0.190757,0.191594,0.190779,0.191617,0.190801,0.191639,0.190823,0.191662,0.190845,0.191685,0.190867,0.191707,0.190889,0.19173,0.190911,0.191753,0.190933,0.191775,0.190955,0.191798,0.190977,0.19182,0.190999,0.191843,0.191021,0.191865,0.191043,0.191888,0.191065,0.19191,0.191087,0.191933,0.191108,0.191955,0.19113,0.191978,0.191152,0.192,0.191174,0.192023,0.191195,0.192045,0.191217,0.192067,0.191239,0.19209,0.19126,0.192112,0.191282,0.192134,0.191304,0.192156,0.191325,0.192179,0.191347,0.192201,0.191369,0.192223,0.19139,0.192245,0.191412,0.192267,0.191433,0.192289,0.191455,0.192312,0.191476,0.192334,0.191497,0.192356,0.191519,0.192378,0.19154,0.1924,0.191562,0.192422,0.191583,0.192444,0.191604,0.192465,0.191626,0.192487,0.191647,0.192509,0.191668,0.192531,0.191689,0.192553,0.19171,0.192575,0.191732,0.192596,0.191753,0.192618,0.191774,0.19264,0.191795,0.192661,0.191816,0.192683,0.191837,0.192705,0.191858,0.192726,0.191879,0.192748,0.1919,0.192769,0.191921,0.192791,0.191942,0.192812,0.191963,0.192834,0.191984,0.192855,0.192004,0.192877,0.192025,0.192898,0.192046,0.192919,0.192067,0.192941,0.192087,0.192962,0.192108,0.192983,0.192129,0.193004,0.192149,0.193026,0.19217,0.193047,0.19219,0.193068,0.192211,0.193089,0.192231,0.19311,0.192252,0.193131,0.192272,0.193152,0.192293,0.193173,0.192313,0.193194,0.192334,0.193215,0.192354,0.193236,0.192374,0.193257,0.192394,0.193278,0.192415,0.193298,0.192435,0.193319,0.192455,0.19334,0.192475,0.193361,0.192495,0.193381,0.192515,0.193402,0.192535,0.193423,0.192555,0.193443,0.192575,0.193464,0.192595,0.193484,0.192615,0.193505,0.192635,0.193525,0.192655,0.193546,0.192675,0.193566,0.192695,0.193586,0.192715,0.193607,0.192734,0.193627,0.192754,0.193647,0.192774,0.193668,0.192793,0.193688,0.192813,0.193708,0.192833,0.193728,0.192852,0.193748,0.192872,0.193768,0.192891,0.193788,0.192911
0.0324772,0.0324246,0.0323584,0.0322786,0.0321873,0.032088,0.0319849,0.0318824,0.0317842,0.0316935,0.0316121,0.0315417,0.0314831,0.0314372,0.0314064,0.0313984,0.0314293,0.0314602,0.0314833,0.0315172,0.0315175,0.0316089,0.0315096,0.0316045,0.0315031,0.0315958,0.0314912,0.0315792,0.0314708,0.0315472,0.0314368,0.031489,0.0314094,0.0314581,0.0313663,0.0314005,0.0313332,0.0313381,0.0312712,0.0312585,0.0311958,0.0312131,0.0311465,0.0311703,0.0311047,0.0311364,0.0310712,0.0311091,0.0310429,0.0310857,0.0310171,0.0310643,0.0309924,0.0310436,0.030968,0.0310232,0.0309435,0.0310027,0.0309187,0.0309819,0.0308937,0.0309608,0.0308684,0.0309395,0.0308431,0.0309179,0.0308176,0.0308962,0.0307922,0.0308744,0.0307668,0.0308524,0.0307414,0.0308305,0.0307161,0.0308084,0.0306908,0.0307863,0.0306655,0.0307642,0.0306403,0.0307419,0.0306149,0.0307195,0.0305895,0.030697,0.030564,0.0306743,0.0305384,0.0306514,0.0305127,0.0306283,0.0304868,0.030605,0.0304607,0.0305814,0.0304344,0.0305576,0.0304079,0.0305335,0.0303812,0.0305092,0.0303543,0.0304846,0.0303271,0.0304597,0.0302997,0.0304346,0.0302721,0.0304091,0.0302442,0.0303834,0.0302161,0.0303574,0.0301877,0.0303311,0.0301591,0.0303045,0.0301303,0.0302776,0.0301012,0.0302505,0.0300718,0.0302231,0.0300423,0.0301954,0.0300124,0.0301675,0.0299824,0.0301393,0.0299521,0.0301109,0.0299216,0.0300822,0.0298909,0.0300532,0.02986,0.0300241,0.0298288,0.0299947,0.0297975,0.029965,0.029766,0.0299352,0.0297342,0.0299051,0.0297023,0.0298748,0.0296702,0.0298443,0.0296379,0.0298136,0.0296054,0.0297828,0.0295728,0.0297517,0.02954,0.0297205,0.029507,0.0296891,0.0294739,0.0296575,0.0294406,0.0296257,0.0294072,0.0295938,0.0293737,0.0295618,0.02934,0.0295295,0.0293062,0.0294972,0.0292722,0.0294647,0.0292382,0.0294321,0.029204,0.0293994,0.0291698,0.0293665,0.0291354,0.0293335,0.0291009,0.0293004,0.0290663,0.0292672,0.0290317,0.0292339,0.0289969,0.0292005,0.0289621,0.029167,0.0289272,0.0291334,0.0288922,0.0290998,0.0288572,0.029066,0.028822,0.0290322,0.0287869,0.0289983,0.0287516,0.0289644,0.0287163,0.0289303,0.028681,0.0288962,0.0286456,0.0288621,0.0286101,0.0288279,0.0285747,0.0287936,0.0285391,0.0287593,0.0285036,0.028725,0.028468,0.0286906,0.0284324,0.0286562,0.0283967,0.0286217,0.0283611,0.0285873,0.0283254,0.0285527,0.0282897,0.0285182,0.028254,0.0284836,0.0282183,0.0284491,0.0281825,0.0284145,0.0281468,0.0283799,0.028111,0.0283452,0.0280753,0.0283106,0.0280395,0.028276,0.0280038,0.0282413,0.0279681,0.0282067,0.0279323,0.028172,0.0278966,0.0281374,0.0278609,0.0281028,0.0278252,0.0280681,0.0277895,0.0280335,0.0277539,0.0279989,0.0277182,0.0279643,0.0276826,0.0279297,0.027647,0.0278952,0.0276114,0.0278606,0.0275759,0.0278261,0.0275404,0.0277916,0.0275049,0.0277571,0.0274694,0.0277227,0.027434,0.0276883,0.0273986,0.0276539,0.0273633,0.0276195,0.027328,0.0275852,0.0272927,0.0275509,0.0272575,0.0275166,0.0272223,0.0274824,0.0271871,0.0274482,0.027152,0.027414,0.027117,0.0273799,0.027082,0.0273459,0.027047,0.0273118,0.0270121,0.0272779,0.0269772,0.0272439,0.0269424,0.02721,0.0269076,0.0271762,0.0268729,0.0271424,0.0268383,0.0271087,0.0268037,0.027075,0.0267691,0.0270413,0.0267347,0.0270077,0.0267002,0.0269742,0.0266659,0.0269407,0.0266316,0.0269073,0.0265973,0.0268739,0.0265631,0.0268406,0.026529,0.0268073,0.026495,0.0267741,0.026461,0.026741,0.026427,0.0267079,0.0263932,0.0266749,0.0263594,0.0266419,0.0263256,0.026609,0.026292,0.0265762,0.0262584,0.0265434,0.0262248,0.0265107,0.0261914,0.0264781,0.026158,0.0264455,0.0261247,0.026413,0.0260914,0.0263806,0.0260582,0.0263482,0.0260251,0.0263159,0.0259921,0.0262837,0.0259591,0.0262515,0.0259262,0.0262194,0.0258934,0.0261874,0.0258606,0.0261554,0.025828,0.0261235,0.0257954,0.0260917,0.0257629,0.02606,0.0257304,0.0260283,0.025698,0.0259967,0.0256657,0.0259652,0.0256335,0.0259337,0.0256014,0.0259023,0.0255693,0.025871,0.0255373,0.0258398,0.0255054,0.0258086,0.0254736,0.0257775,0.0254418,0.0257465,0.0254102,0.0257156,0.0253786,0.0256847,0.0253471,0.025654,0.0253156,0.0256232,0.0252843,0.0255926,0.025253,0.0255621,0.0252218,0.0255316,0.0251907,0.0255012,0.0251596,0.0254709,0.0251287,0.0254406,0.0250978,0.0254105,0.025067,0.0253804,0.0250363,0.0253504,0.0250057,0.0253204,0.0249751,0.0252906,0.0249446,0.0252608,0.0249143,0.0252311,0.0248839,0.0252015,0.0248537,0.025172,0.0248236,0.0251425,0.0247935,0.0251131,0.0247635,0.0250839,0.0247336,0.0250546,0.0247038,0.0250255,0.0246741,0.0249965,0.0246445,0.0249675,0.0246149,0.0249386,0.0245854,0.0249098,0.024556,0.024881,0.0245267,0.0248524,0.0244975,0.0248238,0.0244683,0.0247953,0.0244393,0.0247669,0.0244103,0.0247386,0.0243814,0.0247104,0.0243526,0.0246822,0.0243238,0.0246541,0.0242952,0.0246261,0.0242666,0.0245982,0.0242381,0.0245704,0.0242097,0.0245426,0.0241814,0.0245149,0.0241532,0.0244873,0.0241251,0.0244598,0.024097,0.0244324,0.024069,0.0244051,0.0240411,0.0243778,0.0240133,0.0243506,0.0239856,0.0243235,0.023958,0.0242965,0.0239304,0.0242696,0.0239029,0.0242427,0.0238755,0.024216,0.0238482,0.0241893,0.023821,0.0241627,0.0237939,0.0241362,0.0237668,0.0241097,0.0237399,0.0240834,0.023713,0.0240571,0.0236862,0.0240309,0.0236595,0.0240048,0.0236328,0.0239788,0.0236063,0.0239528,0.0235798,0.023927,0.0235534,0.0239012,0.0235272,0.0238755,0.0235009,0.0238499,0.0234748,0.0238244,0.0234488,0.0237989,0.0234228,0.0237736,0.023397,0.0237483,0.0233712,0.0237231,0.0233455,0.023698,0.0233198,0.023673,0.0232943,0.023648,0.0232689,0.0236232,0.0232435,0.0235984,0.0232182,0.0235737,0.023193,0.0235491,0.0231679,0.0235245,0.0231429,0.0235001,0.0231179,0.0234757,0.023093,0.0234514,0.0230683,0.0234272,0.0230436,0.0234031,0.023019,0.0233791,0.0229944,0.0233551,0.02297,0.0233313,0.0229456,0.0233075,0.0229214,0.0232838,0.0228972,0.0232602,0.0228731,0.0232366,0.022849,0.0232132,0.0228251,0.0231898,0.0228012,0.0231665,0.0227775,0.0231433,0.0227538,0.0231202,0.0227302,0.0230972,0.0227067,0.0230742,0.0226832,0.0230513,0.0226599,0.0230286,0.0226366,0.0230059,0.0226134,0.0229832,0.0225903,0.0229607,0.0225673,0.0229382,0.0225444,0.0229159,0.0225215,0.0228936,0.0224988,0.0228714,0.0224761,0.0228492,0.0224535,0.0228272,0.022431,0.0228053,0.0224085,0.0227834,0.0223862,0.0227616,0.0223639,0.0227399,0.0223418,0.0227183,0.0223197,0.0226967,0.0222977,0.0226753,0.0222757,0.0226539,0.0222539,0.0226326,0.0222321,0.0226114,0.0222105,0.0225903,0.0221889,0.0225692,0.0221674,0.0225483,0.0221459,0.0225274,0.0221246,0.0225066,0.0221033,0.0224859,0.0220822,0.0224653,0.0220611,0.0224447,0.0220401,0.0224243,0.0220191,0.0224039,0.0219983,0.0223836,0.0219776,0.0223634,0.0219569,0.0223433,0.0219363,0.0223232,0.0219158,0.0223033,0.0218954,0.0222834,0.021875,0.0222636,0.0218548,0.0222439,0.0218346,0.0222243,0.0218145,0.0222047,0.0217945,0.0221853,0.0217746,0.0221659,0.0217548,0.0221466,0.0217351,0.0221274,0.0217154,0.0221083,0.0216958,0.0220893,0.0216763,0.0220703,0.0216569,0.0220514,0.0216376,0.0220326,0.0216183,0.0220139,0.0215992,0.0219953,0.0215801,0.0219768,0.0215611
0.0380293,0.0380934,0.0381452,0.0381795,0.038192,0.0381804,0.038144,0.0380844,0.0380041,0.0379064,0.0377948,0.0376732,0.0375461,0.0374202,0.0373084,0.037246,0.0373103,0.0373994,0.0374846,0.0376137,0.0376354,0.038005,0.0376463,0.0380672,0.0376822,0.0381084,0.0376975,0.0381136,0.037677,0.0380498,0.0375976,0.0378616,0.0375156,0.0376956,0.0371431,0.0372775,0.036707,0.0366215,0.0360463,0.0360734,0.0355525,0.0358368,0.0352587,0.0355927,0.035015,0.03538,0.0348148,0.0352071,0.034652,0.0350729,0.0345215,0.0349713,0.0344175,0.0348945,0.0343335,0.0348348,0.0342631,0.0347854,0.0342008,0.0347408,0.0341421,0.0346973,0.0340841,0.0346525,0.034025,0.0346054,0.0339641,0.0345557,0.0339013,0.0345037,0.0338369,0.0344497,0.0337712,0.0343941,0.0337046,0.0343372,0.0336372,0.0342793,0.0335693,0.0342206,0.033501,0.0341612,0.0334322,0.034101,0.0333631,0.0340402,0.0332935,0.0339787,0.0332236,0.0339165,0.0331531,0.0338536,0.0330822,0.0337899,0.0330107,0.0337255,0.0329386,0.0336604,0.032866,0.0335945,0.0327929,0.0335278,0.0327191,0.0334604,0.0326447,0.0333923,0.0325698,0.0333234,0.0324943,0.0332538,0.0324182,0.0331835,0.0323415,0.0331125,0.0322643,0.0330408,0.0321865,0.0329685,0.0321082,0.0328955,0.0320294,0.032822,0.0319501,0.0327478,0.0318703,0.0326731,0.0317901,0.0325979,0.0317094,0.0325221,0.0316283,0.0324459,0.0315468,0.0323692,0.0314649,0.032292,0.0313826,0.0322144,0.0313,0.0321363,0.031217,0.0320579,0.0311338,0.0319791,0.0310502,0.0319,0.0309663,0.0318205,0.0308822,0.0317407,0.0307979,0.0316607,0.0307133,0.0315803,0.0306284,0.0314997,0.0305434,0.0314189,0.0304582,0.0313378,0.0303728,0.0312565,0.0302873,0.031175,0.0302016,0.0310934,0.0301158,0.0310116,0.0300299,0.0309296,0.0299438,0.0308475,0.0298577,0.0307653,0.0297715,0.0306829,0.0296852,0.0306005,0.0295989,0.030518,0.0295125,0.0304354,0.0294261,0.0303527,0.0293396,0.03027,0.0292531,0.0301873,0.0291667,0.0301045,0.0290802,0.0300217,0.0289937,0.0299389,0.0289073,0.0298561,0.0288208,0.0297733,0.0287345,0.0296905,0.0286481,0.0296077,0.0285618,0.029525,0.0284756,0.0294423,0.0283894,0.0293596,0.0283033,0.029277,0.0282173,0.0291944,0.0281314,0.0291119,0.0280455,0.0290295,0.0279597,0.0289472,0.0278741,0.0288649,0.0277885,0.0287828,0.0277031,0.0287007,0.0276178,0.0286187,0.0275326,0.0285369,0.0274475,0.0284551,0.0273626,0.0283735,0.0272778,0.028292,0.0271931,0.0282106,0.0271086,0.0281293,0.0270242,0.0280482,0.02694,0.0279672,0.0268559,0.0278864,0.026772,0.0278057,0.0266883,0.0277251,0.0266047,0.0276447,0.0265213,0.0275645,0.0264381,0.0274844,0.026355,0.0274044,0.0262721,0.0273247,0.0261894,0.0272451,0.0261069,0.0271656,0.0260246,0.0270864,0.0259424,0.0270073,0.0258604,0.0269284,0.0257787,0.0268497,0.0256971,0.0267711,0.0256157,0.0266928,0.0255346,0.0266146,0.0254536,0.0265366,0.0253728,0.0264589,0.0252922,0.0263813,0.0252119,0.0263039,0.0251317,0.0262266,0.0250518,0.0261496,0.024972,0.0260728,0.0248925,0.0259962,0.0248132,0.0259198,0.0247341,0.0258436,0.0246552,0.0257676,0.0245765,0.0256918,0.0244981,0.0256162,0.0244198,0.0255409,0.0243418,0.0254657,0.024264,0.0253907,0.0241865,0.025316,0.0241091,0.0252415,0.024032,0.0251671,0.0239551,0.025093,0.0238784,0.0250191,0.023802,0.0249455,0.0237257,0.024872,0.0236497,0.0247988,0.023574,0.0247257,0.0234984,0.0246529,0.0234231,0.0245803,0.023348,0.024508,0.0232731,0.0244358,0.0231985,0.0243639,0.0231241,0.0242922,0.0230499,0.0242207,0.022976,0.0241494,0.0229023,0.0240784,0.0228288,0.0240075,0.0227555,0.0239369,0.0226825,0.0238666,0.0226097,0.0237964,0.0225371,0.0237264,0.0224648,0.0236567,0.0223927,0.0235872,0.0223208,0.0235179,0.0222492,0.0234489,0.0221777,0.02338,0.0221065,0.0233114,0.0220356,0.023243,0.0219649,0.0231749,0.0218943,0.0231069,0.0218241,0.0230392,0.021754,0.0229717,0.0216842,0.0229044,0.0216146,0.0228373,0.0215453,0.0227705,0.0214761,0.0227038,0.0214072,0.0226374,0.0213385,0.0225712,0.0212701,0.0225053,0.0212019,0.0224395,0.0211338,0.022374,0.0210661,0.0223087,0.0209985,0.0222436,0.0209312,0.0221787,0.0208641,0.022114,0.0207972,0.0220496,0.0207305,0.0219853,0.0206641,0.0219213,0.0205979,0.0218575,0.0205319,0.0217939,0.0204661,0.0217305,0.0204005,0.0216674,0.0203352,0.0216044,0.0202701,0.0215417,0.0202052,0.0214791,0.0201405,0.0214168,0.020076,0.0213547,0.0200118,0.0212928,0.0199477,0.0212311,0.0198839,0.0211696,0.0198203,0.0211084,0.0197569,0.0210473,0.0196937,0.0209864,0.0196308,0.0209258,0.019568,0.0208653,0.0195055,0.0208051,0.0194431,0.020745,0.019381,0.0206852,0.0193191,0.0206256,0.0192574,0.0205661,0.0191959,0.0205069,0.0191346,0.0204479,0.0190735,0.020389,0.0190126,0.0203304,0.0189519,0.0202719,0.0188914,0.0202137,0.0188311,0.0201556,0.0187711,0.0200978,0.0187112,0.0200401,0.0186515,0.0199827,0.018592,0.0199254,0.0185328,0.0198683,0.0184737,0.0198115,0.0184148,0.0197548,0.0183561,0.0196983,0.0182976,0.0196419,0.0182393,0.0195858,0.0181812,0.0195299,0.0181233,0.0194741,0.0180656,0.0194186,0.018008,0.0193632,0.0179507,0.019308,0.0178935,0.019253,0.0178366,0.0191981,0.0177798,0.0191435,0.0177232,0.019089,0.0176668,0.0190347,0.0176106,0.0189806,0.0175545,0.0189267,0.0174987,0.018873,0.017443,0.0188194,0.0173875,0.018766,0.0173322,0.0187128,0.0172771,0.0186597,0.0172221,0.0186068,0.0171673,0.0185541,0.0171127,0.0185016,0.0170583,0.0184492,0.0170041,0.018397,0.01695,0.018345,0.0168961,0.0182932,0.0168423,0.0182415,0.0167888,0.0181899,0.0167354,0.0181386,0.0166822,0.0180874,0.0166291,0.0180364,0.0165762,0.0179855,0.0165235,0.0179348,0.016471,0.0178842,0.0164186,0.0178339,0.0163664,0.0177836,0.0163143,0.0177336,0.0162624,0.0176837,0.0162107,0.0176339,0.0161591,0.0175843,0.0161077,0.0175349,0.0160564,0.0174856,0.0160053,0.0174364,0.0159544,0.0173875,0.0159036,0.0173386,0.015853,0.0172899,0.0158025,0.0172414,0.0157522,0.017193,0.015702,0.0171448,0.015652,0.0170967,0.0156021,0.0170487,0.0155524,0.0170009,0.0155028,0.0169533,0.0154534,0.0169058,0.0154041,0.0168584,0.0153549,0.0168111,0.015306,0.0167641,0.0152571,0.0167171,0.0152084,0.0166703,0.0151598,0.0166236,0.0151114,0.0165771,0.0150631,0.0165307,0.015015,0.0164844,0.014967,0.0164382,0.0149191,0.0163922,0.0148714,0.0163464,0.0148238,0.0163006,0.0147763,0.016255,0.014729,0.0162095,0.0146818,0.0161642,0.0146348,0.016119,0.0145878,0.0160739,0.014541,0.0160289,0.0144944,0.015984,0.0144478,0.0159393,0.0144014,0.0158947,0.0143551,0.0158502,0.014309,0.0158059,0.0142629,0.0157616,0.014217,0.0157175,0.0141712,0.0156735,0.0141256,0.0156296,0.01408,0.0155859,0.0140346,0.0155422,0.0139893,0.0154987,0.0139441,0.0154553,0.013899,0.015412,0.0138541,0.0153688,0.0138092,0.0153257,0.0137645,0.0152827,0.0137199,0.0152399,0.0136754,0.0151971,0.013631,0.0151545,0.0135867,0.0151119,0.0135426,0.0150695,0.0134985,0.0150272,0.0134546,0.0149849,0.0134107,0.0149428,0.013367,0.0149008,0.0133234,0.0148589,0.0132799,0.0148171,0.0132364,0.0147754,0.0131931,0.0147337,0.0131499,0.0146922,0.0131068,0.0146508,0.0130638,0.0146095,0.0130209,0.0145683,0.0129781,0.0145271,0.0129354,0.0144861,0.0128928
-0.0703783,-0.0706087,-0.0708538,-0.0711135,-0.071387,-0.0716732,-0.071971,-0.0722795,-0.0725978,-0.0729245,-0.0732576,-0.0735935,-0.0739259,-0.0742434,-0.0745208,-0.0746903,-0.07461,-0.0744707,-0.0743325,-0.0741462,-0.0740711,-0.0736955,-0.073958,-0.0735828,-0.0738477,-0.0734888,-0.0737567,-0.0734253,-0.0736953,-0.0734206,-0.0736833,-0.0735132,-0.0736848,-0.073507,-0.073807,-0.0736625,-0.0739463,-0.0738478,-0.0742033,-0.0739597,-0.0743224,-0.0738997,-0.0743289,-0.0738862,-0.0743418,-0.0738998,-0.0743622,-0.0739176,-0.0743788,-0.0739247,-0.0743833,-0.0739161,-0.0743732,-0.0738926,-0.07435,-0.0738576,-0.0743171,-0.0738151,-0.074278,-0.0737686,-0.0742359,-0.0737206,-0.074193,-0.0736727,-0.0741506,-0.0736259,-0.0741093,-0.0735804,-0.0740694,-0.0735364,-0.0740308,-0.0734939,-0.0739936,-0.0734529,-0.0739576,-0.0734134,-0.073923,-0.0733753,-0.0738896,-0.0733388,-0.0738576,-0.0733038,-0.073827,-0.0732705,-0.0737979,-0.0732388,-0.0737703,-0.0732088,-0.0737443,-0.0731806,-0.07372,-0.0731542,-0.0736973,-0.0731296,-0.0736764,-0.0731068,-0.0736571,-0.0730858,-0.0736396,-0.0730667,-0.0736238,-0.0730494,-0.0736098,-0.0730338,-0.0735974,-0.0730201,-0.0735867,-0.0730081,-0.0735777,-0.0729979,-0.0735704,-0.0729893,-0.0735647,-0.0729824,-0.0735605,-0.0729772,-0.073558,-0.0729736,-0.0735569,-0.0729716,-0.0735574,-0.072971,-0.0735593,-0.072972,-0.0735627,-0.0729745,-0.0735674,-0.0729783,-0.0735735,-0.0729836,-0.0735809,-0.0729901,-0.0735896,-0.072998,-0.0735995,-0.0730072,-0.0736107,-0.0730176,-0.073623,-0.0730292,-0.0736365,-0.0730419,-0.0736511,-0.0730558,-0.0736667,-0.0730707,-0.0736834,-0.0730867,-0.073701,-0.0731037,-0.0737197,-0.0731217,-0.0737393,-0.0731406,-0.0737598,-0.0731605,-0.0737811,-0.0731812,-0.0738033,-0.0732028,-0.0738264,-0.0732253,-0.0738502,-0.0732485,-0.0738748,-0.0732725,-0.0739001,-0.0732972,-0.0739261,-0.0733227,-0.0739528,-0.0733488,-0.0739802,-0.0733756,-0.0740082,-0.0734031,-0.0740368,-0.0734311,-0.074066,-0.0734598,-0.0740958,-0.073489,-0.0741261,-0.0735188,-0.0741569,-0.0735491,-0.0741882,-0.0735799,-0.07422,-0.0736112,-0.0742523,-0.0736429,-0.074285,-0.0736751,-0.0743181,-0.0737077,-0.0743517,-0.0737408,-0.0743856,-0.0737742,-0.0744199,-0.073808,-0.0744546,-0.0738422,-0.0744896,-0.0738767,-0.0745249,-0.0739115,-0.0745605,-0.0739467,-0.0745965,-0.0739821,-0.0746327,-0.0740179,-0.0746692,-0.0740539,-0.0747059,-0.0740901,-0.0747429,-0.0741267,-0.0747801,-0.0741634,-0.0748176,-0.0742004,-0.0748552,-0.0742376,-0.0748931,-0.0742749,-0.0749311,-0.0743125,-0.0749693,-0.0743503,-0.0750077,-0.0743882,-0.0750462,-0.0744262,-0.0750849,-0.0744645,-0.0751237,-0.0745028,-0.0751627,-0.0745413,-0.0752017,-0.0745799,-0.0752409,-0.0746186,-0.0752802,-0.0746575,-0.0753196,-0.0746964,-0.075359,-0.0747354,-0.0753986,-0.0747745,-0.0754382,-0.0748136,-0.0754779,-0.0748529,-0.0755176,-0.0748922,-0.0755574,-0.0749315,-0.0755973,-0.0749709,-0.0756372,-0.0750103,-0.0756771,-0.0750498,-0.075717,-0.0750893,-0.075757,-0.0751288,-0.075797,-0.0751684,-0.075837,-0.0752079,-0.075877,-0.0752475,-0.075917,-0.0752871,-0.075957,-0.0753266,-0.075997,-0.0753662,-0.076037,-0.0754057,-0.076077,-0.0754453,-0.0761169,-0.0754848,-0.0761569,-0.0755243,-0.0761968,-0.0755638,-0.0762367,-0.0756032,-0.0762765,-0.0756426,-0.0763163,-0.075682,-0.0763561,-0.0757213,-0.0763958,-0.0757606,-0.0764355,-0.0757998,-0.0764752,-0.075839,-0.0765147,-0.0758782,-0.0765543,-0.0759172,-0.0765937,-0.0759563,-0.0766331,-0.0759952,-0.0766725,-0.0760341,-0.0767118,-0.076073,-0.076751,-0.0761118,-0.0767901,-0.0761505,-0.0768292,-0.0761891,-0.0768682,-0.0762277,-0.0769071,-0.0762661,-0.076946,-0.0763045,-0.0769848,-0.0763429,-0.0770235,-0.0763811,-0.0770621,-0.0764193,-0.0771006,-0.0764574,-0.077139,-0.0764954,-0.0771774,-0.0765333,-0.0772156,-0.0765711,-0.0772538,-0.0766088,-0.0772919,-0.0766465,-0.0773299,-0.076684,-0.0773678,-0.0767215,-0.0774056,-0.0767588,-0.0774433,-0.0767961,-0.077481,-0.0768333,-0.0775185,-0.0768703,-0.0775559,-0.0769073,-0.0775932,-0.0769442,-0.0776305,-0.076981,-0.0776676,-0.0770177,-0.0777046,-0.0770542,-0.0777415,-0.0770907,-0.0777784,-0.0771271,-0.0778151,-0.0771634,-0.0778517,-0.0771995,-0.0778882,-0.0772356,-0.0779247,-0.0772716,-0.077961,-0.0773074,-0.0779972,-0.0773432,-0.0780333,-0.0773788,-0.0780693,-0.0774144,-0.0781052,-0.0774498,-0.078141,-0.0774852,-0.0781766,-0.0775204,-0.0782122,-0.0775555,-0.0782477,-0.0775905,-0.0782831,-0.0776254,-0.0783183,-0.0776602,-0.0783535,-0.0776949,-0.0783885,-0.0777295,-0.0784235,-0.077764,-0.0784583,-0.0777984,-0.078493,-0.0778327,-0.0785277,-0.0778668,-0.0785622,-0.0779009,-0.0785966,-0.0779348,-0.0786309,-0.0779687,-0.0786651,-0.0780024,-0.0786992,-0.078036,-0.0787332,-0.0780696,-0.0787671,-0.078103,-0.0788009,-0.0781363,-0.0788346,-0.0781695,-0.0788681,-0.0782026,-0.0789016,-0.0782356,-0.078935,-0.0782685,-0.0789682,-0.0783013,-0.0790014,-0.078334,-0.0790345,-0.0783666,-0.0790674,-0.0783991,-0.0791003,-0.0784315,-0.079133,-0.0784638,-0.0791657,-0.0784959,-0.0791982,-0.078528,-0.0792307,-0.07856,-0.0792631,-0.0785919,-0.0792953,-0.0786236,-0.0793275,-0.0786553,-0.0793595,-0.0786869,-0.0793915,-0.0787184,-0.0794233,-0.0787497,-0.0794551,-0.078781,-0.0794868,-0.0788122,-0.0795183,-0.0788433,-0.0795498,-0.0788743,-0.0795812,-0.0789052,-0.0796125,-0.078936,-0.0796436,-0.0789667,-0.0796747,-0.0789973,-0.0797057,-0.0790278,-0.0797367,-0.0790582,-0.0797675,-0.0790885,-0.0797982,-0.0791188,-0.0798288,-0.0791489,-0.0798594,-0.079179,-0.0798898,-0.0792089,-0.0799202,-0.0792388,-0.0799505,-0.0792686,-0.0799807,-0.0792983,-0.0800108,-0.0793279,-0.0800408,-0.0793574,-0.0800707,-0.0793868,-0.0801005,-0.0794162,-0.0801303,-0.0794454,-0.08016,-0.0794746,-0.0801896,-0.0795037,-0.0802191,-0.0795327,-0.0802485,-0.0795616,-0.0802778,-0.0795904,-0.0803071,-0.0796192,-0.0803363,-0.0796479,-0.0803654,-0.0796764,-0.0803944,-0.079705,-0.0804233,-0.0797334,-0.0804522,-0.0797617,-0.080481,-0.07979,-0.0805097,-0.0798182,-0.0805383,-0.0798463,-0.0805669,-0.0798744,-0.0805954,-0.0799023,-0.0806238,-0.0799302,-0.0806521,-0.079958,-0.0806804,-0.0799858,-0.0807086,-0.0800135,-0.0807367,-0.0800411,-0.0807647,-0.0800686,-0.0807927,-0.080096,-0.0808206,-0.0801234,-0.0808485,-0.0801507,-0.0808762,-0.080178,-0.0809039,-0.0802052,-0.0809316,-0.0802323,-0.0809591,-0.0802593,-0.0809866,-0.0802863,-0.0810141,-0.0803132,-0.0810415,-0.08034,-0.0810688,-0.0803668,-0.081096,-0.0803935,-0.0811232,-0.0804202,-0.0811504,-0.0804468,-0.0811774,-0.0804733,-0.0812044,-0.0804998,-0.0812314,-0.0805262,-0.0812583,-0.0805525,-0.0812851,-0.0805788,-0.0813119,-0.080605,-0.0813386,-0.0806312,-0.0813653,-0.0806573,-0.0813919,-0.0806834,-0.0814184,-0.0807094,-0.0814449,-0.0807354,-0.0814714,-0.0807613,-0.0814978,-0.0807871,-0.0815241,-0.0808129,-0.0815504,-0.0808386,-0.0815767,-0.0808643,-0.0816029,-0.08089,-0.081629,-0.0809155,-0.0816551,-0.0809411,-0.0816812,-0.0809666,-0.0817072,-0.080992,-0.0817331,-0.0810174,-0.0817591,-0.0810428,-0.0817849,-0.0810681,-0.0818108,-0.0810933,-0.0818365,-0.0811185,-0.0818623,-0.0811437,-0.081888,-0.0811688,-0.0819136,-0.0811939,-0.0819393,-0.081219,-0.0819648,-0.081244,-0.0819904,-0.0812689,-0.0820159,-0.0812938,-0.0820413,-0.0813187,-0.0820668,-0.0813436,-0.0820922,-0.0813684,-0.0821175,-0.0813931,-0.0821428,-0.0814179,-0.0821681,-0.0814426,-0.0821934,-0.0814672,-0.0822186,-0.0814919,-0.0822438,-0.0815165,-0.082269,-0.081541,-0.0822941,-0.0815656,-0.0823192,-0.0815901,-0.0823443,-0.0816145,-0.0823693,-0.081639,-0.0823943,-0.0816634,-0.0824193,-0.0816878,-0.0824443,-0.0817121,-0.0824692,-0.0817365,-0.0824941,-0.0817608,-0.082519,-0.081785,-0.0825438,-0.0818093,-0.0825687,-0.0818335,-0.0825935
