Values
-0.00323893
0.0955809
-0.09759
-0.211495
-0.0315001
0.119513
-0.00356269
-0.113596
-0.024353
0.192911
0.0215611
0.0128928
-0.0825935
0.00817796
0.105894
-0.00236846
0.0724475
0.0053935
0.0821124
-0.0224424
0.206525
-0.0740828
0.0226497
-0.00279997
0.0222415
-0.0899414
0.0245107
-0.117838
0.0123826
-0.10993
-0.00942307
-0.195602
-0.00698824
0.0171975
-0.00388879
-0.171754
0.0896053
0.00466009
-0.0653739
-0.0146951
-0.144207
0.013187
0.133988
-0.137302
0.0326903
0.0185496
-0.055363
0.0642534
0.117561
-0.0345388
0.0530887
-0.0894187
-0.0102296
-0.0136282
0.0217314
-0.0636918
-0.0254162
-0.0369965
0.15218
-0.148814
-0.0862036
-0.0479979
-0.098382
-0.104532
0.0204644
-0.217887
0.0829209
-0.102017
-0.0308136
-0.102369
0.00481395
-0.0191226
-0.0968962
-0.0204444
0.0294757
0.062076
-0.0162028
0.238444
-0.00131025
0.174329
-0.0169575
0.130253
0.00813663
0.155356
0.000634566
0.0870474
0.0310178
-0.0721458
-0.0686903
0.1041
0.00262565
0.159056
-0.067781
-0.0107741
-0.072749
0.0822571
0.0548115
-0.0280817
0.0373335
-0.0346187
-0.0862167
-0.210627
0.145946
0.0224786
-0.114275
0.247888
-0.0280723
0.0509661
-0.0481227
-0.0689461
0.0350918
0.137253
0.0804259
0.0185107
0.0243548
-0.208404
-0.103424
-0.0384622
0.0482713
0.093008
