Values
-0.00412818
0.0885105
-0.0994011
-0.213663
-0.0304522
0.10027
0.00375171
-0.11236
-0.0257205
0.190823
0.0238755
0.0177798
-0.0798898
0.00474156
0.108387
-0.00767407
0.0735856
0.00650191
0.0797893
-0.0176171
0.209913
-0.0635154
0.0232188
-0.00685333
0.0239612
-0.0770525
0.0250318
-0.11693
0.00968964
-0.107758
-0.00586178
-0.182992
-0.0075545
0.0152063
-0.00268721
-0.163817
0.0878097
0.003133
-0.0644644
-0.0142173
-0.142795
0.0133536
0.129653
-0.137741
0.0330346
0.0199782
-0.0540607
0.0628117
0.119382
-0.0369503
0.0514547
-0.0917064
-0.017056
-0.0154582
0.0218084
-0.0626218
-0.0178647
-0.0366918
0.151463
-0.15138
-0.0845184
-0.0429048
-0.0926327
-0.106635
0.0228255
-0.22004
0.0861452
-0.103048
-0.0308273
-0.100024
0.00794215
-0.0233869
-0.0897395
-0.024454
0.0314257
0.0633808
-0.0107423
0.239279
-0.00429588
0.17221
-0.0117776
0.121401
0.0136152
0.152338
0.00273822
0.0726822
0.0308196
-0.0729709
-0.0697415
0.104413
0.00550129
0.146492
-0.0698277
-0.0123796
-0.0717381
0.0665659
0.0556945
-0.0287466
0.0371386
-0.0344454
-0.086915
-0.197588
0.127233
0.0195421
-0.11368
0.22509
-0.0155118
0.0470361
-0.0462326
-0.0678664
0.0312571
0.122692
0.0754487
0.0213011
0.0219868
-0.200564
-0.115297
-0.0387261
0.0470426
0.0875882
