Values
-0.00396604
0.0903637
-0.0990729
-0.213128
-0.0307497
0.105348
0.00189642
-0.112673
-0.0253683
0.191369
0.0232182
0.0164186
-0.0806238
0.00558022
0.107717
-0.00612706
0.0734484
0.006267
0.0803218
-0.0189326
0.209051
-0.0661123
0.0231611
-0.00581598
0.0235284
-0.080498
0.0248496
-0.117177
0.010389
-0.10832
-0.00675837
-0.186014
-0.0074805
0.0157002
-0.0029964
-0.16574
0.0882967
0.00351881
-0.0646868
-0.0143895
-0.143122
0.0136186
0.13057
-0.137635
0.0329484
0.0198076
-0.054387
0.0631518
0.118956
-0.0362955
0.0518602
-0.0910238
-0.0154662
-0.0149971
0.0217894
-0.0629626
-0.0198347
-0.0367972
0.151677
-0.150668
-0.0849836
-0.0443583
-0.0941089
-0.106152
0.0222054
-0.21931
0.0854874
-0.102748
-0.0308731
-0.100744
0.00714788
-0.0223886
-0.0913671
-0.0234296
0.03093
0.0629744
-0.012189
0.239044
-0.00351795
0.172705
-0.0131077
0.123564
0.0122259
0.153102
0.00217593
0.0765656
0.0309367
-0.0727496
-0.0694901
0.104264
0.00479101
0.149897
-0.0694375
-0.0119565
-0.0720039
0.0707627
0.0554148
-0.0286073
0.0372263
-0.0343985
-0.0867578
-0.200931
0.131804
0.0203638
-0.11386
0.230912
-0.0189726
0.0480104
-0.0466793
-0.0681131
0.0323075
0.126706
0.0765563
0.0204911
0.0225335
-0.202603
-0.112277
-0.0384724
0.0475003
0.0890225
