Values
-0.00344954
0.0719739
-0.098704
-0.217556
-0.0261473
0.0343221
0.0243227
-0.104838
-0.0280762
0.188669
0.0324772
0.0380293
-0.0703783
-0.00239983
0.115531
-0.0254286
0.0604507
0.00842348
0.0758709
0.0111872
0.219203
-0.0379926
0.0220353
-0.0186911
0.0266442
-0.0274929
0.0143288
-0.117766
0.00143207
-0.0900633
0.00500922
-0.151201
0.00390621
0.0143551
0.000158537
-0.187463
0.0454051
-0.0187653
-0.0613466
0.00213106
-0.140915
-0.00779092
0.123362
-0.139477
0.0319027
0.00459189
-0.05169
0.058548
0.119988
-0.0572372
0.047122
-0.100363
-0.0383579
-0.0215601
0.0198631
-0.0150936
0.0135849
-0.0303799
0.148014
-0.164438
-0.0761289
-0.00329399
-0.0622336
-0.102245
0.0304074
-0.262135
0.0436213
-0.128043
-0.0250569
-0.0614327
0.016967
-0.0259327
-0.0725271
-0.0353646
0.0365889
0.0734744
-0.00190043
0.241741
-0.011687
0.178161
0.00232021
0.0976866
0.032919
0.143076
0.0090594
-0.00170862
0.0220538
-0.0769338
-0.0728731
0.109469
0.0145785
0.106887
-0.0571905
-0.0139456
-0.0687388
-0.0727819
0.0292543
-0.0465922
0.035128
-0.0278914
-0.0812413
-0.12918
0.0904383
0.0183615
-0.106997
0.111006
0.00508033
0.0236739
-0.0419674
-0.0367842
0.00868661
-0.0118494
0.03732
-0.0106205
-0.0057607
-0.244899
-0.0821496
-0.0897423
0.00661323
0.0251742
