Values
-0.00438654
0.0809572
-0.100005
-0.215649
-0.0290347
0.0778659
0.0112103
-0.110886
-0.027197
0.188646
0.0270121
0.0244981
-0.0763561
0.00165245
0.111424
-0.0156663
0.0724037
0.00731807
0.0779997
-0.0110959
0.213292
-0.0539808
0.0226395
-0.0113262
0.0255905
-0.06069
0.0264702
-0.115336
0.00640841
-0.105549
-0.0022663
-0.172049
-0.00728373
0.013305
-0.00139783
-0.157066
0.0852178
0.00162113
-0.0636765
-0.0132306
-0.141765
0.00963071
0.126826
-0.138149
0.033306
0.0192131
-0.0525147
0.0617868
0.120647
-0.040539
0.049776
-0.0947594
-0.0232399
-0.0173246
0.0217534
-0.0591317
-0.00925129
-0.0358289
0.150322
-0.154691
-0.0823491
-0.0351979
-0.0861468
-0.10805
0.0255484
-0.22408
0.086955
-0.104585
-0.0301757
-0.0956982
0.0111121
-0.0271931
-0.0841289
-0.0288121
0.0334126
0.0659228
-0.00402711
0.240799
-0.00784973
0.170282
-0.00623276
0.112717
0.0197515
0.149205
0.00529024
0.0536261
0.0296447
-0.0738401
-0.0708067
0.105362
0.00822795
0.130403
-0.0706257
-0.0142877
-0.070592
0.0465984
0.0575371
-0.0288868
0.0362702
-0.0356948
-0.0872448
-0.183551
0.109121
0.0153735
-0.11266
0.200767
0.00158349
0.042957
-0.0445061
-0.0670999
0.0255302
0.103103
0.0714694
0.0254229
0.0201033
-0.192481
-0.127802
-0.0418798
0.0432203
0.080945
