Values
-0.0043469
0.0791533
-0.100008
-0.216074
-0.0286188
0.0716026
0.0130314
-0.110394
-0.0275696
0.188178
0.0278966
0.0265213
-0.075359
0.000966261
0.11227
-0.0180246
0.0715436
0.00758183
0.0776101
-0.0090218
0.214081
-0.0519173
0.0221529
-0.0125876
0.0259363
-0.055474
0.027146
-0.114602
0.00538646
-0.105025
-0.00136478
-0.169581
-0.00704469
0.0128738
-0.00105543
-0.155757
0.0842218
0.00126316
-0.0635081
-0.0128726
-0.141618
0.00784567
0.126203
-0.138269
0.0333199
0.0187379
-0.0519107
0.0617265
0.120758
-0.0419146
0.0493149
-0.0955425
-0.0249625
-0.0178211
0.0216539
-0.0570153
-0.0067763
-0.0353854
0.149933
-0.155667
-0.0817057
-0.032504
-0.0842693
-0.108185
0.0263204
-0.225359
0.0863193
-0.105111
-0.02982
-0.093979
0.0118911
-0.0281103
-0.0829559
-0.0300034
0.0339027
0.0669765
-0.00201111
0.241468
-0.00889523
0.169813
-0.00481462
0.110406
0.0214705
0.148386
0.00601428
0.0476114
0.0291778
-0.0739734
-0.0711538
0.105625
0.00888119
0.125653
-0.0706214
-0.0148275
-0.0702708
0.0402375
0.0582213
-0.028745
0.0358785
-0.0363586
-0.0871891
-0.17981
0.104531
0.0140344
-0.112289
0.194245
0.00698994
0.0418129
-0.0440412
-0.0669965
0.0233973
0.0968984
0.0703463
0.0266151
0.0195511
-0.190811
-0.130994
-0.0435828
0.041265
0.0789841
