Values
-0.0036669
0.0734069
-0.0997051
-0.217069
-0.0266426
0.0420499
0.0210682
-0.106051
-0.0287076
0.187644
0.0310171
0.0345215
-0.0743833
-0.00250058
0.115318
-0.0128584
0.0707118
0.0137939
0.0752704
0.00172403
0.216985
-0.0434383
0.0165941
-0.0190767
0.0269468
-0.0113023
0.03251
-0.10631
0.000852182
-0.100834
0.00253693
-0.156764
-0.0039136
0.0124695
0.000877176
-0.151725
0.0705687
-0.00131895
-0.0619934
-0.00704818
-0.141816
-0.00505994
0.120843
-0.139605
0.0326411
0.0235085
-0.0442693
0.066066
0.119475
-0.0543729
0.0472522
-0.0986151
-0.0366741
-0.0208135
0.020348
-0.0241371
0.00973512
-0.0293276
0.147816
-0.161822
-0.078069
-0.0107908
-0.0711039
-0.105115
0.0306854
-0.234506
0.0662223
-0.112454
-0.0256943
-0.0745036
0.0154234
-0.0276597
-0.0773208
-0.0347451
0.0363925
0.0790211
0.00424179
0.246761
-0.0123707
0.172248
0.000402047
0.0989258
0.0279891
0.144041
0.00906498
0.0209409
0.0297311
-0.0705158
-0.0734899
0.105508
0.0117429
0.104723
-0.0680518
-0.0165949
-0.0682552
-0.00589467
0.0580145
-0.027176
0.0344019
-0.0389281
-0.0844717
-0.157684
0.086802
0.00852851
-0.108044
0.159346
0.037133
0.035997
-0.0379228
-0.0678938
0.00471659
0.047623
0.0537824
0.0240448
0.00717139
-0.201794
-0.140405
-0.0595354
0.0112592
0.0689065
