Values
-0.00425157
0.0866247
-0.0996536
-0.214187
-0.030132
0.0950024
0.0056184
-0.112035
-0.0260802
0.190269
0.0245854
0.0192574
-0.0791003
0.003924
0.109092
-0.00939344
0.0735823
0.0067152
0.0792919
-0.0161997
0.210775
-0.0609807
0.0232121
-0.00791434
0.0243895
-0.0734082
0.0252662
-0.116647
0.00895644
-0.107194
-0.00496331
-0.180077
-0.00757644
0.0147171
-0.0023729
-0.161965
0.0872803
0.00274743
-0.0642493
-0.0140152
-0.14249
0.0128511
0.128835
-0.137844
0.0331178
0.0200057
-0.0537262
0.0624927
0.119776
-0.0376696
0.0510475
-0.0924364
-0.0185986
-0.0159202
0.0218214
-0.0621578
-0.0158341
-0.0365563
0.151224
-0.152137
-0.0840245
-0.0412993
-0.0911137
-0.107078
0.0234667
-0.220887
0.0866678
-0.103377
-0.030743
-0.0991932
0.00873881
-0.0243574
-0.0882053
-0.0254987
0.0319237
0.0638576
-0.00922019
0.239552
-0.00510789
0.171725
-0.0104233
0.119253
0.0150474
0.151567
0.00332813
0.0685171
0.0306406
-0.0731986
-0.0699907
0.104604
0.00620193
0.142867
-0.0701407
-0.0128212
-0.0714646
0.0621243
0.0560329
-0.028856
0.0370102
-0.0345789
-0.0870511
-0.194185
0.1227
0.0186456
-0.113475
0.219182
-0.0117781
0.0460551
-0.0457979
-0.0676379
0.0301003
0.11838
0.0744108
0.0221971
0.0214777
-0.198498
-0.118358
-0.0391451
0.0464426
0.0860791
