Values
-0.0037645
0.0921692
-0.0986646
-0.212587
-0.031024
0.110244
5.70172e-005
-0.112979
-0.0250233
0.1919
0.0226134
0.0151598
-0.0813119
0.00643514
0.107078
-0.00473641
0.0731985
0.00600606
0.0808878
-0.0201653
0.208196
-0.0687507
0.0230457
-0.00479702
0.0230952
-0.0837785
0.024708
-0.117403
0.0110654
-0.108873
-0.00765165
-0.189132
-0.00735868
0.0161974
-0.00330004
-0.167714
0.088753
0.00390276
-0.0649139
-0.0145286
-0.143468
0.0136673
0.131593
-0.137526
0.0328614
0.0195043
-0.0547111
0.0635075
0.118508
-0.035685
0.0522664
-0.0904047
-0.0138093
-0.0145377
0.0217684
-0.0632313
-0.0217483
-0.0368798
0.151868
-0.150002
-0.08542
-0.0456816
-0.0955533
-0.105637
0.0216052
-0.218704
0.08472
-0.102476
-0.0308845
-0.101368
0.00635946
-0.0213516
-0.0930957
-0.0224217
0.0304384
0.0626271
-0.0135736
0.238833
-0.00276559
0.173219
-0.014414
0.125755
0.0108617
0.15386
0.00163901
0.0802241
0.0310028
-0.0725374
-0.0692325
0.104162
0.00407353
0.153111
-0.0689678
-0.0115493
-0.0722614
0.074757
0.055181
-0.0284463
0.037283
-0.0344208
-0.0865857
-0.204218
0.136432
0.0211213
-0.114018
0.236652
-0.0221995
0.048986
-0.0471414
-0.068376
0.0332818
0.130455
0.0777471
0.0197599
0.0231138
-0.204596
-0.109294
-0.0383563
0.0478446
0.0903961
