0,1,2,3,4,5,6,7,8,9,10,11,12,13,14,15,16,17,18,19,20,21,22,23,24,25,26,27,28,29,30,31,32,33,34,35,36,37,38,39,40,41,42,43,44,45,46,47,48,49,50
-0.00344954,-0.00347849,-0.00351576,-0.00356137,-0.00361432,-0.00367262,-0.00373362,-0.00379458,-0.00385299,-0.00390682,-0.00395448,-0.00399473,-0.00402643,-0.00404809,-0.0040564,-0.00404189,-0.00398738,-0.00392182,-0.00384997,-0.00375336,-0.00367871,-0.00355936,-0.00362138,-0.00352732,-0.0035917,-0.00350716,-0.00357273,-0.00350068,-0.00356323,-0.00351393,-0.003559,-0.00354974,-0.00352726,-0.00352291,-0.00355319,-0.0035588,-0.00356014,-0.00357936,-0.00359764,-0.00360681,-0.00362092,-0.00360019,-0.00362798,-0.00360568,-0.00363872,-0.00361331,-0.00364897,-0.00362035,-0.00365833,-0.00362619,-0.0036669
0.0719739,0.0720097,0.0720404,0.0720627,0.072074,0.0720723,0.072057,0.0720287,0.0719891,0.0719403,0.0718851,0.0718267,0.0717697,0.0717217,0.0716984,0.0717395,0.0719112,0.0721067,0.0723217,0.0726278,0.0728798,0.0733489,0.0731228,0.0735448,0.0732989,0.0737009,0.0734422,0.0738075,0.0735551,0.0738381,0.073654,0.0737663,0.0738693,0.0739076,0.0737347,0.0737342,0.0736595,0.0735316,0.0733675,0.0733636,0.0732362,0.0734768,0.0732541,0.0735345,0.0732729,0.0735833,0.073303,0.0736414,0.0733475,0.0737149,0.0734069
-0.098704,-0.098849,-0.0990036,-0.0991675,-0.0993401,-0.0995202,-0.0997066,-0.0998981,-0.100093,-0.100289,-0.100484,-0.100672,-0.100847,-0.100994,-0.101083,-0.101042,-0.100765,-0.100463,-0.100157,-0.0997702,-0.0994651,-0.0990061,-0.0991634,-0.0987982,-0.0989616,-0.0986362,-0.0988022,-0.0985288,-0.0986854,-0.0985055,-0.098613,-0.0985971,-0.0985305,-0.0985349,-0.0986805,-0.0987485,-0.0988647,-0.0990149,-0.0992045,-0.0992514,-0.0994122,-0.099212,-0.0994668,-0.0992448,-0.0995387,-0.099302,-0.0996088,-0.0993555,-0.0996662,-0.0993916,-0.0997051
-0.217556,-0.217521,-0.217486,-0.217453,-0.217424,-0.217402,-0.21739,-0.21739,-0.217403,-0.217428,-0.217465,-0.21751,-0.217562,-0.217611,-0.217645,-0.217627,-0.2175,-0.217356,-0.217204,-0.217003,-0.216847,-0.216598,-0.216688,-0.216484,-0.216578,-0.216396,-0.216492,-0.216336,-0.21643,-0.216317,-0.216392,-0.216357,-0.216351,-0.216347,-0.216438,-0.216462,-0.216556,-0.216641,-0.21675,-0.21679,-0.216886,-0.216811,-0.216941,-0.21685,-0.21699,-0.216887,-0.217028,-0.216915,-0.217054,-0.21693,-0.217069
-0.0261473,-0.0261267,-0.0261103,-0.0260982,-0.0260902,-0.026085,-0.0260809,-0.0260759,-0.0260683,-0.0260569,-0.0260409,-0.0260207,-0.0259972,-0.0259736,-0.0259568,-0.0259638,-0.0260194,-0.026075,-0.0261275,-0.026193,-0.0262403,-0.0263204,-0.0262956,-0.0263611,-0.0263375,-0.0263936,-0.0263728,-0.0264173,-0.0264025,-0.0264302,-0.026428,-0.0264339,-0.0264577,-0.0264662,-0.0264855,-0.0264903,-0.0265101,-0.0265178,-0.0265313,-0.0265257,-0.0265377,-0.0265137,-0.0265481,-0.0265216,-0.0265696,-0.0265391,-0.0265947,-0.0265593,-0.0266196,-0.0265786,-0.0266426
0.0343221,0.0351366,0.0360577,0.0370832,0.0381999,0.0393854,0.0406118,0.0418505,0.0430742,0.0442574,0.0453735,0.0463908,0.0472631,0.0479078,0.0481473,0.0475423,0.0455021,0.0434314,0.0414579,0.0390589,0.0372745,0.0345033,0.0356854,0.0334739,0.0347026,0.0327349,0.0339873,0.0323312,0.0335309,0.0324187,0.0333218,0.0331678,0.0329953,0.0331374,0.0341683,0.0346116,0.0354241,0.0364629,0.0375256,0.038092,0.0389611,0.0383052,0.0396207,0.0388622,0.040325,0.0394991,0.0409839,0.0400927,0.0415628,0.0405953,0.0420499
0.0243227,0.0245671,0.0248565,0.0251931,0.0255752,0.0259976,0.0264521,0.0269291,0.0274181,0.0279083,0.0283872,0.0288389,0.0292394,0.0295463,0.0296694,0.0293869,0.0283894,0.0273544,0.0263321,0.0250325,0.0240098,0.0224121,0.0230398,0.0217331,0.0223881,0.0211943,0.0218579,0.0208141,0.0214283,0.0206632,0.0210401,0.0207997,0.0203186,0.0202344,0.0205387,0.0205975,0.020628,0.0209966,0.0213548,0.021385,0.0216662,0.0209634,0.0215476,0.0207452,0.0214539,0.0205916,0.0213514,0.0204384,0.0212251,0.0202599,0.0210682
-0.104838,-0.104548,-0.104212,-0.103833,-0.103413,-0.102963,-0.102494,-0.102016,-0.101541,-0.101078,-0.100638,-0.100233,-0.0998792,-0.0996065,-0.0994786,-0.0996548,-0.100361,-0.101097,-0.101807,-0.102678,-0.103317,-0.104347,-0.103885,-0.104722,-0.10425,-0.105008,-0.10454,-0.105205,-0.104778,-0.105288,-0.105013,-0.105249,-0.105485,-0.105631,-0.105452,-0.105542,-0.105553,-0.105503,-0.105336,-0.105457,-0.105326,-0.105753,-0.105492,-0.105953,-0.105637,-0.106114,-0.105774,-0.106264,-0.10591,-0.106416,-0.106051
-0.0280762,-0.0280983,-0.0281259,-0.028159,-0.0281966,-0.0282374,-0.0282795,-0.0283208,-0.0283596,-0.0283943,-0.0284238,-0.0284472,-0.0284637,-0.028473,-0.0284747,-0.0284704,-0.0284695,-0.0284788,-0.0284997,-0.0285405,-0.0285752,-0.0286447,-0.0286155,-0.0286751,-0.0286455,-0.0286982,-0.0286694,-0.0287134,-0.0286874,-0.0287183,-0.0286998,-0.0287109,-0.0287198,-0.0287237,-0.0287211,-0.0287211,-0.0287239,-0.0287252,-0.0287364,-0.0287254,-0.028738,-0.0286973,-0.028732,-0.028677,-0.0287274,-0.0286617,-0.0287226,-0.0286473,-0.0287163,-0.0286311,-0.0287076
0.188669,0.188588,0.188492,0.18838,0.188255,0.188119,0.187975,0.187828,0.18768,0.187536,0.187397,0.187268,0.187153,0.187061,0.18701,0.187053,0.187277,0.187533,0.187818,0.18824,0.18858,0.189258,0.188898,0.18951,0.189119,0.189697,0.189284,0.189796,0.189386,0.189749,0.189431,0.189495,0.189594,0.189563,0.189231,0.189132,0.188941,0.188636,0.188323,0.188204,0.187951,0.188259,0.187851,0.18822,0.187759,0.18817,0.187693,0.18814,0.187655,0.188138,0.187644
0.0324772,0.0324246,0.0323584,0.0322786,0.0321873,0.032088,0.0319849,0.0318824,0.0317842,0.0316935,0.0316121,0.0315417,0.0314831,0.0314372,0.0314064,0.0313984,0.0314293,0.0314602,0.0314833,0.0315172,0.0315175,0.0316089,0.0315096,0.0316045,0.0315031,0.0315958,0.0314912,0.0315792,0.0314708,0.0315472,0.0314368,0.031489,0.0314094,0.0314581,0.0313663,0.0314005,0.0313332,0.0313381,0.0312712,0.0312585,0.0311958,0.0312131,0.0311465,0.0311703,0.0311047,0.0311364,0.0310712,0.0311091,0.0310429,0.0310857,0.0310171
0.0380293,0.0380934,0.0381452,0.0381795,0.038192,0.0381804,0.038144,0.0380844,0.0380041,0.0379064,0.0377948,0.0376732,0.0375461,0.0374202,0.0373084,0.037246,0.0373103,0.0373994,0.0374846,0.0376137,0.0376354,0.038005,0.0376463,0.0380672,0.0376822,0.0381084,0.0376975,0.0381136,0.037677,0.0380498,0.0375976,0.0378616,0.0375156,0.0376956,0.0371431,0.0372775,0.036707,0.0366215,0.0360463,0.0360734,0.0355525,0.0358368,0.0352587,0.0355927,0.035015,0.03538,0.0348148,0.0352071,0.034652,0.0350729,0.0345215
-0.0703783,-0.0706087,-0.0708538,-0.0711135,-0.071387,-0.0716732,-0.071971,-0.0722795,-0.0725978,-0.0729245,-0.0732576,-0.0735935,-0.0739259,-0.0742434,-0.0745208,-0.0746903,-0.07461,-0.0744707,-0.0743325,-0.0741462,-0.0740711,-0.0736955,-0.073958,-0.0735828,-0.0738477,-0.0734888,-0.0737567,-0.0734253,-0.0736953,-0.0734206,-0.0736833,-0.0735132,-0.0736848,-0.073507,-0.073807,-0.0736625,-0.0739463,-0.0738478,-0.0742033,-0.0739597,-0.0743224,-0.0738997,-0.0743289,-0.0738862,-0.0743418,-0.0738998,-0.0743622,-0.0739176,-0.0743788,-0.0739247,-0.0743833
-0.00239983,-0.00234284,-0.00228536,-0.00223086,-0.0021838,-0.0021489,-0.00213041,-0.00213147,-0.00215397,-0.00219857,-0.00226478,-0.00235098,-0.00245404,-0.00256828,-0.00268191,-0.00276341,-0.0027411,-0.00269236,-0.00264445,-0.00257,-0.00255848,-0.00236221,-0.00251639,-0.00230698,-0.0024618,-0.00225773,-0.0024134,-0.00221856,-0.00237589,-0.00220007,-0.00235776,-0.00222104,-0.00233314,-0.00221273,-0.00236059,-0.00225824,-0.00240308,-0.00235646,-0.00252322,-0.00242192,-0.00259295,-0.00240441,-0.00259448,-0.00238885,-0.00258196,-0.00236922,-0.00256188,-0.00234306,-0.00253491,-0.00230893,-0.00250058
0.115531,0.115566,0.115593,0.115611,0.115622,0.115629,0.115633,0.11564,0.115651,0.11567,0.115699,0.115737,0.115784,0.115839,0.115895,0.115937,0.115933,0.115916,0.115898,0.11587,0.115862,0.115799,0.115835,0.11577,0.115803,0.115744,0.115771,0.115719,0.115736,0.115695,0.115694,0.115665,0.115623,0.115587,0.115535,0.11552,0.115465,0.115472,0.115444,0.115491,0.115462,0.115516,0.115455,0.115508,0.115427,0.115482,0.115391,0.115449,0.115353,0.115417,0.115318
-0.0254286,-0.0240315,-0.0224847,-0.0207941,-0.0189801,-0.0170747,-0.0151146,-0.0131353,-0.0111679,-0.00923938,-0.00737473,-0.00560168,-0.00395916,-0.00251726,-0.00143461,-0.00114442,-0.00241702,-0.00383933,-0.00505698,-0.00645772,-0.00702262,-0.00939431,-0.00760734,-0.00995121,-0.00815217,-0.0104211,-0.00861833,-0.0107828,-0.00900588,-0.0109565,-0.00933068,-0.0108132,-0.0100904,-0.0113908,-0.00996864,-0.0111285,-0.0101579,-0.011075,-0.00979071,-0.0113443,-0.0100984,-0.0122393,-0.0107294,-0.0129364,-0.0113198,-0.0135038,-0.0118457,-0.0140195,-0.0123493,-0.0145309,-0.0128584
0.0604507,0.0608951,0.0614082,0.061993,0.0626476,0.0633652,0.0641358,0.0649482,0.0657909,0.066653,0.0675226,0.0683856,0.069222,0.0699976,0.0706386,0.0709465,0.0705374,0.0700376,0.0695945,0.0689968,0.0687837,0.06751,0.0685094,0.0672008,0.0682225,0.0669445,0.0679874,0.0667748,0.0678274,0.0667706,0.0677689,0.0670442,0.0675636,0.066952,0.0679845,0.06748,0.0684266,0.0682832,0.0694569,0.0689637,0.0701049,0.0690137,0.0703444,0.0691512,0.0705133,0.0692873,0.0706324,0.0693804,0.070699,0.069415,0.0707118
0.00842348,0.00892401,0.00949128,0.0101238,0.010814,0.0115493,0.0123148,0.0130957,0.0138791,0.0146539,0.0154099,0.0161361,0.016818,0.0174302,0.0179167,0.0181231,0.0177564,0.0173169,0.0169353,0.0164716,0.0163204,0.0154406,0.0161565,0.0152667,0.0159827,0.0151162,0.015827,0.014992,0.0156829,0.01491,0.0155249,0.0148931,0.0151185,0.014565,0.0150434,0.0145348,0.0148417,0.0144738,0.0149419,0.0144065,0.0148658,0.0141388,0.0146635,0.0139026,0.0144427,0.0136824,0.0142258,0.0134664,0.0140104,0.013249,0.0137939
0.0758709,0.0758335,0.0757874,0.0757329,0.0756712,0.0756047,0.0755364,0.0754693,0.075406,0.0753488,0.0752994,0.0752593,0.0752295,0.0752111,0.0752051,0.0752121,0.0752253,0.0752349,0.0752411,0.0752386,0.0752503,0.0752029,0.0752509,0.0751941,0.0752409,0.075186,0.0752304,0.075179,0.0752206,0.0751752,0.0752131,0.075178,0.0751954,0.0751694,0.0751667,0.0751593,0.0751466,0.0751657,0.0751429,0.075206,0.0751754,0.0752609,0.0752,0.0753032,0.0752209,0.0753336,0.0752374,0.0753591,0.0752531,0.0753848,0.0752704
0.0111872,0.0110416,0.0108733,0.0106824,0.0104712,0.0102438,0.0100052,0.0097603,0.00951349,0.00926832,0.00902774,0.00879448,0.0085719,0.00836569,0.00818953,0.00808577,0.00815184,0.00823228,0.00828886,0.00839981,0.0083428,0.0088354,0.00825874,0.0088485,0.00823218,0.0088276,0.00816938,0.00873782,0.0080331,0.00850717,0.00775942,0.00802383,0.00739615,0.00757314,0.00665201,0.0067706,0.00582975,0.0056306,0.0046996,0.00464652,0.0037883,0.0041601,0.00321439,0.00366081,0.00272981,0.00322258,0.00232853,0.00285728,0.00199703,0.00256013,0.00172403
0.219203,0.219139,0.219058,0.218961,0.21885,0.218729,0.218603,0.218478,0.218357,0.218243,0.218138,0.218045,0.217963,0.217893,0.217833,0.217787,0.217766,0.217738,0.217698,0.217656,0.217583,0.217626,0.217515,0.217591,0.21748,0.217563,0.217448,0.21754,0.217417,0.217519,0.21738,0.217491,0.217352,0.217459,0.217341,0.217437,0.21734,0.217398,0.217303,0.217316,0.21722,0.217243,0.217154,0.217183,0.2171,0.217137,0.217057,0.2171,0.21702,0.217066,0.216985
-0.0379926,-0.0379144,-0.0378523,-0.0378122,-0.0377991,-0.0378159,-0.0378629,-0.0379388,-0.0380407,-0.0381658,-0.0383107,-0.0384728,-0.0386494,-0.038838,-0.0390343,-0.0392214,-0.0393287,-0.0394071,-0.0394937,-0.0395819,-0.0397897,-0.0395973,-0.0399915,-0.0396577,-0.0400743,-0.039701,-0.0401441,-0.0397322,-0.0402162,-0.0397593,-0.0403172,-0.0398216,-0.0404172,-0.0399805,-0.0406662,-0.040235,-0.040979,-0.0407665,-0.0415127,-0.0412761,-0.0420033,-0.0416528,-0.0423818,-0.0420021,-0.042703,-0.0423058,-0.04298,-0.0425688,-0.0432228,-0.0427972,-0.0434383
0.0220353,0.0217744,0.0214939,0.0211937,0.0208746,0.0205374,0.0201832,0.0198123,0.0194248,0.0190209,0.0186006,0.0181646,0.0177142,0.0172525,0.0167883,0.0163595,0.0161175,0.0159799,0.0158704,0.0157837,0.0155988,0.0158044,0.0154959,0.0158037,0.0154984,0.015827,0.0155214,0.0158715,0.0155567,0.0159351,0.0155942,0.0160039,0.0156905,0.0161233,0.0157849,0.0162606,0.0159683,0.0164529,0.0160519,0.0166485,0.0161775,0.0167799,0.0162879,0.0168947,0.0163898,0.0169817,0.0164697,0.0170483,0.0165353,0.0171046,0.0165941
-0.0186911,-0.0186237,-0.0185555,-0.0184902,-0.0184332,-0.0183901,-0.018366,-0.018365,-0.0183897,-0.0184419,-0.0185222,-0.0186307,-0.0187667,-0.0189289,-0.0191137,-0.0193058,-0.0194338,-0.0195222,-0.0196042,-0.0196791,-0.0198116,-0.0197096,-0.0198881,-0.0197154,-0.0198907,-0.0197022,-0.0198758,-0.0196694,-0.0198468,-0.0196138,-0.0198066,-0.0195411,-0.0197176,-0.0194619,-0.0196184,-0.019356,-0.0194902,-0.0192689,-0.0194479,-0.0191936,-0.0194044,-0.0191358,-0.0193444,-0.0190685,-0.0192756,-0.0189995,-0.0192076,-0.0189324,-0.0191415,-0.018867,-0.0190767
0.0266442,0.0266854,0.0267172,0.0267392,0.0267526,0.0267602,0.026766,0.026774,0.0267882,0.0268119,0.0268473,0.0268963,0.0269594,0.0270367,0.0271266,0.0272218,0.0272871,0.0273255,0.0273527,0.027373,0.0274075,0.0273751,0.0274153,0.0273643,0.0273997,0.0273471,0.0273758,0.0273221,0.0273412,0.0272855,0.0272876,0.0272293,0.0271892,0.0271358,0.0270765,0.0270563,0.0269958,0.0270265,0.0269944,0.0270767,0.0270371,0.0271118,0.0270436,0.0271161,0.0270288,0.0271018,0.0270035,0.0270789,0.0269749,0.0270539,0.0269468
-0.0274929,-0.0258001,-0.0239368,-0.0219103,-0.0197433,-0.0174696,-0.0151267,-0.0127488,-0.0103629,-0.00798888,-0.00564123,-0.00333137,-0.00107195,0.00111327,0.00315491,0.00478643,0.00520773,0.00524007,0.00532455,0.00539834,0.00622044,0.00480474,0.00674529,0.00479546,0.00670571,0.00461244,0.00649967,0.00421885,0.00610481,0.00353618,0.00543271,0.00255095,0.00385069,0.00101645,0.00240441,-0.000596568,9.09896e-005,-0.00306627,-0.00186895,-0.00545274,-0.00402251,-0.00719627,-0.00574368,-0.0088711,-0.00736408,-0.0103746,-0.0088036,-0.0117178,-0.0101041,-0.0129362,-0.0113023
0.0143288,0.0148757,0.0155038,0.016217,0.0170137,0.0178876,0.0188293,0.0198287,0.020877,0.0219665,0.023091,0.0242447,0.0254219,0.0266137,0.0277979,0.0288774,0.0294713,0.0298679,0.0302413,0.0305589,0.0312148,0.0305571,0.0316675,0.0306397,0.0317536,0.0306357,0.0317658,0.0305537,0.0317299,0.0303957,0.0316692,0.0302161,0.0313653,0.0299542,0.0312551,0.0297867,0.0310495,0.0298461,0.0313841,0.0300478,0.031702,0.0302818,0.0319586,0.03051,0.0321424,0.0307124,0.0322936,0.0308853,0.032416,0.0310248,0.03251
-0.117766,-0.117161,-0.116476,-0.115714,-0.114883,-0.113997,-0.11307,-0.112118,-0.111152,-0.110181,-0.109213,-0.108252,-0.107304,-0.106378,-0.105494,-0.104743,-0.104422,-0.104254,-0.10409,-0.103955,-0.103546,-0.104054,-0.10326,-0.103995,-0.103214,-0.104003,-0.103231,-0.104084,-0.103312,-0.104263,-0.103482,-0.104534,-0.103959,-0.10495,-0.104321,-0.105325,-0.10485,-0.105739,-0.105085,-0.106022,-0.105313,-0.106197,-0.105504,-0.10639,-0.105719,-0.106582,-0.105926,-0.106768,-0.106123,-0.106946,-0.10631
0.00143207,0.00138703,0.00133163,0.00126615,0.00119212,0.00111224,0.00102982,0.000948245,0.000870519,0.000799146,0.000736134,0.000683098,0.000641418,0.000612465,0.000598051,0.000601147,0.000620472,0.000645272,0.000676038,0.000710415,0.000762108,0.000744782,0.000798518,0.000755444,0.00080674,0.000759359,0.000807552,0.000756535,0.000802507,0.000746683,0.00079329,0.000733963,0.000769805,0.000726307,0.000722339,0.000710361,0.000694287,0.000733753,0.000703058,0.000801533,0.000754921,0.000860707,0.00078464,0.00090697,0.000809028,0.000938871,0.000826188,0.000962518,0.000839726,0.000983007,0.000852182
-0.0900633,-0.0902412,-0.0904454,-0.0906758,-0.0909298,-0.0912029,-0.0914899,-0.0917857,-0.0920862,-0.0923886,-0.0926912,-0.0929929,-0.0932938,-0.0935942,-0.093893,-0.0941741,-0.0943524,-0.0945207,-0.0947287,-0.0949574,-0.0953774,-0.0951626,-0.0957999,-0.0953439,-0.0960135,-0.0954955,-0.0962054,-0.0956318,-0.0964071,-0.0957743,-0.0966729,-0.0959897,-0.0969555,-0.096305,-0.0973601,-0.0966581,-0.0977278,-0.0972838,-0.0983727,-0.097916,-0.0990105,-0.0984233,-0.0995157,-0.0988924,-0.0999339,-0.0992913,-0.100283,-0.0996291,-0.100579,-0.0999166,-0.100834
0.00500922,0.00495092,0.00487704,0.00478767,0.0046846,0.00457121,0.00445174,0.00433039,0.0042108,0.00409573,0.00398701,0.00388555,0.00379132,0.00370314,0.0036183,0.00353295,0.00345389,0.00337096,0.00328843,0.00320647,0.00310491,0.00310973,0.00301418,0.0030578,0.00296248,0.00301514,0.00291808,0.00298027,0.0028771,0.00295276,0.00283385,0.00292865,0.00280187,0.00291319,0.00281318,0.00291451,0.00284358,0.00292116,0.00283575,0.00285599,0.00276563,0.0027838,0.00270921,0.00272767,0.00265943,0.00268321,0.00261658,0.00264385,0.00257665,0.00260571,0.00253693
-0.151201,-0.151127,-0.151068,-0.151031,-0.151019,-0.151035,-0.151081,-0.151154,-0.151254,-0.151377,-0.151524,-0.151692,-0.151882,-0.152098,-0.152347,-0.152635,-0.152912,-0.153151,-0.153372,-0.153603,-0.153921,-0.153897,-0.154235,-0.154054,-0.154407,-0.154184,-0.154555,-0.154288,-0.154689,-0.154362,-0.154828,-0.154409,-0.154934,-0.154438,-0.154967,-0.154464,-0.154954,-0.154538,-0.155134,-0.154858,-0.155478,-0.155208,-0.155758,-0.155502,-0.156026,-0.155763,-0.156277,-0.156012,-0.156521,-0.156257,-0.156764
0.00390621,0.00367392,0.0034199,0.00314364,0.00284545,0.00252601,0.00218583,0.00182481,0.0014421,0.00103617,0.00060475,0.000144549,-0.000349378,-0.000885018,-0.00147499,-0.0021241,-0.00269456,-0.00310514,-0.00341338,-0.00368358,-0.00400325,-0.00395763,-0.00424092,-0.00406017,-0.00433933,-0.00412943,-0.00440754,-0.00416752,-0.00445403,-0.00416976,-0.00448668,-0.00412984,-0.00444557,-0.00399324,-0.00428844,-0.00378645,-0.00398359,-0.00342653,-0.00379899,-0.0032969,-0.00376319,-0.00332401,-0.00373993,-0.00332915,-0.00374829,-0.00334903,-0.00378144,-0.00339586,-0.00383756,-0.00346832,-0.0039136
0.0143551,0.0144183,0.0144829,0.0145452,0.0146003,0.014643,0.0146682,0.0146718,0.0146505,0.0146018,0.0145238,0.0144142,0.0142706,0.0140885,0.0138605,0.0135792,0.0133019,0.0130837,0.0129035,0.0127333,0.0125338,0.0125445,0.0123877,0.0124831,0.0123297,0.0124437,0.0122923,0.0124258,0.0122702,0.0124334,0.0122579,0.0124686,0.0122841,0.0125301,0.0123849,0.0126341,0.0125263,0.0127577,0.0125806,0.0127731,0.0125563,0.0127347,0.0125494,0.0127172,0.012537,0.0127031,0.0125207,0.0126835,0.0124983,0.012656,0.0124695
0.000158537,0.000195838,0.000225243,0.000246385,0.000260181,0.000268936,0.000275985,0.000285082,0.000299865,0.000323571,0.00035897,0.000408473,0.000474381,0.000559318,0.000666841,0.000799218,0.000925468,0.00101197,0.00107242,0.00112334,0.00117896,0.00117449,0.00121065,0.00118217,0.00121429,0.00118184,0.00120849,0.00117248,0.00119185,0.00115051,0.00115811,0.00110911,0.00108731,0.00104175,0.0010014,0.000986046,0.00094619,0.000981966,0.000952485,0.00101941,0.000978151,0.00103409,0.000980369,0.0010319,0.000965128,0.00101663,0.000940204,0.000992647,0.000910094,0.000963533,0.000877176
-0.187463,-0.185869,-0.184106,-0.182179,-0.180106,-0.177915,-0.175636,-0.173294,-0.170908,-0.168485,-0.166027,-0.163522,-0.16095,-0.158275,-0.155445,-0.152471,-0.15006,-0.148375,-0.1471,-0.14593,-0.144354,-0.144787,-0.143123,-0.144262,-0.14263,-0.143945,-0.142334,-0.143858,-0.14223,-0.144083,-0.142357,-0.144699,-0.143182,-0.145927,-0.14456,-0.147398,-0.14674,-0.149859,-0.148429,-0.15114,-0.149414,-0.151558,-0.150136,-0.152111,-0.15071,-0.152604,-0.151156,-0.152974,-0.15149,-0.153222,-0.151725
0.0454051,0.045917,0.046507,0.0471796,0.0479347,0.0487682,0.0496737,0.0506452,0.0516783,0.0527714,0.0539264,0.0551493,0.0564525,0.0578594,0.0594111,0.0611429,0.0627345,0.063973,0.0649612,0.065861,0.0669292,0.066833,0.0677877,0.0672347,0.0681856,0.0675249,0.0684827,0.0677109,0.0687093,0.067778,0.0688973,0.0677149,0.0688781,0.067408,0.068523,0.0670075,0.067928,0.066427,0.0678295,0.0667161,0.0683074,0.0673532,0.0687367,0.06787,0.0691902,0.0683469,0.0696421,0.0688281,0.0701004,0.0693235,0.0705687
-0.0187653,-0.0181986,-0.0175557,-0.0168368,-0.0160484,-0.0152011,-0.0143076,-0.0133788,-0.0124231,-0.0114451,-0.010446,-0.00942331,-0.00836958,-0.00727068,-0.00610334,-0.00486084,-0.0037998,-0.00300286,-0.00237924,-0.00182201,-0.00112061,-0.00124974,-0.000560779,-0.000983832,-0.000310022,-0.000799328,-0.000136616,-0.00069872,-3.24398e-005,-0.000704108,-4.1825e-006,-0.000836399,-0.000217896,-0.00117037,-0.000595883,-0.00154724,-0.0011713,-0.00210784,-0.0014659,-0.00219851,-0.00147443,-0.00207807,-0.00146932,-0.002026,-0.00145095,-0.00198936,-0.00142237,-0.00194147,-0.00137886,-0.00187522,-0.00131895
-0.0613466,-0.0613891,-0.0614415,-0.0615035,-0.0615738,-0.0616501,-0.0617295,-0.0618089,-0.0618856,-0.0619575,-0.0620226,-0.0620795,-0.0621268,-0.062163,-0.0621856,-0.0621899,-0.0621708,-0.0621382,-0.0620951,-0.0620431,-0.0619779,-0.0619712,-0.0619252,-0.0619466,-0.0619029,-0.0619299,-0.061889,-0.0619209,-0.0618816,-0.0619202,-0.0618787,-0.0619259,-0.0618875,-0.061928,-0.0619305,-0.0619412,-0.0619548,-0.0619152,-0.0619472,-0.0618701,-0.0619207,-0.0618465,-0.0619141,-0.061836,-0.0619205,-0.0618402,-0.0619378,-0.0618558,-0.0619627,-0.0618792,-0.0619934
0.00213106,0.00196604,0.0017763,0.00156179,0.0013245,0.00106804,0.000796658,0.000514201,0.000223489,-7.39826e-005,-0.000378157,-0.000690623,-0.00101518,-0.00135914,-0.00173576,-0.00216109,-0.00257478,-0.00295816,-0.00333529,-0.00374161,-0.00428737,-0.00429494,-0.004835,-0.00458726,-0.0051488,-0.00483527,-0.00542213,-0.0050419,-0.00567463,-0.00520166,-0.00593577,-0.00531386,-0.00611688,-0.00531966,-0.0060775,-0.00520282,-0.00578787,-0.00493654,-0.00572999,-0.00511176,-0.00598373,-0.0054517,-0.00620709,-0.00570894,-0.00642699,-0.0059282,-0.00663425,-0.0061408,-0.00683933,-0.00635812,-0.00704818
-0.140915,-0.140956,-0.141007,-0.141071,-0.141146,-0.141229,-0.141319,-0.141412,-0.141507,-0.1416,-0.14169,-0.141778,-0.141863,-0.141947,-0.142032,-0.142125,-0.142216,-0.14229,-0.142333,-0.142352,-0.142361,-0.142315,-0.142351,-0.142302,-0.142335,-0.142284,-0.142314,-0.142263,-0.142287,-0.142237,-0.142251,-0.142199,-0.142184,-0.142081,-0.142083,-0.142011,-0.141973,-0.141875,-0.141899,-0.141846,-0.141876,-0.141838,-0.141849,-0.141823,-0.141834,-0.14181,-0.141825,-0.141801,-0.141819,-0.141795,-0.141816
-0.00779092,-0.00773533,-0.00769154,-0.00766356,-0.00765477,-0.00766734,-0.00770197,-0.00775826,-0.00783529,-0.00793221,-0.0080487,-0.00818547,-0.00834491,-0.00853243,-0.00875909,-0.00904159,-0.0093385,-0.00955843,-0.00968988,-0.0097618,-0.0098078,-0.00965031,-0.00978054,-0.00958414,-0.00970605,-0.00949291,-0.00960013,-0.00937381,-0.00945632,-0.00921648,-0.00925065,-0.00897017,-0.00886637,-0.00831535,-0.00828386,-0.00782169,-0.00757048,-0.0068576,-0.00693043,-0.00637541,-0.0064975,-0.00607882,-0.00608501,-0.00574612,-0.00576205,-0.00544389,-0.00549352,-0.00518239,-0.00526303,-0.00495671,-0.00505994
0.123362,0.123198,0.123014,0.122811,0.122587,0.122344,0.122081,0.121797,0.121493,0.121165,0.120811,0.120425,0.12,0.119524,0.118977,0.118337,0.117733,0.11736,0.117186,0.117121,0.117097,0.117283,0.117168,0.11737,0.117266,0.117471,0.117381,0.117586,0.117515,0.117715,0.11768,0.117891,0.117964,0.118387,0.118387,0.118742,0.118913,0.119503,0.119388,0.119886,0.119716,0.120129,0.120071,0.120399,0.12033,0.120636,0.120535,0.120831,0.120703,0.12099,0.120843
-0.139477,-0.139431,-0.139382,-0.139335,-0.139293,-0.139259,-0.139238,-0.139233,-0.139247,-0.139282,-0.139342,-0.139428,-0.139546,-0.139702,-0.139907,-0.140177,-0.140464,-0.140657,-0.140759,-0.140808,-0.140829,-0.140736,-0.140792,-0.140688,-0.140738,-0.140632,-0.140675,-0.140572,-0.140607,-0.140508,-0.140531,-0.140429,-0.14042,-0.140217,-0.140238,-0.140091,-0.140058,-0.139841,-0.139924,-0.139756,-0.139859,-0.139713,-0.139764,-0.139656,-0.139705,-0.139605,-0.139662,-0.139566,-0.13963,-0.139537,-0.139605
0.0319027,0.0319292,0.031951,0.0319676,0.0319794,0.0319878,0.031995,0.0320036,0.0320161,0.0320353,0.0320634,0.032103,0.032157,0.0322288,0.0323238,0.0324479,0.0325734,0.032648,0.0326819,0.0326954,0.0327003,0.0326701,0.0326841,0.0326507,0.032662,0.0326294,0.0326371,0.0326064,0.0326095,0.0325814,0.0325772,0.0325506,0.0325324,0.0325026,0.0324894,0.0324825,0.032481,0.0325166,0.0325083,0.0325555,0.0325403,0.0325817,0.0325755,0.0326104,0.0326,0.0326348,0.0326176,0.0326537,0.0326308,0.0326681,0.0326411
0.00459189,0.00575621,0.00706129,0.00850717,0.0100838,0.0117736,0.0135571,0.0154184,0.017348,0.0193448,0.0214165,0.0235819,0.0258754,0.0283568,0.0311273,0.0342844,0.0371798,0.038882,0.039537,0.0396271,0.0395072,0.0383318,0.0389066,0.0377328,0.038246,0.0370669,0.0375041,0.0363316,0.036663,0.0355072,0.0356533,0.0344262,0.0340921,0.0317898,0.0319006,0.0302003,0.0295995,0.026917,0.0276734,0.0256901,0.0266043,0.0250837,0.0254628,0.024355,0.0247379,0.0237419,0.024218,0.0232688,0.0238224,0.0229102,0.0235085
-0.05169,-0.0513194,-0.0508874,-0.0503896,-0.0498248,-0.0491946,-0.048502,-0.0477496,-0.0469379,-0.0460647,-0.0451237,-0.0441034,-0.042984,-0.04173,-0.0402786,-0.0385487,-0.0368383,-0.0357195,-0.0351749,-0.0349611,-0.03491,-0.0354821,-0.0351572,-0.0357694,-0.0354805,-0.0361049,-0.0358617,-0.03648,-0.0363012,-0.0368911,-0.0368247,-0.0374361,-0.0376475,-0.0390254,-0.0389947,-0.0400146,-0.0404372,-0.0421599,-0.0416826,-0.0429273,-0.042328,-0.0432889,-0.0430651,-0.0437494,-0.0435271,-0.0441375,-0.0438512,-0.0444304,-0.0440889,-0.0446439,-0.0442693
0.058548,0.0589597,0.0594318,0.0599651,0.0605563,0.0611987,0.0618843,0.0626064,0.0633605,0.0641454,0.0649634,0.065821,0.0667307,0.0677154,0.0688153,0.0700752,0.0712619,0.0720169,0.0723674,0.0724854,0.0725167,0.0720997,0.072358,0.0719206,0.0721505,0.071709,0.0719038,0.0714653,0.0716113,0.0711817,0.0712428,0.0707902,0.0706319,0.0697863,0.0697822,0.0691428,0.0688504,0.0678634,0.0680588,0.0673115,0.0675665,0.0669971,0.067076,0.0666456,0.0667298,0.0663419,0.0664623,0.0660946,0.0662462,0.0658947,0.066066
0.119988,0.119956,0.119917,0.119871,0.119818,0.11976,0.119699,0.119638,0.119577,0.119519,0.119466,0.119418,0.119376,0.119342,0.119318,0.11931,0.119323,0.119347,0.119371,0.11939,0.119404,0.119384,0.119402,0.119376,0.119391,0.119365,0.119377,0.119351,0.11936,0.119335,0.119339,0.119314,0.119307,0.119276,0.119268,0.119262,0.119255,0.119296,0.119285,0.119349,0.11933,0.11939,0.119377,0.119432,0.119413,0.119466,0.11944,0.119493,0.119459,0.119514,0.119475
-0.0572372,-0.057355,-0.0574919,-0.0576482,-0.0578229,-0.0580139,-0.0582185,-0.0584343,-0.0586599,-0.0588947,-0.0591398,-0.0593977,-0.0596734,-0.0599763,-0.0603237,-0.0607413,-0.0611736,-0.061499,-0.0616938,-0.0617974,-0.0618611,-0.0616162,-0.0618168,-0.061518,-0.0617069,-0.0613856,-0.0615539,-0.0612176,-0.0613504,-0.0610035,-0.0610641,-0.060668,-0.06051,-0.0596601,-0.0596036,-0.0588879,-0.0584469,-0.0572845,-0.0573847,-0.0564823,-0.0566682,-0.0559935,-0.055986,-0.0554558,-0.0554657,-0.0549769,-0.0550414,-0.0545709,-0.0546832,-0.0542279,-0.0543729
0.047122,0.0470916,0.047053,0.0470059,0.0469515,0.0468916,0.0468288,0.0467657,0.0467045,0.0466472,0.0465948,0.0465482,0.0465078,0.0464738,0.0464469,0.0464298,0.0464263,0.0463963,0.0463505,0.0463246,0.046285,0.0463433,0.0462598,0.0463331,0.0462558,0.0463307,0.0462623,0.046335,0.0462834,0.0463458,0.0463373,0.0463761,0.0465008,0.0465556,0.0466357,0.0466925,0.0468523,0.0469151,0.0469828,0.0470181,0.0470614,0.0470982,0.0471226,0.0471591,0.0471669,0.0472062,0.0472016,0.0472435,0.0472293,0.047274,0.0472522
-0.100363,-0.100325,-0.100294,-0.100271,-0.100259,-0.100262,-0.100279,-0.100311,-0.100355,-0.100411,-0.100477,-0.100551,-0.100631,-0.100714,-0.100796,-0.100861,-0.100884,-0.100971,-0.101096,-0.101166,-0.101288,-0.101052,-0.101352,-0.101024,-0.101318,-0.10097,-0.101246,-0.100899,-0.101126,-0.10082,-0.100901,-0.100714,-0.100312,-0.100126,-0.0999689,-0.0997671,-0.0993689,-0.0992335,-0.099132,-0.0990374,-0.09901,-0.0987916,-0.098884,-0.0986289,-0.0987949,-0.0985082,-0.0987235,-0.0984132,-0.0986652,-0.0983333,-0.0986151
-0.0383579,-0.0385082,-0.038667,-0.0388344,-0.0390103,-0.0391939,-0.0393849,-0.0395829,-0.0397874,-0.0399981,-0.0402146,-0.040436,-0.0406608,-0.0408858,-0.041103,-0.0412897,-0.0413986,-0.041583,-0.0417773,-0.0418687,-0.0419824,-0.041759,-0.0419854,-0.0417056,-0.0419103,-0.0416267,-0.0418009,-0.0415295,-0.0416486,-0.0414215,-0.0414068,-0.0412761,-0.04086,-0.0406584,-0.0403973,-0.0401606,-0.0396129,-0.0392769,-0.0389865,-0.0386357,-0.0384286,-0.038041,-0.037948,-0.0375434,-0.0375467,-0.0371344,-0.0372111,-0.036795,-0.0369254,-0.0365046,-0.0366741
-0.0215601,-0.0215236,-0.0214872,-0.0214528,-0.0214233,-0.0214017,-0.0213908,-0.0213925,-0.021408,-0.0214378,-0.0214818,-0.0215394,-0.0216094,-0.02169,-0.0217776,-0.021863,-0.0219249,-0.0220307,-0.0221529,-0.0222293,-0.0223206,-0.0222149,-0.022344,-0.0221957,-0.0223137,-0.0221617,-0.0222647,-0.0221178,-0.0221956,-0.0220697,-0.0220869,-0.0220099,-0.0218372,-0.021749,-0.0216639,-0.0215704,-0.021397,-0.021317,-0.0212601,-0.0211889,-0.0211618,-0.0210477,-0.0210676,-0.0209395,-0.0209895,-0.0208512,-0.0209225,-0.020778,-0.0208648,-0.0207149,-0.0208135
0.0198631,0.0198843,0.0199009,0.0199127,0.0199201,0.0199246,0.0199281,0.0199326,0.0199402,0.0199523,0.01997,0.0199939,0.0200242,0.0200601,0.0200997,0.0201371,0.0201599,0.0201969,0.0202341,0.020252,0.0202743,0.0202355,0.0202686,0.0202185,0.0202461,0.0201973,0.0202172,0.0201732,0.0201815,0.0201469,0.0201347,0.0201142,0.0200627,0.020039,0.020013,0.0200035,0.0200132,0.0200348,0.0200723,0.0201155,0.0201516,0.0201963,0.020213,0.0202606,0.0202591,0.0203113,0.0202948,0.0203517,0.0203236,0.0203851,0.020348
-0.0150936,-0.0142646,-0.0133394,-0.0123193,-0.0112149,-0.0100446,-0.00883139,-0.00759761,-0.00636267,-0.00514194,-0.00394741,-0.00278961,-0.00168162,-0.000648298,0.000248752,0.000838004,0.000877781,0.00154134,0.00244778,0.00281975,0.00347066,0.00205625,0.00362035,0.00189349,0.00332392,0.00158574,0.00282729,0.00116882,0.00206824,0.000675204,0.000750109,-4.95467e-005,-0.00239968,-0.00341196,-0.00485481,-0.00605316,-0.00912954,-0.010779,-0.0124818,-0.0141489,-0.0153816,-0.017137,-0.0178047,-0.0196192,-0.0198175,-0.0216453,-0.0214917,-0.0233142,-0.0229078,-0.0247237,-0.0241371
0.0135849,0.0138491,0.0141582,0.0145149,0.0149188,0.0153657,0.0158492,0.0163621,0.0168972,0.017448,0.0180087,0.0185734,0.0191351,0.0196811,0.0201833,0.0205647,0.0207054,0.0211735,0.0217646,0.0220571,0.0224805,0.0217108,0.0226031,0.0216116,0.0224416,0.021423,0.0221575,0.0211686,0.021716,0.0208703,0.0209354,0.0204387,0.0190218,0.0184303,0.0176609,0.0169869,0.0153557,0.0146554,0.0139554,0.0133572,0.0129329,0.0120777,0.0120301,0.0110825,0.0112974,0.0102912,0.0106886,0.00965156,0.0101769,0.00911776,0.00973512
-0.0303799,-0.0300668,-0.02971,-0.0293097,-0.0288701,-0.0283989,-0.0279055,-0.0273993,-0.0268885,-0.0263794,-0.025877,-0.0253855,-0.0249095,-0.0244573,-0.0240483,-0.0237388,-0.0236224,-0.0232837,-0.0228654,-0.0226544,-0.022342,-0.0228472,-0.0222266,-0.0228701,-0.0223009,-0.0229513,-0.0224531,-0.0230763,-0.0227034,-0.0232347,-0.0231562,-0.0234843,-0.0242524,-0.0246342,-0.0250437,-0.0254593,-0.0263237,-0.0267586,-0.0271115,-0.0274679,-0.0276657,-0.0281098,-0.0281386,-0.0286158,-0.0285226,-0.029018,-0.0288392,-0.0293417,-0.0291028,-0.0296093,-0.0293276
0.148014,0.14799,0.14796,0.147925,0.147885,0.147842,0.147797,0.147753,0.147711,0.147674,0.147641,0.147613,0.147593,0.147579,0.147572,0.147575,0.147584,0.147601,0.147628,0.147653,0.147685,0.147659,0.1477,0.147658,0.147695,0.147653,0.147684,0.147645,0.147668,0.147637,0.147644,0.147627,0.147586,0.14757,0.147554,0.14755,0.147544,0.147563,0.147583,0.147622,0.147639,0.14769,0.147688,0.147751,0.14773,0.147802,0.147764,0.147844,0.147792,0.147879,0.147816
-0.164438,-0.164524,-0.164625,-0.164742,-0.164873,-0.165016,-0.165168,-0.165325,-0.165485,-0.165646,-0.165805,-0.165962,-0.166114,-0.166262,-0.166399,-0.166509,-0.16656,-0.166714,-0.166934,-0.167075,-0.167299,-0.166962,-0.16744,-0.166958,-0.167427,-0.166914,-0.167352,-0.166842,-0.167201,-0.166762,-0.166884,-0.166634,-0.165956,-0.165656,-0.165328,-0.164972,-0.164158,-0.16382,-0.163521,-0.163247,-0.163099,-0.162671,-0.162724,-0.162247,-0.162431,-0.161917,-0.162191,-0.161655,-0.161992,-0.161438,-0.161822
-0.0761289,-0.0761789,-0.076242,-0.0763179,-0.076405,-0.0765,-0.076599,-0.0766979,-0.0767933,-0.0768825,-0.0769638,-0.077036,-0.0770987,-0.0771519,-0.0771952,-0.0772261,-0.0772388,-0.0772818,-0.0773542,-0.0774282,-0.0775421,-0.0775269,-0.0776576,-0.0776001,-0.0777296,-0.0776655,-0.0777938,-0.0777257,-0.0778516,-0.0777824,-0.0778985,-0.0778348,-0.0778794,-0.0778175,-0.0778614,-0.0777895,-0.0777752,-0.0777479,-0.0777765,-0.077799,-0.0778432,-0.0778436,-0.0778966,-0.0778863,-0.0779444,-0.0779239,-0.0779865,-0.0779599,-0.0780271,-0.077997,-0.078069
-0.00329399,-0.00323262,-0.00318295,-0.00314976,-0.00313721,-0.00314784,-0.00318229,-0.00323948,-0.00331729,-0.00341315,-0.00352437,-0.00364841,-0.00378273,-0.00392437,-0.00406815,-0.00419835,-0.00427189,-0.00439801,-0.00458995,-0.00479364,-0.00514852,-0.00507175,-0.00553957,-0.00528374,-0.00577282,-0.00548398,-0.00598969,-0.00568278,-0.00619974,-0.00589503,-0.00639931,-0.00614037,-0.0064297,-0.00625894,-0.00669446,-0.00645568,-0.0068083,-0.00692442,-0.00740843,-0.00766394,-0.00818253,-0.00819032,-0.00879173,-0.00872376,-0.00934794,-0.00922414,-0.00985373,-0.00969851,-0.0103307,-0.0101539,-0.0107908
-0.0622336,-0.0624606,-0.0627017,-0.062957,-0.063226,-0.063508,-0.0638023,-0.0641087,-0.0644271,-0.0647573,-0.065099,-0.0654515,-0.0658132,-0.0661811,-0.0665475,-0.0668851,-0.0671068,-0.0673668,-0.067662,-0.0679227,-0.0682865,-0.0682166,-0.068584,-0.0683676,-0.0687283,-0.0684957,-0.0688487,-0.0686143,-0.0689559,-0.0687397,-0.0690511,-0.0688822,-0.0690122,-0.0688357,-0.0690404,-0.0687929,-0.0688779,-0.0687863,-0.0690461,-0.069067,-0.0694213,-0.0692989,-0.0697462,-0.0695801,-0.0700804,-0.0698889,-0.0704172,-0.0702176,-0.0707592,-0.070556,-0.0711039
-0.102245,-0.102188,-0.102131,-0.102077,-0.102031,-0.101997,-0.10198,-0.101982,-0.102006,-0.102053,-0.102123,-0.102215,-0.102328,-0.102461,-0.10261,-0.102764,-0.102884,-0.103034,-0.103215,-0.103392,-0.103632,-0.103617,-0.103828,-0.103716,-0.103922,-0.103797,-0.103999,-0.103868,-0.104066,-0.103937,-0.104126,-0.10401,-0.104115,-0.104012,-0.104123,-0.103992,-0.104062,-0.104041,-0.104179,-0.104214,-0.104391,-0.10435,-0.104557,-0.104487,-0.104707,-0.104619,-0.104845,-0.10475,-0.104981,-0.104882,-0.105115
0.0304074,0.0304412,0.0304671,0.0304849,0.0304956,0.0305015,0.0305057,0.0305119,0.030523,0.0305419,0.0305702,0.0306091,0.0306589,0.0307194,0.0307885,0.03086,0.0309123,0.0309677,0.0310245,0.0310726,0.0311367,0.0311264,0.0311767,0.0311395,0.0311843,0.0311455,0.031182,0.031144,0.0311682,0.0311327,0.031135,0.0311027,0.0310558,0.031019,0.030967,0.0309502,0.0309107,0.0309229,0.0309132,0.0309486,0.0309302,0.0309648,0.030913,0.0309462,0.0308706,0.0309056,0.0308149,0.0308521,0.030752,0.0307919,0.0306854
-0.262135,-0.260802,-0.259332,-0.257728,-0.256008,-0.254201,-0.252339,-0.250451,-0.248563,-0.246693,-0.244857,-0.243067,-0.241335,-0.23969,-0.238199,-0.237082,-0.23679,-0.236024,-0.234794,-0.233643,-0.231666,-0.23227,-0.229868,-0.231304,-0.228959,-0.230516,-0.228255,-0.22989,-0.227771,-0.229435,-0.227674,-0.229217,-0.229053,-0.230469,-0.229964,-0.231874,-0.232617,-0.234,-0.2338,-0.234781,-0.234142,-0.235433,-0.234399,-0.2359,-0.234586,-0.236179,-0.23467,-0.236275,-0.234638,-0.236226,-0.234506
0.0436213,0.0440518,0.0445479,0.0451129,0.0457458,0.0464408,0.0471894,0.0479822,0.0488103,0.0496661,0.0505428,0.0514338,0.0523317,0.0532244,0.0540845,0.0548245,0.0552282,0.0558811,0.056757,0.0575716,0.0588067,0.0585606,0.0599386,0.0591683,0.0605385,0.0596897,0.0610413,0.0601527,0.0614605,0.060582,0.0617381,0.0609744,0.0612897,0.0606324,0.061253,0.0603162,0.0604394,0.0601836,0.0609175,0.0610858,0.0620799,0.0617601,0.0630225,0.062502,0.0638847,0.0632427,0.0646825,0.0639911,0.0654572,0.0647446,0.0662223
-0.128043,-0.127554,-0.127,-0.126384,-0.12571,-0.124992,-0.124241,-0.123472,-0.122694,-0.121917,-0.121146,-0.120388,-0.119647,-0.118934,-0.11827,-0.117729,-0.117485,-0.117077,-0.116515,-0.115999,-0.115177,-0.115387,-0.114431,-0.114976,-0.114041,-0.114631,-0.113726,-0.114341,-0.113485,-0.114104,-0.113369,-0.113937,-0.113748,-0.114233,-0.11389,-0.114504,-0.11447,-0.11473,-0.114363,-0.1144,-0.113911,-0.114154,-0.11356,-0.113895,-0.113256,-0.113644,-0.112983,-0.11339,-0.112719,-0.113131,-0.112454
-0.0250569,-0.0250938,-0.0251392,-0.0251929,-0.0252535,-0.0253189,-0.0253861,-0.0254525,-0.0255154,-0.0255727,-0.0256228,-0.0256645,-0.0256967,-0.0257183,-0.025728,-0.0257238,-0.0257069,-0.0256804,-0.0256383,-0.0255871,-0.0255124,-0.0255104,-0.0254474,-0.0254775,-0.0254172,-0.0254511,-0.025395,-0.0254302,-0.0253789,-0.0254137,-0.0253686,-0.0254,-0.0253842,-0.0254096,-0.0254168,-0.0254255,-0.025439,-0.0254246,-0.0254416,-0.025411,-0.0254431,-0.0254005,-0.0254684,-0.0254147,-0.0255102,-0.025449,-0.0255637,-0.0254973,-0.0256257,-0.0255545,-0.0256943
-0.0614327,-0.061573,-0.0617352,-0.0619192,-0.062123,-0.062343,-0.0625747,-0.0628135,-0.0630557,-0.0632987,-0.0635404,-0.0637799,-0.0640164,-0.0642491,-0.0644749,-0.0646786,-0.0648117,-0.0650491,-0.0654092,-0.0658021,-0.0664326,-0.0663794,-0.0671268,-0.0667793,-0.0675565,-0.0671579,-0.0679594,-0.0675378,-0.0683572,-0.067952,-0.0687548,-0.0684356,-0.0688904,-0.0686461,-0.0692747,-0.068874,-0.0692696,-0.0693353,-0.0699717,-0.0702836,-0.0710177,-0.0709829,-0.0718491,-0.071695,-0.072599,-0.072361,-0.0732723,-0.072992,-0.0739016,-0.0735969,-0.0745036
0.016967,0.0169068,0.0168313,0.0167409,0.0166379,0.0165261,0.0164104,0.0162954,0.0161851,0.0160827,0.0159903,0.0159092,0.0158401,0.0157836,0.0157409,0.0157186,0.015735,0.0157626,0.0157903,0.0158213,0.015818,0.0158999,0.0158065,0.0158974,0.015801,0.0158954,0.015794,0.0158945,0.0157843,0.0158953,0.0157694,0.0158909,0.0157723,0.0158806,0.0157717,0.0158744,0.0157915,0.0158472,0.0157612,0.0157693,0.0156799,0.0156986,0.0156128,0.0156377,0.0155561,0.0155891,0.0155087,0.015547,0.0154656,0.0155071,0.0154234
-0.0259327,-0.0258597,-0.0258027,-0.0257668,-0.0257565,-0.0257741,-0.0258195,-0.0258909,-0.0259853,-0.0260993,-0.0262295,-0.0263722,-0.0265238,-0.0266794,-0.0268294,-0.0269437,-0.0269343,-0.0268542,-0.0267505,-0.0266238,-0.0266071,-0.0262784,-0.0266106,-0.0262195,-0.0265783,-0.0261627,-0.0265501,-0.0261021,-0.0265275,-0.0260291,-0.0265119,-0.02596,-0.0264136,-0.025939,-0.0264909,-0.0259647,-0.0264743,-0.0261457,-0.0267035,-0.0263637,-0.0269342,-0.0265305,-0.0271173,-0.0266839,-0.0272679,-0.0268213,-0.0274031,-0.0269504,-0.0275321,-0.0270756,-0.0276597
-0.0725271,-0.0727777,-0.0730458,-0.0733313,-0.0736334,-0.0739511,-0.0742832,-0.074629,-0.074988,-0.0753595,-0.0757422,-0.0761338,-0.0765302,-0.0769233,-0.0772937,-0.077579,-0.0776039,-0.0774788,-0.0773145,-0.0771299,-0.077063,-0.0767133,-0.0769635,-0.0765983,-0.0768541,-0.0764876,-0.0767525,-0.0763784,-0.0766613,-0.0762699,-0.0765885,-0.0761788,-0.0764833,-0.076096,-0.0764684,-0.0760382,-0.0763929,-0.076041,-0.0764992,-0.0760863,-0.0766138,-0.076158,-0.0767239,-0.0762664,-0.0768501,-0.0764064,-0.0769957,-0.0765679,-0.0771546,-0.0767402,-0.0773208
-0.0353646,-0.0353005,-0.0352359,-0.0351748,-0.0351221,-0.0350831,-0.0350623,-0.0350635,-0.0350888,-0.0351393,-0.035215,-0.035315,-0.0354372,-0.0355776,-0.0357276,-0.0358593,-0.035887,-0.0358452,-0.0357819,-0.0357049,-0.035693,-0.0355075,-0.0356531,-0.0354473,-0.0355938,-0.0353833,-0.0355318,-0.0353104,-0.0354654,-0.0352212,-0.0353923,-0.0351182,-0.0352667,-0.0350181,-0.0351613,-0.0348975,-0.0350114,-0.0348061,-0.0349692,-0.0347414,-0.0349379,-0.0346934,-0.0348941,-0.0346427,-0.034847,-0.0345965,-0.0348056,-0.0345589,-0.0347719,-0.0345296,-0.0347451
0.0365889,0.036628,0.0366579,0.0366782,0.0366903,0.0366968,0.0367016,0.0367084,0.0367211,0.0367425,0.0367746,0.0368185,0.0368743,0.0369406,0.0370134,0.0370796,0.0370994,0.0370861,0.0370625,0.0370339,0.0370253,0.0369674,0.0369996,0.0369383,0.0369673,0.036908,0.0369315,0.0368734,0.0368884,0.0368293,0.036828,0.0367671,0.0367234,0.0366703,0.0366094,0.036589,0.0365277,0.0365544,0.0365229,0.0365977,0.0365587,0.0366259,0.0365557,0.0366193,0.036528,0.0365909,0.0364872,0.0365511,0.0364408,0.0365066,0.0363925
0.0734744,0.0750653,0.076811,0.0787034,0.0807193,0.082825,0.0849828,0.0871581,0.0893223,0.0914522,0.0935285,0.0955315,0.0974341,0.0991852,0.100656,0.101441,0.1006,0.0990838,0.0975365,0.0959943,0.0953205,0.0930708,0.0946725,0.0923927,0.0940187,0.0916985,0.0933499,0.0908997,0.0925898,0.0898689,0.0915927,0.0885633,0.0896483,0.0869045,0.0882829,0.0852877,0.0859786,0.0831947,0.084444,0.0814228,0.0829414,0.0802195,0.0818554,0.0791702,0.0809037,0.0783255,0.0801372,0.0776643,0.0795204,0.077147,0.0790211
-0.00190043,-0.00139035,-0.000807972,-0.000150287,0.000580603,0.00137786,0.00223179,0.0031319,0.00406826,0.00503167,0.00601316,0.00700269,0.00798658,0.00894096,0.00981001,0.0104175,0.0102977,0.00980916,0.00923765,0.00860438,0.00836304,0.00719114,0.00808741,0.00684559,0.00776911,0.00649377,0.00745025,0.00610585,0.00711237,0.00563742,0.00671354,0.00509069,0.00590186,0.00441405,0.00544913,0.00378299,0.00457947,0.00320258,0.00435912,0.00290328,0.00423849,0.00278747,0.00419469,0.00271996,0.00414927,0.00270534,0.00414282,0.0027426,0.00417567,0.00282025,0.00424179
0.241741,0.242308,0.242947,0.243655,0.244424,0.245241,0.24609,0.246958,0.247831,0.2487,0.249557,0.250391,0.251194,0.251946,0.252601,0.253017,0.252838,0.252392,0.251911,0.251407,0.251223,0.250384,0.25104,0.250171,0.250834,0.249951,0.25062,0.249692,0.250371,0.249348,0.250031,0.248901,0.249327,0.248328,0.248873,0.247817,0.248156,0.247276,0.24783,0.24694,0.247572,0.246738,0.24738,0.246545,0.247187,0.246373,0.247018,0.246231,0.246877,0.246117,0.246761
-0.011687,-0.0117293,-0.0117811,-0.0118422,-0.0119108,-0.0119845,-0.0120601,-0.0121344,-0.0122045,-0.012268,-0.0123231,-0.0123684,-0.0124026,-0.0124244,-0.0124324,-0.0124245,-0.0124056,-0.0123903,-0.0123812,-0.0123787,-0.0123622,-0.0124017,-0.0123559,-0.0124078,-0.0123633,-0.0124166,-0.0123742,-0.0124295,-0.0123888,-0.0124485,-0.0124074,-0.0124708,-0.0124432,-0.0124881,-0.0124952,-0.0125083,-0.0125252,-0.0124862,-0.0125109,-0.0124133,-0.0124524,-0.0123493,-0.0124184,-0.0123002,-0.0123931,-0.0122689,-0.0123788,-0.0122502,-0.0123721,-0.0122391,-0.0123707
0.178161,0.177993,0.177802,0.177588,0.177354,0.177104,0.176843,0.176576,0.176307,0.176039,0.175775,0.175515,0.175262,0.175019,0.174794,0.174623,0.174616,0.174684,0.174763,0.174858,0.174777,0.175193,0.174651,0.175188,0.174607,0.175182,0.174555,0.175175,0.174482,0.175165,0.174364,0.175114,0.174323,0.175,0.174101,0.174909,0.174129,0.174686,0.173835,0.174374,0.173476,0.174089,0.173166,0.173815,0.172905,0.173567,0.172674,0.173336,0.172457,0.173113,0.172248
0.00232021,0.00226428,0.00219329,0.00210735,0.00200831,0.00189955,0.00178528,0.00166977,0.00155671,0.00144901,0.00134874,0.00125717,0.00117491,0.00110193,0.00103816,0.000986659,0.000967346,0.000981179,0.0010189,0.00106503,0.00108823,0.00116434,0.0010978,0.00117002,0.00109778,0.00116893,0.00108859,0.00116063,0.0010665,0.00114209,0.00101969,0.00110217,0.000938427,0.0010296,0.000881978,0.000951447,0.000808781,0.000856361,0.000737137,0.000755034,0.000647651,0.000673282,0.000584328,0.000607314,0.000529079,0.000555365,0.000482557,0.000511734,0.000441166,0.00047231,0.000402047
0.0976866,0.0977568,0.0978117,0.0978463,0.0978562,0.0978393,0.0977953,0.0977256,0.0976325,0.0975188,0.097387,0.0972392,0.0970772,0.0969029,0.0967196,0.0965454,0.0964704,0.0965224,0.0966556,0.0968235,0.0969212,0.0972197,0.0969858,0.0972965,0.0970356,0.0973563,0.0970663,0.0974081,0.0970771,0.0974632,0.0970568,0.0975234,0.0970423,0.0975935,0.0971039,0.0976568,0.0972669,0.0978893,0.0974521,0.0981361,0.0977143,0.0983316,0.0979928,0.0985767,0.0982559,0.0988213,0.0984963,0.0990532,0.0987187,0.0992698,0.0989258
0.032919,0.0326973,0.0324543,0.0321897,0.031904,0.0315986,0.0312744,0.030932,0.0305718,0.0301937,0.0297977,0.029384,0.0289533,0.028508,0.0280569,0.0276442,0.0274658,0.0275514,0.0277622,0.0280017,0.0281497,0.0284766,0.0282913,0.0285922,0.0283924,0.028683,0.0284642,0.0287522,0.0285012,0.0287972,0.0284774,0.0288004,0.0283758,0.0287626,0.0283093,0.0286732,0.0282067,0.0286178,0.0280768,0.0285823,0.0280257,0.0285467,0.0280556,0.0285291,0.0280583,0.0285035,0.0280427,0.0284703,0.0280184,0.0284323,0.0279891
0.143076,0.143134,0.143195,0.143253,0.143306,0.143346,0.143371,0.143375,0.143357,0.143314,0.143246,0.143151,0.14303,0.142884,0.142716,0.142545,0.142463,0.142504,0.142611,0.142738,0.142816,0.143,0.142898,0.143072,0.142963,0.143135,0.143019,0.143196,0.143067,0.143262,0.143104,0.143335,0.143143,0.143397,0.143224,0.143462,0.143315,0.143565,0.143384,0.143677,0.143485,0.143771,0.143617,0.143884,0.143738,0.143994,0.143847,0.144096,0.143948,0.144192,0.144041
0.0090594,0.00909515,0.00912351,0.00914405,0.00915761,0.00916635,0.0091734,0.0091823,0.0091964,0.0092186,0.00925117,0.00929577,0.00935342,0.00942442,0.00950749,0.00959387,0.00964011,0.00963154,0.00959828,0.00955981,0.00953723,0.00948326,0.00950699,0.009457,0.00948005,0.0094337,0.00945482,0.009411,0.00942869,0.00938556,0.00939639,0.00935169,0.00934128,0.00930185,0.00926574,0.00925284,0.00920115,0.009227,0.00917746,0.00923923,0.00918315,0.00924302,0.00917552,0.00923099,0.00915367,0.00920857,0.00912529,0.00918136,0.00909505,0.00915287,0.00906498
-0.00170862,-0.000191834,0.0014943,0.00334455,0.0053393,0.00744841,0.00963831,0.0118785,0.0141448,0.0164196,0.0186901,0.0209468,0.0231796,0.0253694,0.0274531,0.0291481,0.0294041,0.0282618,0.0265176,0.0247097,0.023545,0.0214766,0.0225838,0.0207502,0.0219491,0.0201629,0.021471,0.0196505,0.0211298,0.0191556,0.020976,0.0187165,0.0209435,0.0184995,0.0208661,0.0186811,0.0209879,0.0187248,0.0212682,0.0187837,0.0212343,0.0189188,0.0210177,0.0189705,0.0209244,0.0190351,0.0209047,0.0191144,0.0209147,0.0192029,0.0209409
0.0220538,0.0225324,0.0230846,0.0237142,0.0244201,0.0251973,0.026038,0.0269343,0.0278791,0.0288672,0.0298942,0.0309568,0.0320518,0.0331732,0.0343005,0.0353217,0.0357256,0.035398,0.0346858,0.0338722,0.0333196,0.0322376,0.0328274,0.0318413,0.0324842,0.0315146,0.0322214,0.0312331,0.0320401,0.0309771,0.0319844,0.0307622,0.0320136,0.0305529,0.0318643,0.0305,0.0317219,0.0301508,0.0315884,0.0298351,0.031263,0.0296456,0.030823,0.0293728,0.0304673,0.0291199,0.0301816,0.0289008,0.02994,0.0287131,0.0297311
-0.0769338,-0.0764037,-0.0758005,-0.0751249,-0.0743838,-0.0735885,-0.0727524,-0.071888,-0.0710055,-0.0701125,-0.0692147,-0.0683165,-0.0674219,-0.0665378,-0.0656854,-0.0649626,-0.0647593,-0.0650813,-0.0656492,-0.0662637,-0.0666433,-0.0674118,-0.0669521,-0.0676491,-0.0671621,-0.0678442,-0.067327,-0.0680251,-0.0674618,-0.0682229,-0.0675707,-0.0684478,-0.0677535,-0.0687107,-0.0679968,-0.0688818,-0.0683077,-0.0692753,-0.0685843,-0.0696325,-0.0689646,-0.0698917,-0.0693577,-0.0701943,-0.0697045,-0.0704819,-0.0700057,-0.0707442,-0.0702741,-0.0709807,-0.0705158
-0.0728731,-0.0729126,-0.0729614,-0.0730193,-0.073085,-0.0731561,-0.0732299,-0.0733035,-0.0733741,-0.0734396,-0.0734982,-0.0735482,-0.0735885,-0.0736176,-0.0736337,-0.0736341,-0.0736212,-0.0736125,-0.0736164,-0.0736306,-0.0736369,-0.0736787,-0.0736474,-0.073691,-0.0736593,-0.0737019,-0.0736701,-0.0737131,-0.0736804,-0.0737264,-0.0736885,-0.0737391,-0.0736984,-0.0737371,-0.073734,-0.0737429,-0.073754,-0.0737115,-0.0737447,-0.0736475,-0.0736925,-0.0735893,-0.0736448,-0.0735318,-0.0735993,-0.0734821,-0.0735595,-0.0734383,-0.0735235,-0.0733983,-0.0734899
0.109469,0.109312,0.109132,0.10893,0.108706,0.108465,0.108211,0.107949,0.107681,0.10741,0.107137,0.106863,0.106587,0.106308,0.106028,0.105766,0.10564,0.105685,0.105842,0.106043,0.106134,0.106539,0.106164,0.106598,0.106178,0.106622,0.106149,0.106612,0.10606,0.106563,0.105854,0.106442,0.10551,0.10624,0.105295,0.106018,0.105155,0.105948,0.105065,0.105913,0.105071,0.105873,0.105175,0.10591,0.105267,0.105971,0.105352,0.106038,0.105433,0.106102,0.105508
0.0145785,0.0145372,0.0144832,0.014416,0.0143364,0.0142466,0.0141493,0.0140477,0.0139445,0.0138419,0.0137416,0.0136446,0.0135512,0.0134603,0.013369,0.0132723,0.0131801,0.0131116,0.0130714,0.0130435,0.0130077,0.0130235,0.0129657,0.0129896,0.0129276,0.012948,0.0128801,0.0128935,0.0128154,0.0128158,0.0127149,0.0127031,0.0125487,0.0125781,0.0124299,0.0124229,0.012262,0.0122583,0.0121268,0.0121159,0.01201,0.01202,0.011942,0.0119441,0.0118806,0.0118828,0.0118283,0.011832,0.0117829,0.0117886,0.0117429
0.106887,0.106944,0.10699,0.10702,0.107032,0.107022,0.106989,0.106933,0.106856,0.106758,0.10664,0.1065,0.106339,0.106151,0.105928,0.105659,0.105395,0.105219,0.105121,0.105047,0.104938,0.105001,0.1048,0.104911,0.104691,0.104803,0.104565,0.10467,0.104408,0.104497,0.104186,0.104287,0.103878,0.104222,0.10382,0.104056,0.103732,0.104142,0.103731,0.104118,0.103774,0.104169,0.103981,0.104313,0.104164,0.104486,0.104344,0.104673,0.10453,0.104868,0.104723
-0.0571905,-0.0573552,-0.0575434,-0.0577558,-0.0579923,-0.0582522,-0.0585348,-0.05884,-0.0591684,-0.0595217,-0.0599023,-0.0603142,-0.060763,-0.0612587,-0.0618177,-0.0624532,-0.0630261,-0.0633586,-0.0635185,-0.0636178,-0.0637412,-0.0636745,-0.0638599,-0.0637576,-0.0639554,-0.0638641,-0.0640784,-0.0640098,-0.0642517,-0.0642253,-0.0645306,-0.0645393,-0.0649998,-0.0648351,-0.0653196,-0.0652867,-0.065844,-0.0657585,-0.0664015,-0.0663641,-0.0669557,-0.0667814,-0.0672196,-0.0671076,-0.0674847,-0.0673726,-0.067713,-0.0675869,-0.0679007,-0.0677586,-0.0680518
-0.0139456,-0.0138998,-0.013851,-0.013802,-0.0137564,-0.0137183,-0.0136921,-0.0136815,-0.0136897,-0.0137197,-0.0137742,-0.013856,-0.0139688,-0.0141178,-0.0143117,-0.0145593,-0.0148023,-0.0149451,-0.0150106,-0.0150502,-0.015105,-0.0150629,-0.0151554,-0.0150958,-0.0151949,-0.0151404,-0.0152476,-0.0152025,-0.0153236,-0.0152943,-0.0154487,-0.0154264,-0.0156623,-0.0155566,-0.0157802,-0.0157406,-0.015983,-0.0159181,-0.0161723,-0.0161183,-0.0163525,-0.0162516,-0.0164147,-0.0163429,-0.0164799,-0.0164098,-0.0165327,-0.0164573,-0.0165707,-0.0164886,-0.0165949
-0.0687388,-0.0687116,-0.0686885,-0.06867,-0.0686559,-0.0686452,-0.0686357,-0.068625,-0.0686105,-0.0685894,-0.0685593,-0.0685177,-0.068462,-0.068389,-0.0682943,-0.0681745,-0.0680602,-0.0679966,-0.0679669,-0.067948,-0.0679258,-0.0679358,-0.0679103,-0.0679272,-0.0679014,-0.0679157,-0.0678899,-0.0678999,-0.067874,-0.0678773,-0.0678505,-0.0678492,-0.0678211,-0.0678286,-0.0678279,-0.0678279,-0.0678586,-0.0678555,-0.067924,-0.0679268,-0.068002,-0.0679906,-0.0680569,-0.0680501,-0.0681132,-0.0681051,-0.0681657,-0.0681547,-0.0682131,-0.0681987,-0.0682552
-0.0727819,-0.0715932,-0.070235,-0.0687054,-0.067015,-0.0651833,-0.0632333,-0.0611852,-0.0590533,-0.0568444,-0.0545572,-0.0521816,-0.0496939,-0.0470495,-0.0441701,-0.0410041,-0.0382795,-0.0368372,-0.0362997,-0.0360333,-0.0355714,-0.0360742,-0.0350411,-0.0356608,-0.0345432,-0.0350838,-0.0338572,-0.0342641,-0.0328571,-0.0330379,-0.0312246,-0.0312331,-0.0283969,-0.0292407,-0.02625,-0.0262075,-0.0226101,-0.0225129,-0.0188052,-0.0183152,-0.0151095,-0.0153573,-0.0128927,-0.0128464,-0.0107547,-0.0107071,-0.00888113,-0.00889289,-0.00727244,-0.00735459,-0.00589467
0.0292543,0.0296237,0.0300628,0.0305767,0.0311667,0.0318308,0.0325652,0.0333663,0.0342321,0.0351633,0.036164,0.0372424,0.038414,0.039707,0.041173,0.0428691,0.0444606,0.0454167,0.0458692,0.0461447,0.0464735,0.0462625,0.0468154,0.0465129,0.0471095,0.0468422,0.0474921,0.0472982,0.0480342,0.0479757,0.0489091,0.0489486,0.050389,0.0497656,0.0512513,0.0511265,0.0527908,0.0523932,0.0542535,0.0540363,0.0556461,0.0551161,0.0562177,0.0559013,0.0568067,0.0565134,0.0573076,0.0569913,0.0577075,0.0573588,0.0580145
-0.0465922,-0.046182,-0.0457018,-0.0451502,-0.0445305,-0.0438503,-0.0431186,-0.0423437,-0.0415319,-0.0406863,-0.0398071,-0.0388907,-0.0379284,-0.0369032,-0.0357838,-0.0345443,-0.0334487,-0.0328222,-0.032547,-0.0323911,-0.0321665,-0.0323418,-0.0319204,-0.032157,-0.0317132,-0.0319278,-0.0314578,-0.0316332,-0.0311203,-0.0312318,-0.0306185,-0.0306997,-0.0298546,-0.030277,-0.0294293,-0.0296044,-0.0287496,-0.029067,-0.0281521,-0.0284236,-0.0276626,-0.0280544,-0.0275378,-0.0278196,-0.0273973,-0.0276584,-0.0272872,-0.0275513,-0.0272144,-0.027487,-0.027176
0.035128,0.035097,0.0350579,0.0350106,0.0349558,0.0348953,0.0348309,0.0347651,0.0346998,0.0346369,0.0345781,0.0345246,0.0344779,0.0344394,0.0344109,0.0343962,0.0343994,0.0344102,0.0344195,0.0344275,0.0344412,0.0344294,0.034454,0.0344371,0.0344629,0.0344477,0.0344745,0.0344621,0.0344908,0.0344826,0.0345175,0.0345115,0.0345607,0.0345488,0.0345676,0.0345686,0.0345676,0.0345834,0.0345333,0.0345524,0.0344909,0.0345263,0.0344699,0.0345032,0.0344469,0.0344837,0.0344269,0.0344689,0.0344118,0.0344594,0.0344019
-0.0278914,-0.0280102,-0.0281508,-0.0283137,-0.0284981,-0.0287016,-0.0289212,-0.0291542,-0.0293985,-0.0296532,-0.0299185,-0.0301962,-0.03049,-0.0308079,-0.0311645,-0.0315796,-0.0319848,-0.0322598,-0.0324132,-0.0325229,-0.032682,-0.0325824,-0.0328869,-0.0327264,-0.0330666,-0.032917,-0.0332978,-0.0331809,-0.0336221,-0.033573,-0.0341413,-0.0341446,-0.0350157,-0.034661,-0.0355687,-0.0354675,-0.0364478,-0.0362036,-0.0372373,-0.0370749,-0.0379427,-0.0376134,-0.0382057,-0.0379776,-0.0384638,-0.0382413,-0.0386703,-0.0384317,-0.038823,-0.0385648,-0.0389281
-0.0812413,-0.0814639,-0.081712,-0.0819751,-0.0822384,-0.0824847,-0.0826985,-0.0828678,-0.0829855,-0.0830492,-0.08306,-0.0830221,-0.0829413,-0.0828239,-0.0826725,-0.082485,-0.0823167,-0.0823474,-0.0825151,-0.0827233,-0.08294,-0.0830268,-0.0831277,-0.0831216,-0.0832295,-0.0831859,-0.0833123,-0.0832219,-0.0833861,-0.0832257,-0.0834736,-0.0832251,-0.0836046,-0.083386,-0.0834701,-0.0832783,-0.0832623,-0.0832419,-0.0832735,-0.0837578,-0.0838127,-0.0841672,-0.0841592,-0.0843677,-0.0843551,-0.084425,-0.0844328,-0.0844213,-0.0844577,-0.0844085,-0.0844717
-0.12918,-0.128908,-0.12878,-0.128803,-0.128971,-0.129266,-0.129662,-0.130129,-0.130639,-0.13117,-0.131705,-0.132234,-0.132753,-0.133271,-0.133823,-0.134505,-0.135431,-0.13652,-0.137779,-0.139243,-0.140863,-0.142188,-0.142819,-0.143757,-0.144407,-0.145358,-0.146034,-0.147058,-0.147792,-0.148935,-0.149831,-0.150996,-0.152298,-0.15312,-0.153954,-0.154328,-0.154773,-0.154988,-0.155209,-0.155609,-0.155851,-0.156123,-0.15629,-0.156437,-0.156592,-0.156708,-0.156888,-0.157035,-0.157248,-0.157445,-0.157684
0.0904383,0.089551,0.0887541,0.0880535,0.0874467,0.0869225,0.0864629,0.0860478,0.0856588,0.0852815,0.0849058,0.0845262,0.0841394,0.0837415,0.0833205,0.0828496,0.082396,0.0822253,0.0822517,0.0823713,0.0825802,0.0827173,0.0828561,0.0828912,0.0830415,0.0830263,0.0831899,0.0831059,0.0832795,0.0830962,0.0832581,0.082987,0.0830092,0.0828773,0.0828451,0.0827711,0.0827355,0.0829484,0.0831597,0.084163,0.0845217,0.0854402,0.0855572,0.0862224,0.0862083,0.0866149,0.0865528,0.0867818,0.0867203,0.0868443,0.086802
0.0183615,0.018606,0.018803,0.0189365,0.0189916,0.0189575,0.0188291,0.0186068,0.018296,0.0179047,0.0174424,0.0169182,0.0163381,0.0156978,0.0149639,0.0140325,0.0128538,0.0117776,0.0108269,0.00995874,0.00925699,0.00877625,0.00868742,0.00836896,0.0083273,0.0080174,0.00802535,0.00770096,0.00775051,0.00740338,0.0074533,0.00718029,0.00710875,0.00726394,0.0075953,0.00766853,0.00788074,0.0079092,0.0078998,0.007913,0.00793977,0.00814789,0.00816303,0.00833347,0.00835073,0.00846061,0.00847398,0.00851754,0.00852821,0.0085167,0.00852851
-0.106997,-0.106865,-0.106798,-0.106789,-0.106825,-0.106887,-0.106953,-0.107004,-0.107025,-0.107005,-0.10694,-0.106829,-0.106671,-0.106468,-0.106212,-0.105875,-0.105478,-0.10523,-0.105108,-0.105046,-0.105045,-0.10502,-0.10509,-0.105043,-0.105143,-0.105092,-0.105239,-0.10519,-0.105417,-0.105395,-0.105788,-0.105873,-0.106664,-0.10707,-0.107888,-0.108104,-0.108741,-0.108706,-0.108607,-0.108056,-0.107827,-0.107492,-0.1075,-0.107324,-0.10748,-0.107406,-0.107623,-0.107603,-0.107829,-0.10783,-0.108044
0.111006,0.116674,0.122109,0.127216,0.131906,0.136117,0.139823,0.143034,0.145785,0.148121,0.150092,0.151749,0.153142,0.154328,0.155376,0.156376,0.157299,0.158026,0.158458,0.15856,0.158415,0.157903,0.15783,0.157246,0.157118,0.156409,0.156218,0.155331,0.155053,0.153909,0.15344,0.152086,0.15111,0.15008,0.149661,0.149356,0.149749,0.150401,0.151322,0.152467,0.153398,0.154215,0.155091,0.155787,0.156523,0.157042,0.157662,0.15804,0.158583,0.158857,0.159346
0.00508033,0.00713922,0.00912816,0.011025,0.0128114,0.0144775,0.016024,0.0174601,0.0187996,0.0200573,0.0212474,0.0223838,0.0234834,0.0245766,0.0257337,0.0271258,0.028861,0.0305084,0.0319487,0.0332496,0.0344066,0.0352765,0.0355919,0.0362145,0.0365139,0.0371632,0.0374566,0.0381922,0.0385054,0.039389,0.0398014,0.0407928,0.0415082,0.0422987,0.0427161,0.0429134,0.0429474,0.0425433,0.0422223,0.041104,0.0407585,0.0399087,0.0396522,0.0390163,0.0388045,0.0383495,0.0381532,0.0378109,0.0376139,0.037335,0.037133
0.0236739,0.0259104,0.0280221,0.0299679,0.0317114,0.0332294,0.0345163,0.0355818,0.0364459,0.0371336,0.0376708,0.0380829,0.0383943,0.0386288,0.0388111,0.0389702,0.0391305,0.0393014,0.0393839,0.0393386,0.0392119,0.0390109,0.0389495,0.0387328,0.0386442,0.0383611,0.0382305,0.0378384,0.0376237,0.0370535,0.0366117,0.0358437,0.0347194,0.0340047,0.0331325,0.0327886,0.0322458,0.0324931,0.0328044,0.0338883,0.0343308,0.0350961,0.0352491,0.0357217,0.0357259,0.0359724,0.0359254,0.0360339,0.035988,0.0360225,0.035997
-0.0419674,-0.042138,-0.0423186,-0.0425017,-0.0426771,-0.0428338,-0.0429616,-0.043053,-0.0431036,-0.0431112,-0.0430759,-0.0429985,-0.0428796,-0.0427165,-0.0424948,-0.0421651,-0.0416648,-0.0410806,-0.0404303,-0.0397349,-0.0390827,-0.0386257,-0.0384789,-0.0382068,-0.0380976,-0.0378677,-0.0378016,-0.0376156,-0.0375914,-0.0374787,-0.0374765,-0.037543,-0.0375501,-0.037982,-0.0384876,-0.0387699,-0.0391902,-0.0391738,-0.0390684,-0.0382822,-0.0380438,-0.0374789,-0.0374841,-0.0371279,-0.037303,-0.0371545,-0.0373987,-0.0373806,-0.0376332,-0.0376836,-0.0379228
-0.0367842,-0.0374172,-0.0380291,-0.0386064,-0.0391352,-0.0396042,-0.0400073,-0.0403436,-0.0406168,-0.0408336,-0.0410029,-0.0411355,-0.0412438,-0.0413443,-0.0414644,-0.0416718,-0.0421394,-0.0430585,-0.0444501,-0.0462722,-0.0484252,-0.0501912,-0.0511146,-0.052344,-0.053315,-0.0545577,-0.0556029,-0.056935,-0.0581315,-0.0596163,-0.0612155,-0.0627425,-0.0653159,-0.0665255,-0.0680504,-0.0683197,-0.0689017,-0.0686358,-0.0684855,-0.0683713,-0.0682957,-0.0683655,-0.0682773,-0.0682723,-0.0681975,-0.0681191,-0.0680803,-0.0679727,-0.067972,-0.0678646,-0.0678938
0.00868661,0.00971899,0.0105254,0.0110779,0.0113637,0.0113901,0.0111818,0.0107747,0.0102096,0.00952814,0.00877257,0.00798874,0.00723322,0.00659018,0.00621793,0.00648273,0.00787111,0.00903069,0.00962383,0.0100204,0.00958802,0.0108224,0.00920785,0.0108328,0.00917887,0.0108968,0.00917245,0.0110139,0.00915621,0.0111745,0.00907068,0.0111623,0.00906372,0.0103283,0.00809802,0.00959769,0.00702754,0.0076122,0.0055261,0.00708393,0.00499457,0.0068948,0.0044561,0.00662955,0.00429709,0.00650757,0.00432143,0.0065398,0.00447236,0.0066981,0.00471659
-0.0118494,-0.00830848,-0.00493826,-0.00179,0.00109317,0.00368716,0.00599138,0.0080253,0.00982088,0.0114159,0.0128505,0.014167,0.015414,0.0166584,0.0180162,0.0197314,0.0221013,0.0253165,0.0289206,0.0325204,0.0361088,0.0378199,0.039126,0.0396022,0.0408094,0.0410551,0.0421897,0.0422898,0.0433894,0.0433713,0.0444782,0.0443446,0.0451472,0.0452274,0.0455844,0.0444855,0.043871,0.0429182,0.0424467,0.0419773,0.0421508,0.0421855,0.0429465,0.0429298,0.0439515,0.0439397,0.0450805,0.045115,0.0463106,0.046401,0.047623
0.03732,0.0360948,0.0351767,0.0346055,0.0343993,0.0345489,0.0350203,0.0357639,0.0367236,0.037842,0.0390614,0.0403196,0.0415392,0.0426035,0.0432894,0.0430778,0.0412821,0.0399246,0.0391454,0.0381492,0.0382865,0.0359291,0.0385413,0.0359457,0.0386044,0.0360854,0.0387764,0.036414,0.0390904,0.0370937,0.0395576,0.0383786,0.0395003,0.0390301,0.0412448,0.0406292,0.0424976,0.0433403,0.0455106,0.0459489,0.0481638,0.0470873,0.0499101,0.0483895,0.0512639,0.0494609,0.0522912,0.0503086,0.0531063,0.0509939,0.0537824
-0.0106205,-0.0096173,-0.00838041,-0.00689942,-0.00518167,-0.00325161,-0.00114456,0.00110124,0.00345016,0.00587108,0.00833649,0.0108194,0.0132874,0.0156891,0.0179149,0.0196498,0.0201886,0.0210152,0.0218691,0.0218932,0.022573,0.0199954,0.0228799,0.0199673,0.0227904,0.0199701,0.0226811,0.0201176,0.0225651,0.0206024,0.0222867,0.0214494,0.0205104,0.01949,0.020234,0.0192973,0.0186636,0.0184524,0.0196034,0.0197691,0.0211431,0.0197475,0.021699,0.0201018,0.0223731,0.0205467,0.0229907,0.0209978,0.023548,0.0214185,0.0240448
-0.0057607,-0.00418028,-0.00289128,-0.00193529,-0.00133485,-0.00108686,-0.00116461,-0.00152617,-0.00212369,-0.00290939,-0.00383744,-0.00486213,-0.00593179,-0.00697349,-0.00784979,-0.00822015,-0.00749815,-0.00690103,-0.00661407,-0.00621347,-0.00651886,-0.00477358,-0.00659302,-0.00451487,-0.00630284,-0.00415378,-0.00589604,-0.00367011,-0.00532571,-0.00301294,-0.00440137,-0.00210368,-0.00208943,6.14009e-005,-0.000353249,0.00201386,0.00236336,0.00418821,0.00344645,0.00526416,0.0041681,0.00633262,0.00488198,0.00723847,0.00558953,0.00795292,0.00619221,0.00853059,0.00671047,0.0090263,0.00717139
-0.244899,-0.244903,-0.244694,-0.244265,-0.243625,-0.242794,-0.241804,-0.240685,-0.239464,-0.238159,-0.236779,-0.235331,-0.233813,-0.232227,-0.230595,-0.229033,-0.227935,-0.226314,-0.224152,-0.221806,-0.218568,-0.218184,-0.215402,-0.216289,-0.213473,-0.214542,-0.211674,-0.212822,-0.209861,-0.21098,-0.207868,-0.208826,-0.206193,-0.207162,-0.204633,-0.206658,-0.205852,-0.207705,-0.206395,-0.20745,-0.205528,-0.206703,-0.204559,-0.20603,-0.203722,-0.205501,-0.203046,-0.205006,-0.202426,-0.204472,-0.201794
-0.0821496,-0.0833841,-0.0848757,-0.0866367,-0.0886607,-0.0909237,-0.0933912,-0.0960259,-0.0987939,-0.101667,-0.104621,-0.107636,-0.110691,-0.11376,-0.116785,-0.119536,-0.121148,-0.1225,-0.123827,-0.12491,-0.126969,-0.12577,-0.128929,-0.126877,-0.130073,-0.12797,-0.131218,-0.129141,-0.132486,-0.130536,-0.134046,-0.132347,-0.135431,-0.133674,-0.137056,-0.134825,-0.137265,-0.135397,-0.138209,-0.136123,-0.139133,-0.136582,-0.139643,-0.137036,-0.140028,-0.137321,-0.140252,-0.137469,-0.140364,-0.137532,-0.140405
-0.0897423,-0.089488,-0.0891609,-0.0887606,-0.0882932,-0.0877703,-0.0872068,-0.086618,-0.0860182,-0.0854202,-0.0848364,-0.0842802,-0.0837694,-0.0833329,-0.0830259,-0.0829622,-0.0831739,-0.0827176,-0.0818337,-0.0810759,-0.0799014,-0.0799928,-0.0786333,-0.0790969,-0.0777098,-0.078113,-0.0767022,-0.0769064,-0.0754969,-0.0752272,-0.0739124,-0.0727799,-0.0718941,-0.0704873,-0.0690371,-0.067864,-0.0668482,-0.0653877,-0.0647282,-0.0636591,-0.0630942,-0.0629474,-0.0620077,-0.0620835,-0.0610928,-0.0614059,-0.0604176,-0.0609122,-0.0599155,-0.0605532,-0.0595354
0.00661323,0.00713772,0.00751915,0.00773787,0.00778318,0.00765605,0.00736768,0.00693513,0.00637651,0.00570774,0.00494081,0.00408314,0.00313718,0.00209967,0.000960499,-0.000283589,-0.00148979,-0.00296873,-0.00430643,-0.00504773,-0.00569247,-0.00479944,-0.00581482,-0.00471955,-0.00562002,-0.00456377,-0.00530117,-0.0044161,-0.00485218,-0.00438252,-0.00410036,-0.00430976,-0.00213241,-0.00155211,-0.000206014,0.000119837,0.00267213,0.00359455,0.00453854,0.00509622,0.00585111,0.00690292,0.00744929,0.00842735,0.00864423,0.00962386,0.00960582,0.0106202,0.010452,0.0115279,0.0112592
0.0251742,0.0255399,0.0258157,0.0259944,0.0260766,0.0260719,0.0259973,0.0258754,0.0257324,0.0255979,0.0255073,0.0255074,0.0256675,0.0261078,0.0270779,0.029181,0.0332747,0.0385907,0.0441643,0.0496779,0.0545803,0.0582526,0.0588039,0.0610389,0.0614505,0.0635103,0.0637925,0.0659075,0.0660619,0.0684897,0.068514,0.0713147,0.0713457,0.073322,0.0726115,0.0736045,0.0714561,0.071133,0.0690829,0.0695189,0.0679594,0.069067,0.0676961,0.0689676,0.0678393,0.069086,0.0681319,0.0693359,0.0685011,0.0696595,0.0689065
