Values
-0.00425796
0.0774661
-0.0999696
-0.216449
-0.0281721
0.0649851
0.0148051
-0.109806
-0.0279241
0.187805
0.0287869
0.0286481
-0.0744199
0.000300028
0.113133
-0.0202389
0.0705024
0.00797721
0.0772018
-0.00672494
0.214831
-0.049997
0.0214112
-0.0139524
0.0262361
-0.0493468
0.0280594
-0.113591
0.00425508
-0.104497
-0.000454392
-0.167128
-0.00671081
0.0124882
-0.000692488
-0.154677
0.0829007
0.000905958
-0.0633304
-0.0123938
-0.141545
0.00559315
0.125491
-0.138425
0.0332814
0.0183246
-0.0510488
0.0618591
0.120719
-0.0436658
0.0488205
-0.0963242
-0.0269309
-0.0183649
0.0214816
-0.0537805
-0.00401249
-0.0347417
0.149478
-0.156749
-0.0809967
-0.0292457
-0.0821948
-0.108158
0.0271598
-0.226763
0.0849951
-0.105774
-0.0293121
-0.0917459
0.0126679
-0.0289549
-0.0818899
-0.0312539
0.0343926
0.0683957
0.00018364
0.242355
-0.0100009
0.169396
-0.00341097
0.107954
0.0232316
0.147529
0.00676942
0.0409859
0.028719
-0.073984
-0.0715811
0.105842
0.00953702
0.120622
-0.0704958
-0.0153803
-0.0699136
0.0328388
0.058944
-0.0284999
0.0354261
-0.0371589
-0.0870275
-0.175912
0.0998739
0.0125429
-0.11183
0.187338
0.0130254
0.0405637
-0.043515
-0.0669606
0.0207508
0.0898059
0.0688849
0.0277327
0.0187107
-0.189652
-0.134108
-0.0459692
0.0384015
0.0768964
