Values
-0.00433637
0.0847232
-0.099835
-0.214696
-0.0297894
0.0895287
0.00749013
-0.111689
-0.0264472
0.189713
0.0253471
0.0208641
-0.0782477
0.00313307
0.109832
-0.0112994
0.073406
0.00691352
0.0788299
-0.0146577
0.211631
-0.0585311
0.0231286
-0.00900623
0.0248082
-0.0695179
0.0255684
-0.116308
0.00817598
-0.106635
-0.00406422
-0.17728
-0.00754197
0.0142346
-0.00205367
-0.160205
0.0866916
0.00236484
-0.0640448
-0.0137854
-0.142212
0.0120857
0.128104
-0.137945
0.0331947
0.0198836
-0.0533726
0.062204
0.120129
-0.0384805
0.0506351
-0.0931978
-0.0201187
-0.0163834
0.0218226
-0.0614994
-0.0137347
-0.0363797
0.150957
-0.152939
-0.0835007
-0.039512
-0.0895389
-0.107472
0.024131
-0.221845
0.0870185
-0.103738
-0.0306142
-0.0982247
0.00953456
-0.0253107
-0.0867591
-0.0265687
0.032422
0.064421
-0.00760691
0.239879
-0.00596382
0.171244
-0.00904551
0.117106
0.0165396
0.150789
0.00394833
0.0640036
0.0303888
-0.0734271
-0.0702438
0.104832
0.00689064
0.138996
-0.0703782
-0.0132846
-0.0711835
0.0573793
0.0564441
-0.0289252
0.0368299
-0.0348184
-0.0871587
-0.190719
0.118185
0.017662
-0.113241
0.213177
-0.00772444
0.0450576
-0.0453704
-0.0674305
0.0287977
0.113726
0.0734247
0.0231847
0.0210056
-0.196429
-0.121464
-0.0397682
0.0456574
0.0844798
