Values
-0.00291234
0.0971604
-0.0969141
-0.210948
-0.0317002
0.123894
-0.00533953
-0.113915
-0.0240269
0.193387
0.0211137
0.0118565
-0.0832086
0.00905959
0.105348
-0.00136993
0.071978
0.00503676
0.0827667
-0.0235098
0.205719
-0.0767494
0.0223658
-0.00181713
0.021827
-0.0928597
0.0244402
-0.118064
0.0130353
-0.110425
-0.010299
-0.198931
-0.00674768
0.0176985
-0.00417314
-0.173792
0.090012
0.00503246
-0.065605
-0.0147174
-0.144596
0.0126884
0.135372
-0.137189
0.0326075
0.0179249
-0.0556915
0.0646411
0.117067
-0.0339826
0.0535079
-0.0890791
-0.00827765
-0.0131807
0.021719
-0.0639313
-0.0271739
-0.0370377
0.152303
-0.148292
-0.0865478
-0.0490117
-0.0997812
-0.103951
0.019925
-0.217688
0.0819095
-0.101832
-0.0307342
-0.102756
0.00406376
-0.017914
-0.0989913
-0.0194709
0.0290087
0.0618582
-0.0174685
0.238252
-0.000596633
0.174942
-0.0181961
0.132571
0.00674165
0.156094
0.000164817
0.0902823
0.0309797
-0.0719675
-0.0684039
0.104143
0.0018987
0.161828
-0.0670587
-0.0104029
-0.0729778
0.0858065
0.0546609
-0.0278859
0.0373387
-0.0347732
-0.0860283
-0.213745
0.150874
0.023093
-0.114379
0.253378
-0.0307654
0.051981
-0.0486456
-0.0692518
0.0359611
0.140334
0.081939
0.0179848
0.0250069
-0.2102
-0.100531
-0.0386592
0.0483816
0.0942665
