Values
-0.00411314
0.0759704
-0.0999067
-0.216757
-0.0276885
0.0579491
0.016526
-0.109073
-0.0282368
0.187592
0.0296379
0.0307979
-0.0737197
-0.000401377
0.113972
-0.0216933
0.069511
0.00868345
0.0767139
-0.00421237
0.215537
-0.0481718
0.0202927
-0.0154661
0.0264766
-0.0416359
0.0293262
-0.112138
0.00302123
-0.103915
0.000478847
-0.164524
-0.00623686
0.0121886
-0.000288653
-0.153843
0.0809832
0.000512536
-0.0630979
-0.0116553
-0.141566
0.0027584
0.124543
-0.138661
0.03316
0.0183031
-0.0497053
0.0623424
0.120473
-0.0459957
0.0482879
-0.0970944
-0.0293185
-0.0190005
0.0212091
-0.0487131
-0.000759448
-0.0337702
0.148945
-0.157992
-0.0801912
-0.0251088
-0.0797875
-0.107878
0.0281052
-0.228353
0.0825085
-0.106722
-0.0285611
-0.0886529
0.0134608
-0.0295774
-0.0809116
-0.0325629
0.0348991
0.0704458
0.00251229
0.243541
-0.0111136
0.169159
-0.00204791
0.10531
0.0249741
0.146599
0.00754447
0.0338036
0.0283888
-0.0737509
-0.0721183
0.105972
0.0102178
0.115386
-0.0701714
-0.0159135
-0.0694898
0.0238338
0.0595474
-0.0281477
0.0349611
-0.0380232
-0.0866975
-0.171749
0.0951381
0.0108919
-0.111222
0.179736
0.0198175
0.0391584
-0.0428493
-0.0670367
0.017335
0.0813004
0.0666416
0.0285321
0.0171626
-0.189568
-0.136949
-0.0493618
0.03394
0.0747227
