Values
-0.0039077
0.0747388
-0.0998282
-0.216972
-0.0271646
0.050362
0.0182662
-0.108072
-0.0284825
0.187626
0.0303812
0.0327929
-0.0736238
-0.00128397
0.114706
-0.0207276
0.0692176
0.0101724
0.0760409
-0.00153288
0.216213
-0.0462606
0.0186261
-0.0172001
0.0266583
-0.0306527
0.0310851
-0.109922
0.00175029
-0.103099
0.00146468
-0.161384
-0.00548862
0.012072
0.000198769
-0.153134
0.0777677
-5.02453e-05
-0.0627132
-0.0102968
-0.141692
-0.000816608
0.123103
-0.139056
0.0329229
0.0194652
-0.0474991
0.0635126
0.119987
-0.0492932
0.0477348
-0.0978026
-0.032383
-0.0197901
0.0208221
-0.0404191
0.00334336
-0.0322376
0.148358
-0.159485
-0.0792354
-0.0194508
-0.0766659
-0.107129
0.0292289
-0.230374
0.0777099
-0.108379
-0.0274136
-0.0838778
0.0143317
-0.0295485
-0.0798132
-0.0338658
0.0354887
0.0736133
0.00458046
0.245082
-0.0120631
0.169525
-0.00075373
0.102419
0.0266219
0.145526
0.00832148
0.0263696
0.0283771
-0.0730033
-0.0727755
0.105978
0.0109541
0.110059
-0.0694873
-0.0163605
-0.0689519
0.0121051
0.0596369
-0.0277025
0.034576
-0.0387774
-0.0860336
-0.166893
0.0903558
0.0091375
-0.110298
0.17072
0.0275954
0.0375331
-0.0417662
-0.0673371
0.0125709
0.0698156
0.0625999
0.0283707
0.01399
-0.191918
-0.139138
-0.0541085
0.0263635
0.072564
