0,1,2,3,4,5,6,7,8,9,10,11,12,13,14,15,16,17,18,19,20,21,22,23,24,25,26,27,28,29,30,31,32,33,34,35,36,37,38,39,40,41,42,43,44,45,46,47,48,49,50,51,52,53,54,55,56,57,58,59,60,61,62,63,64,65,66,67,68,69,70,71,72,73,74,75,76,77,78,79,80,81,82,83,84,85,86,87,88,89,90,91,92,93,94,95,96,97,98,99,100,101,102,103,104,105,106,107,108,109,110,111,112,113,114,115,116,117,118,119,120,121,122,123,124,125,126,127,128,129,130,131,132,133,134,135,136,137,138,139,140,141,142,143,144,145,146,147,148,149,150,151,152,153,154,155,156,157,158,159,160,161,162,163,164,165,166,167,168,169,170,171,172,173,174,175,176,177,178,179,180,181,182,183,184,185,186,187,188,189,190,191,192,193,194,195,196,197,198,199,200,201,202,203,204,205,206,207,208,209,210,211,212,213,214,215,216,217,218,219,220,221,222,223,224,225,226,227,228,229,230,231,232,233,234,235,236,237,238,239,240,241,242,243,244,245,246,247,248,249,250
-0.00344954,-0.00347849,-0.00351576,-0.00356137,-0.00361432,-0.00367262,-0.00373362,-0.00379458,-0.00385299,-0.00390682,-0.00395448,-0.00399473,-0.00402643,-0.00404809,-0.0040564,-0.00404189,-0.00398738,-0.00392182,-0.00384997,-0.00375336,-0.00367871,-0.00355936,-0.00362138,-0.00352732,-0.0035917,-0.00350716,-0.00357273,-0.00350068,-0.00356323,-0.00351393,-0.003559,-0.00354974,-0.00352726,-0.00352291,-0.00355319,-0.0035588,-0.00356014,-0.00357936,-0.00359764,-0.00360681,-0.00362092,-0.00360019,-0.00362798,-0.00360568,-0.00363872,-0.00361331,-0.00364897,-0.00362035,-0.00365833,-0.00362619,-0.0036669,-0.00363111,-0.00367494,-0.00363552,-0.0036828,-0.00363986,-0.00369078,-0.00364447,-0.0036991,-0.00364957,-0.00370788,-0.00365525,-0.00371714,-0.00366148,-0.00372683,-0.0036682,-0.00373685,-0.00367529,-0.00374711,-0.00368265,-0.00375752,-0.00369018,-0.00376798,-0.0036978,-0.00377846,-0.00370547,-0.0037889,-0.00371314,-0.00379927,-0.0037208,-0.00380957,-0.00372843,-0.00381978,-0.00373602,-0.00382991,-0.00374357,-0.00383994,-0.00375108,-0.00384988,-0.00375855,-0.00385973,-0.00376598,-0.00386949,-0.00377337,-0.00387917,-0.00378072,-0.00388877,-0.00378803,-0.00389828,-0.00379529,-0.0039077,-0.00380251,-0.00391704,-0.00380968,-0.00392629,-0.0038168,-0.00393546,-0.00382387,-0.00394453,-0.00383089,-0.00395352,-0.00383785,-0.00396241,-0.00384475,-0.00397121,-0.00385159,-0.00397992,-0.00385837,-0.00398854,-0.00386508,-0.00399706,-0.00387173,-0.00400549,-0.00387831,-0.00401381,-0.00388482,-0.00402205,-0.00389126,-0.00403018,-0.00389762,-0.00403822,-0.00390391,-0.00404616,-0.00391013,-0.00405399,-0.00391628,-0.00406173,-0.00392234,-0.00406938,-0.00392833,-0.00407692,-0.00393424,-0.00408436,-0.00394008,-0.00409171,-0.00394583,-0.00409895,-0.00395151,-0.00410609,-0.0039571,-0.00411314,-0.00396261,-0.00412009,-0.00396805,-0.00412694,-0.0039734,-0.00413369,-0.00397867,-0.00414034,-0.00398386,-0.00414689,-0.00398897,-0.00415335,-0.003994,-0.00415971,-0.00399894,-0.00416597,-0.00400381,-0.00417214,-0.00400859,-0.0041782,-0.00401329,-0.00418418,-0.00401791,-0.00419006,-0.00402244,-0.00419584,-0.0040269,-0.00420152,-0.00403128,-0.00420712,-0.00403557,-0.00421262,-0.00403978,-0.00421802,-0.00404392,-0.00422334,-0.00404797,-0.00422856,-0.00405194,-0.00423368,-0.00405583,-0.00423872,-0.00405965,-0.00424367,-0.00406338,-0.00424852,-0.00406703,-0.00425328,-0.0040706,-0.00425796,-0.0040741,-0.00426254,-0.00407752,-0.00426704,-0.00408086,-0.00427144,-0.00408412,-0.00427576,-0.0040873,-0.00427999,-0.0040904,-0.00428414,-0.00409343,-0.0042882,-0.00409638,-0.00429217,-0.00409926,-0.00429605,-0.00410206,-0.00429985,-0.00410478,-0.00430357,-0.00410743,-0.0043072,-0.00411,-0.00431074,-0.0041125,-0.00431421,-0.00411492,-0.00431759,-0.00411726,-0.00432088,-0.00411954,-0.0043241,-0.00412174,-0.00432723,-0.00412386,-0.00433028,-0.00412592,-0.00433325,-0.0041279,-0.00433614,-0.0041298,-0.00433895,-0.00413164,-0.00434168,-0.0041334,-0.00434433,-0.00413509,-0.0043469
0.0719739,0.0720097,0.0720404,0.0720627,0.072074,0.0720723,0.072057,0.0720287,0.0719891,0.0719403,0.0718851,0.0718267,0.0717697,0.0717217,0.0716984,0.0717395,0.0719112,0.0721067,0.0723217,0.0726278,0.0728798,0.0733489,0.0731228,0.0735448,0.0732989,0.0737009,0.0734422,0.0738075,0.0735551,0.0738381,0.073654,0.0737663,0.0738693,0.0739076,0.0737347,0.0737342,0.0736595,0.0735316,0.0733675,0.0733636,0.0732362,0.0734768,0.0732541,0.0735345,0.0732729,0.0735833,0.073303,0.0736414,0.0733475,0.0737149,0.0734069,0.0738014,0.0734781,0.0738957,0.0735562,0.0739919,0.0736361,0.0740856,0.0737138,0.074174,0.0737869,0.0742559,0.0738544,0.0743312,0.0739162,0.0744006,0.0739731,0.0744652,0.074026,0.074526,0.0740758,0.0745839,0.0741234,0.0746397,0.0741695,0.074694,0.0742144,0.0747471,0.0742587,0.0747995,0.0743025,0.0748512,0.0743461,0.0749026,0.0743895,0.0749536,0.0744328,0.0750044,0.0744762,0.0750549,0.0745196,0.0751054,0.0745631,0.0751558,0.0746067,0.0752062,0.0746506,0.0752565,0.0746946,0.075307,0.0747388,0.0753575,0.0747833,0.0754081,0.0748281,0.075459,0.0748732,0.07551,0.0749186,0.0755612,0.0749644,0.0756126,0.0750106,0.0756643,0.0750571,0.0757164,0.0751041,0.0757687,0.0751514,0.0758213,0.0751992,0.0758743,0.0752475,0.0759276,0.0752961,0.0759813,0.0753453,0.0760353,0.0753948,0.0760897,0.0754449,0.0761445,0.0754954,0.0761997,0.0755463,0.0762553,0.0755977,0.0763113,0.0756496,0.0763676,0.0757019,0.0764244,0.0757547,0.0764816,0.075808,0.0765391,0.0758617,0.0765971,0.0759158,0.0766554,0.0759704,0.0767142,0.0760255,0.0767733,0.076081,0.0768329,0.0761369,0.0768928,0.0761932,0.0769531,0.07625,0.0770138,0.0763072,0.0770748,0.0763648,0.0771363,0.0764228,0.0771981,0.0764813,0.0772602,0.0765401,0.0773227,0.0765993,0.0773856,0.0766589,0.0774488,0.0767189,0.0775124,0.0767792,0.0775763,0.0768399,0.0776405,0.076901,0.0777051,0.0769625,0.07777,0.0770242,0.0778352,0.0770864,0.0779007,0.0771489,0.0779665,0.0772117,0.0780326,0.0772748,0.0780991,0.0773383,0.0781658,0.077402,0.0782328,0.0774661,0.0783001,0.0775305,0.0783677,0.0775952,0.0784355,0.0776601,0.0785036,0.0777254,0.078572,0.077791,0.0786406,0.0778568,0.0787095,0.0779229,0.0787786,0.0779892,0.078848,0.0780559,0.0789176,0.0781227,0.0789874,0.0781899,0.0790575,0.0782572,0.0791278,0.0783249,0.0791983,0.0783927,0.079269,0.0784608,0.0793399,0.0785291,0.0794111,0.0785976,0.0794824,0.0786664,0.079554,0.0787353,0.0796257,0.0788045,0.0796976,0.0788739,0.0797697,0.0789435,0.079842,0.0790132,0.0799145,0.0790832,0.0799872,0.0791533
-0.098704,-0.098849,-0.0990036,-0.0991675,-0.0993401,-0.0995202,-0.0997066,-0.0998981,-0.100093,-0.100289,-0.100484,-0.100672,-0.100847,-0.100994,-0.101083,-0.101042,-0.100765,-0.100463,-0.100157,-0.0997702,-0.0994651,-0.0990061,-0.0991634,-0.0987982,-0.0989616,-0.0986362,-0.0988022,-0.0985288,-0.0986854,-0.0985055,-0.098613,-0.0985971,-0.0985305,-0.0985349,-0.0986805,-0.0987485,-0.0988647,-0.0990149,-0.0992045,-0.0992514,-0.0994122,-0.099212,-0.0994668,-0.0992448,-0.0995387,-0.099302,-0.0996088,-0.0993555,-0.0996662,-0.0993916,-0.0997051,-0.0994091,-0.0997263,-0.0994121,-0.0997344,-0.0994063,-0.0997347,-0.0993969,-0.0997318,-0.0993873,-0.099729,-0.0993795,-0.099728,-0.0993743,-0.0997294,-0.0993716,-0.0997329,-0.099371,-0.0997381,-0.0993718,-0.0997445,-0.0993735,-0.0997515,-0.0993758,-0.0997587,-0.0993783,-0.0997658,-0.0993808,-0.0997727,-0.0993832,-0.0997793,-0.0993854,-0.0997855,-0.0993874,-0.0997913,-0.0993892,-0.0997968,-0.0993909,-0.099802,-0.0993924,-0.0998069,-0.0993938,-0.0998115,-0.0993951,-0.0998159,-0.0993963,-0.0998202,-0.0993975,-0.0998243,-0.0993986,-0.0998282,-0.0993997,-0.099832,-0.0994008,-0.0998357,-0.0994018,-0.0998393,-0.0994029,-0.0998429,-0.099404,-0.0998463,-0.0994051,-0.0998497,-0.0994062,-0.099853,-0.0994073,-0.0998563,-0.0994084,-0.0998595,-0.0994096,-0.0998627,-0.0994108,-0.0998658,-0.099412,-0.0998689,-0.0994132,-0.0998719,-0.0994144,-0.099875,-0.0994157,-0.099878,-0.099417,-0.0998809,-0.0994183,-0.0998839,-0.0994197,-0.0998868,-0.099421,-0.0998897,-0.0994224,-0.0998926,-0.0994238,-0.0998955,-0.0994253,-0.0998983,-0.0994267,-0.0999011,-0.0994282,-0.0999039,-0.0994297,-0.0999067,-0.0994312,-0.0999095,-0.0994327,-0.0999123,-0.0994343,-0.099915,-0.0994358,-0.0999178,-0.0994374,-0.0999205,-0.099439,-0.0999232,-0.0994405,-0.0999258,-0.0994421,-0.0999285,-0.0994437,-0.0999311,-0.0994453,-0.0999337,-0.0994469,-0.0999363,-0.0994485,-0.0999389,-0.0994501,-0.0999414,-0.0994517,-0.0999439,-0.0994533,-0.0999464,-0.0994548,-0.0999489,-0.0994564,-0.0999513,-0.099458,-0.0999537,-0.0994595,-0.0999561,-0.099461,-0.0999584,-0.0994626,-0.0999607,-0.0994641,-0.099963,-0.0994655,-0.0999652,-0.099467,-0.0999674,-0.0994684,-0.0999696,-0.0994698,-0.0999717,-0.0994712,-0.0999738,-0.0994726,-0.0999758,-0.0994739,-0.0999778,-0.0994752,-0.0999798,-0.0994764,-0.0999817,-0.0994777,-0.0999835,-0.0994789,-0.0999854,-0.09948,-0.0999871,-0.0994811,-0.0999888,-0.0994822,-0.0999905,-0.0994832,-0.0999921,-0.0994842,-0.0999937,-0.0994851,-0.0999952,-0.099486,-0.0999966,-0.0994869,-0.099998,-0.0994877,-0.0999993,-0.0994884,-0.100001,-0.0994891,-0.100002,-0.0994898,-0.100003,-0.0994904,-0.100004,-0.0994909,-0.100005,-0.0994914,-0.100006,-0.0994918,-0.100007,-0.0994922,-0.100008
-0.217556,-0.217521,-0.217486,-0.217453,-0.217424,-0.217402,-0.21739,-0.21739,-0.217403,-0.217428,-0.217465,-0.21751,-0.217562,-0.217611,-0.217645,-0.217627,-0.2175,-0.217356,-0.217204,-0.217003,-0.216847,-0.216598,-0.216688,-0.216484,-0.216578,-0.216396,-0.216492,-0.216336,-0.21643,-0.216317,-0.216392,-0.216357,-0.216351,-0.216347,-0.216438,-0.216462,-0.216556,-0.216641,-0.21675,-0.21679,-0.216886,-0.216811,-0.216941,-0.21685,-0.21699,-0.216887,-0.217028,-0.216915,-0.217054,-0.21693,-0.217069,-0.216934,-0.217075,-0.216931,-0.217074,-0.216923,-0.217068,-0.216913,-0.217061,-0.216903,-0.217055,-0.216893,-0.217048,-0.216885,-0.217044,-0.216878,-0.21704,-0.216873,-0.217036,-0.216867,-0.217034,-0.216863,-0.217031,-0.216858,-0.217029,-0.216854,-0.217026,-0.216849,-0.217023,-0.216845,-0.21702,-0.21684,-0.217017,-0.216835,-0.217013,-0.216829,-0.217009,-0.216824,-0.217004,-0.216818,-0.217,-0.216812,-0.216995,-0.216806,-0.216989,-0.216799,-0.216984,-0.216793,-0.216978,-0.216786,-0.216972,-0.216779,-0.216966,-0.216772,-0.216959,-0.216764,-0.216952,-0.216757,-0.216945,-0.216749,-0.216938,-0.216741,-0.216931,-0.216733,-0.216923,-0.216725,-0.216916,-0.216717,-0.216908,-0.216708,-0.2169,-0.2167,-0.216891,-0.216691,-0.216883,-0.216682,-0.216874,-0.216673,-0.216865,-0.216664,-0.216856,-0.216655,-0.216847,-0.216645,-0.216838,-0.216635,-0.216828,-0.216626,-0.216818,-0.216616,-0.216809,-0.216606,-0.216799,-0.216595,-0.216788,-0.216585,-0.216778,-0.216575,-0.216768,-0.216564,-0.216757,-0.216553,-0.216746,-0.216542,-0.216735,-0.216531,-0.216724,-0.21652,-0.216713,-0.216509,-0.216702,-0.216498,-0.21669,-0.216486,-0.216679,-0.216475,-0.216667,-0.216463,-0.216655,-0.216451,-0.216643,-0.216439,-0.216631,-0.216427,-0.216619,-0.216415,-0.216607,-0.216402,-0.216594,-0.21639,-0.216582,-0.216377,-0.216569,-0.216365,-0.216556,-0.216352,-0.216543,-0.216339,-0.21653,-0.216326,-0.216517,-0.216313,-0.216503,-0.2163,-0.21649,-0.216287,-0.216476,-0.216273,-0.216463,-0.21626,-0.216449,-0.216246,-0.216435,-0.216232,-0.216421,-0.216218,-0.216407,-0.216205,-0.216393,-0.216191,-0.216379,-0.216176,-0.216364,-0.216162,-0.21635,-0.216148,-0.216335,-0.216134,-0.216321,-0.216119,-0.216306,-0.216104,-0.216291,-0.21609,-0.216276,-0.216075,-0.216261,-0.21606,-0.216246,-0.216045,-0.216231,-0.21603,-0.216216,-0.216015,-0.2162,-0.216,-0.216185,-0.215985,-0.216169,-0.215969,-0.216153,-0.215954,-0.216138,-0.215938,-0.216122,-0.215923,-0.216106,-0.215907,-0.21609,-0.215891,-0.216074
-0.0261473,-0.0261267,-0.0261103,-0.0260982,-0.0260902,-0.026085,-0.0260809,-0.0260759,-0.0260683,-0.0260569,-0.0260409,-0.0260207,-0.0259972,-0.0259736,-0.0259568,-0.0259638,-0.0260194,-0.026075,-0.0261275,-0.026193,-0.0262403,-0.0263204,-0.0262956,-0.0263611,-0.0263375,-0.0263936,-0.0263728,-0.0264173,-0.0264025,-0.0264302,-0.026428,-0.0264339,-0.0264577,-0.0264662,-0.0264855,-0.0264903,-0.0265101,-0.0265178,-0.0265313,-0.0265257,-0.0265377,-0.0265137,-0.0265481,-0.0265216,-0.0265696,-0.0265391,-0.0265947,-0.0265593,-0.0266196,-0.0265786,-0.0266426,-0.026596,-0.0266635,-0.0266118,-0.0266827,-0.0266267,-0.026701,-0.0266414,-0.026719,-0.0266565,-0.0267374,-0.0266722,-0.0267563,-0.0266887,-0.0267759,-0.0267059,-0.0267962,-0.0267238,-0.026817,-0.0267421,-0.0268381,-0.0267608,-0.0268596,-0.0267798,-0.0268813,-0.026799,-0.0269031,-0.0268184,-0.0269249,-0.0268379,-0.0269468,-0.0268574,-0.0269687,-0.026877,-0.0269905,-0.0268967,-0.0270124,-0.0269164,-0.0270342,-0.0269361,-0.027056,-0.0269559,-0.0270778,-0.0269757,-0.0270996,-0.0269955,-0.0271213,-0.0270153,-0.027143,-0.0270352,-0.0271646,-0.0270551,-0.0271863,-0.027075,-0.0272078,-0.0270949,-0.0272294,-0.0271148,-0.0272508,-0.0271347,-0.0272723,-0.0271546,-0.0272937,-0.0271745,-0.027315,-0.0271943,-0.0273363,-0.0272142,-0.0273575,-0.027234,-0.0273787,-0.0272539,-0.0273998,-0.0272737,-0.0274208,-0.0272934,-0.0274418,-0.0273132,-0.0274627,-0.0273329,-0.0274836,-0.0273526,-0.0275044,-0.0273722,-0.0275251,-0.0273918,-0.0275458,-0.0274114,-0.0275664,-0.027431,-0.0275869,-0.0274505,-0.0276073,-0.0274699,-0.0276277,-0.0274893,-0.0276481,-0.0275087,-0.0276683,-0.0275281,-0.0276885,-0.0275473,-0.0277086,-0.0275666,-0.0277287,-0.0275858,-0.0277487,-0.0276049,-0.0277686,-0.027624,-0.0277885,-0.0276431,-0.0278083,-0.0276621,-0.027828,-0.0276811,-0.0278476,-0.0277,-0.0278672,-0.0277189,-0.0278868,-0.0277377,-0.0279062,-0.0277565,-0.0279256,-0.0277752,-0.027945,-0.0277939,-0.0279642,-0.0278125,-0.0279834,-0.0278311,-0.0280026,-0.0278496,-0.0280217,-0.0278681,-0.0280407,-0.0278865,-0.0280596,-0.0279049,-0.0280785,-0.0279233,-0.0280974,-0.0279415,-0.0281161,-0.0279598,-0.0281348,-0.027978,-0.0281535,-0.0279961,-0.0281721,-0.0280142,-0.0281906,-0.0280322,-0.0282091,-0.0280502,-0.0282275,-0.0280682,-0.0282459,-0.0280861,-0.0282642,-0.0281039,-0.0282824,-0.0281217,-0.0283006,-0.0281395,-0.0283188,-0.0281572,-0.0283368,-0.0281748,-0.0283549,-0.0281924,-0.0283728,-0.02821,-0.0283907,-0.0282275,-0.0284086,-0.028245,-0.0284264,-0.0282624,-0.0284442,-0.0282798,-0.0284619,-0.0282971,-0.0284795,-0.0283144,-0.0284971,-0.0283316,-0.0285146,-0.0283488,-0.0285321,-0.0283659,-0.0285496,-0.028383,-0.028567,-0.0284001,-0.0285843,-0.0284171,-0.0286016,-0.0284341,-0.0286188
0.0343221,0.0351366,0.0360577,0.0370832,0.0381999,0.0393854,0.0406118,0.0418505,0.0430742,0.0442574,0.0453735,0.0463908,0.0472631,0.0479078,0.0481473,0.0475423,0.0455021,0.0434314,0.0414579,0.0390589,0.0372745,0.0345033,0.0356854,0.0334739,0.0347026,0.0327349,0.0339873,0.0323312,0.0335309,0.0324187,0.0333218,0.0331678,0.0329953,0.0331374,0.0341683,0.0346116,0.0354241,0.0364629,0.0375256,0.038092,0.0389611,0.0383052,0.0396207,0.0388622,0.040325,0.0394991,0.0409839,0.0400927,0.0415628,0.0405953,0.0420499,0.0410104,0.0424566,0.0413608,0.042806,0.0416727,0.0431225,0.0419684,0.0434259,0.0422628,0.0437297,0.0425642,0.0440409,0.0428757,0.0443619,0.043197,0.044692,0.0435263,0.0450289,0.043861,0.0453704,0.0441989,0.045714,0.0445381,0.0460582,0.0448772,0.0464016,0.0452154,0.0467433,0.045552,0.0470831,0.0458866,0.0474205,0.0462192,0.0477557,0.0465498,0.0480885,0.0468783,0.0484191,0.0472049,0.0487475,0.0475297,0.049074,0.0478527,0.0493986,0.048174,0.0497214,0.0484937,0.0500425,0.0488119,0.050362,0.0491286,0.0506799,0.049444,0.0509964,0.0497579,0.0513114,0.0500705,0.051625,0.0503819,0.0519373,0.0506919,0.0522483,0.0510008,0.052558,0.0513085,0.0528665,0.051615,0.0531738,0.0519204,0.0534799,0.0522247,0.0537849,0.0525279,0.0540888,0.05283,0.0543916,0.0531311,0.0546934,0.0534312,0.0549941,0.0537303,0.0552938,0.0540284,0.0555926,0.0543255,0.0558903,0.0546217,0.0561872,0.054917,0.0564831,0.0552113,0.056778,0.0555048,0.0570721,0.0557974,0.0573653,0.0560891,0.0576576,0.0563799,0.0579491,0.0566699,0.0582397,0.0569591,0.0585295,0.0572474,0.0588185,0.0575349,0.0591066,0.0578216,0.059394,0.0581076,0.0596806,0.0583927,0.0599663,0.058677,0.0602513,0.0589606,0.0605356,0.0592434,0.0608191,0.0595255,0.0611018,0.0598068,0.0613838,0.0600874,0.0616651,0.0603672,0.0619456,0.0606463,0.0622254,0.0609247,0.0625045,0.0612024,0.0627829,0.0614793,0.0630606,0.0617556,0.0633376,0.0620311,0.0636139,0.062306,0.0638895,0.0625801,0.0641644,0.0628536,0.0644387,0.0631264,0.0647122,0.0633985,0.0649851,0.06367,0.0652574,0.0639408,0.0655289,0.0642109,0.0657999,0.0644804,0.0660701,0.0647492,0.0663398,0.0650174,0.0666087,0.0652849,0.0668771,0.0655518,0.0671448,0.0658181,0.0674119,0.0660837,0.0676783,0.0663487,0.0679442,0.066613,0.0682094,0.0668768,0.068474,0.0671399,0.068738,0.0674025,0.0690013,0.0676644,0.0692641,0.0679257,0.0695263,0.0681864,0.0697879,0.0684465,0.0700489,0.0687061,0.0703093,0.068965,0.0705691,0.0692234,0.0708283,0.0694812,0.071087,0.0697384,0.0713451,0.069995,0.0716026
0.0243227,0.0245671,0.0248565,0.0251931,0.0255752,0.0259976,0.0264521,0.0269291,0.0274181,0.0279083,0.0283872,0.0288389,0.0292394,0.0295463,0.0296694,0.0293869,0.0283894,0.0273544,0.0263321,0.0250325,0.0240098,0.0224121,0.0230398,0.0217331,0.0223881,0.0211943,0.0218579,0.0208141,0.0214283,0.0206632,0.0210401,0.0207997,0.0203186,0.0202344,0.0205387,0.0205975,0.020628,0.0209966,0.0213548,0.021385,0.0216662,0.0209634,0.0215476,0.0207452,0.0214539,0.0205916,0.0213514,0.0204384,0.0212251,0.0202599,0.0210682,0.0200582,0.0208868,0.0198451,0.0206932,0.0196334,0.0204999,0.0194328,0.0203162,0.0192487,0.0201473,0.0190826,0.0199947,0.0189333,0.0198574,0.0187984,0.0197332,0.0186752,0.0196195,0.0185611,0.019514,0.018454,0.0194147,0.0183522,0.01932,0.0182545,0.0192288,0.0181601,0.0191403,0.0180683,0.019054,0.0179787,0.0189696,0.017891,0.0188868,0.0178051,0.0188053,0.0177208,0.0187252,0.0176379,0.0186462,0.0175564,0.0185684,0.0174761,0.0184915,0.017397,0.0184156,0.0173189,0.0183405,0.0172418,0.0182662,0.0171656,0.0181926,0.0170902,0.0181197,0.0170156,0.0180473,0.0169416,0.0179755,0.0168683,0.0179042,0.0167955,0.0178333,0.0167233,0.0177628,0.0166515,0.0176927,0.0165802,0.0176228,0.0165092,0.0175533,0.0164385,0.0174839,0.0163682,0.0174148,0.0162981,0.0173459,0.0162283,0.0172771,0.0161587,0.0172085,0.0160893,0.01714,0.0160201,0.0170716,0.015951,0.0170032,0.015882,0.016935,0.0158131,0.0168668,0.0157444,0.0167986,0.0156757,0.0167304,0.0156071,0.0166623,0.0155385,0.0165942,0.01547,0.016526,0.0154015,0.0164579,0.015333,0.0163897,0.0152645,0.0163215,0.0151961,0.0162533,0.0151276,0.016185,0.0150591,0.0161167,0.0149906,0.0160483,0.0149221,0.0159799,0.0148535,0.0159114,0.0147849,0.0158428,0.0147163,0.0157742,0.0146476,0.0157055,0.0145789,0.0156367,0.0145101,0.0155679,0.0144413,0.015499,0.0143724,0.0154299,0.0143034,0.0153609,0.0142344,0.0152917,0.0141653,0.0152224,0.0140962,0.0151531,0.014027,0.0150837,0.0139577,0.0150141,0.0138883,0.0149445,0.0138189,0.0148748,0.0137494,0.0148051,0.0136798,0.0147352,0.0136101,0.0146652,0.0135404,0.0145951,0.0134706,0.014525,0.0134007,0.0144548,0.0133307,0.0143844,0.0132606,0.014314,0.0131905,0.0142435,0.0131203,0.0141729,0.01305,0.0141022,0.0129797,0.0140314,0.0129092,0.0139605,0.0128387,0.0138896,0.0127681,0.0138185,0.0126974,0.0137474,0.0126266,0.0136762,0.0125558,0.0136049,0.0124849,0.0135335,0.0124139,0.013462,0.0123429,0.0133904,0.0122717,0.0133188,0.0122005,0.0132471,0.0121292,0.0131753,0.0120579,0.0131034,0.0119864,0.0130314
-0.104838,-0.104548,-0.104212,-0.103833,-0.103413,-0.102963,-0.102494,-0.102016,-0.101541,-0.101078,-0.100638,-0.100233,-0.0998792,-0.0996065,-0.0994786,-0.0996548,-0.100361,-0.101097,-0.101807,-0.102678,-0.103317,-0.104347,-0.103885,-0.104722,-0.10425,-0.105008,-0.10454,-0.105205,-0.104778,-0.105288,-0.105013,-0.105249,-0.105485,-0.105631,-0.105452,-0.105542,-0.105553,-0.105503,-0.105336,-0.105457,-0.105326,-0.105753,-0.105492,-0.105953,-0.105637,-0.106114,-0.105774,-0.106264,-0.10591,-0.106416,-0.106051,-0.106569,-0.106193,-0.106719,-0.106335,-0.106863,-0.10647,-0.106996,-0.106596,-0.107119,-0.106712,-0.10723,-0.106818,-0.107332,-0.106916,-0.107425,-0.107005,-0.107512,-0.107089,-0.107593,-0.107168,-0.10767,-0.107243,-0.107743,-0.107314,-0.107813,-0.107383,-0.10788,-0.10745,-0.107946,-0.107514,-0.108009,-0.107577,-0.10807,-0.107638,-0.10813,-0.107697,-0.108187,-0.107754,-0.108244,-0.10781,-0.108298,-0.107865,-0.108352,-0.107919,-0.108404,-0.107971,-0.108455,-0.108022,-0.108504,-0.108072,-0.108553,-0.108121,-0.1086,-0.108168,-0.108646,-0.108215,-0.108692,-0.108261,-0.108736,-0.108306,-0.10878,-0.108351,-0.108823,-0.108394,-0.108865,-0.108437,-0.108906,-0.108479,-0.108946,-0.10852,-0.108986,-0.108561,-0.109025,-0.108601,-0.109064,-0.10864,-0.109102,-0.108679,-0.109139,-0.108717,-0.109176,-0.108755,-0.109212,-0.108792,-0.109248,-0.108829,-0.109284,-0.108865,-0.109318,-0.108901,-0.109353,-0.108936,-0.109387,-0.108971,-0.10942,-0.109005,-0.109453,-0.109039,-0.109486,-0.109073,-0.109518,-0.109106,-0.10955,-0.109139,-0.109582,-0.109171,-0.109613,-0.109203,-0.109644,-0.109235,-0.109674,-0.109266,-0.109704,-0.109297,-0.109734,-0.109328,-0.109764,-0.109358,-0.109793,-0.109389,-0.109822,-0.109418,-0.109851,-0.109448,-0.109879,-0.109477,-0.109907,-0.109506,-0.109935,-0.109534,-0.109962,-0.109563,-0.10999,-0.109591,-0.110017,-0.109619,-0.110043,-0.109646,-0.11007,-0.109673,-0.110096,-0.1097,-0.110122,-0.109727,-0.110148,-0.109754,-0.110174,-0.10978,-0.110199,-0.109806,-0.110224,-0.109832,-0.110249,-0.109858,-0.110274,-0.109883,-0.110298,-0.109908,-0.110323,-0.109933,-0.110347,-0.109958,-0.110371,-0.109983,-0.110395,-0.110007,-0.110418,-0.110031,-0.110441,-0.110055,-0.110465,-0.110079,-0.110488,-0.110103,-0.11051,-0.110126,-0.110533,-0.110149,-0.110555,-0.110172,-0.110578,-0.110195,-0.1106,-0.110218,-0.110622,-0.110241,-0.110644,-0.110263,-0.110665,-0.110285,-0.110687,-0.110307,-0.110708,-0.110329,-0.110729,-0.110351,-0.11075,-0.110372,-0.110771,-0.110394
-0.0280762,-0.0280983,-0.0281259,-0.028159,-0.0281966,-0.0282374,-0.0282795,-0.0283208,-0.0283596,-0.0283943,-0.0284238,-0.0284472,-0.0284637,-0.028473,-0.0284747,-0.0284704,-0.0284695,-0.0284788,-0.0284997,-0.0285405,-0.0285752,-0.0286447,-0.0286155,-0.0286751,-0.0286455,-0.0286982,-0.0286694,-0.0287134,-0.0286874,-0.0287183,-0.0286998,-0.0287109,-0.0287198,-0.0287237,-0.0287211,-0.0287211,-0.0287239,-0.0287252,-0.0287364,-0.0287254,-0.028738,-0.0286973,-0.028732,-0.028677,-0.0287274,-0.0286617,-0.0287226,-0.0286473,-0.0287163,-0.0286311,-0.0287076,-0.0286127,-0.0286966,-0.0285926,-0.0286841,-0.028572,-0.0286711,-0.0285516,-0.0286583,-0.0285322,-0.0286464,-0.028514,-0.0286354,-0.0284971,-0.0286255,-0.0284813,-0.0286165,-0.0284664,-0.0286081,-0.0284522,-0.0286002,-0.0284385,-0.0285926,-0.0284252,-0.0285851,-0.028412,-0.0285777,-0.0283991,-0.0285702,-0.0283862,-0.0285627,-0.0283734,-0.0285551,-0.0283607,-0.0285474,-0.0283481,-0.0285396,-0.0283354,-0.0285317,-0.0283228,-0.0285237,-0.0283103,-0.0285156,-0.0282978,-0.0285074,-0.0282853,-0.0284992,-0.0282729,-0.0284909,-0.0282605,-0.0284825,-0.028248,-0.028474,-0.0282356,-0.0284654,-0.0282232,-0.0284567,-0.0282108,-0.0284479,-0.0281984,-0.028439,-0.028186,-0.02843,-0.0281735,-0.0284209,-0.028161,-0.0284116,-0.0281485,-0.0284023,-0.0281359,-0.0283929,-0.0281233,-0.0283833,-0.0281107,-0.0283736,-0.028098,-0.0283638,-0.0280852,-0.0283539,-0.0280724,-0.0283438,-0.0280596,-0.0283337,-0.0280466,-0.0283234,-0.0280337,-0.028313,-0.0280206,-0.0283025,-0.0280075,-0.0282918,-0.0279943,-0.0282811,-0.027981,-0.0282702,-0.0279677,-0.0282592,-0.0279543,-0.0282481,-0.0279409,-0.0282368,-0.0279274,-0.0282255,-0.0279138,-0.028214,-0.0279001,-0.0282025,-0.0278864,-0.0281908,-0.0278726,-0.028179,-0.0278588,-0.0281672,-0.0278449,-0.0281552,-0.0278309,-0.0281431,-0.0278168,-0.0281309,-0.0278027,-0.0281186,-0.0277886,-0.0281062,-0.0277744,-0.0280938,-0.0277601,-0.0280812,-0.0277457,-0.0280686,-0.0277313,-0.0280558,-0.0277169,-0.028043,-0.0277024,-0.0280301,-0.0276878,-0.0280171,-0.0276732,-0.028004,-0.0276585,-0.0279909,-0.0276438,-0.0279777,-0.0276291,-0.0279644,-0.0276143,-0.027951,-0.0275994,-0.0279376,-0.0275845,-0.0279241,-0.0275696,-0.0279105,-0.0275546,-0.0278969,-0.0275396,-0.0278832,-0.0275245,-0.0278694,-0.0275094,-0.0278556,-0.0274943,-0.0278418,-0.0274791,-0.0278278,-0.0274639,-0.0278139,-0.0274487,-0.0277998,-0.0274335,-0.0277857,-0.0274182,-0.0277716,-0.0274028,-0.0277574,-0.0273875,-0.0277432,-0.0273721,-0.027729,-0.0273567,-0.0277147,-0.0273413,-0.0277003,-0.0273259,-0.0276859,-0.0273104,-0.0276715,-0.0272949,-0.027657,-0.0272794,-0.0276425,-0.0272639,-0.027628,-0.0272483,-0.0276135,-0.0272328,-0.0275989,-0.0272172,-0.0275842,-0.0272016,-0.0275696
0.188669,0.188588,0.188492,0.18838,0.188255,0.188119,0.187975,0.187828,0.18768,0.187536,0.187397,0.187268,0.187153,0.187061,0.18701,0.187053,0.187277,0.187533,0.187818,0.18824,0.18858,0.189258,0.188898,0.18951,0.189119,0.189697,0.189284,0.189796,0.189386,0.189749,0.189431,0.189495,0.189594,0.189563,0.189231,0.189132,0.188941,0.188636,0.188323,0.188204,0.187951,0.188259,0.187851,0.18822,0.187759,0.18817,0.187693,0.18814,0.187655,0.188138,0.187644,0.188157,0.187654,0.18819,0.187676,0.188227,0.187702,0.188262,0.187727,0.188292,0.187746,0.188314,0.18776,0.188329,0.187767,0.188337,0.187768,0.188341,0.187766,0.188341,0.18776,0.188338,0.187753,0.188333,0.187744,0.188327,0.187734,0.188321,0.187724,0.188314,0.187714,0.188308,0.187703,0.188301,0.187694,0.188294,0.187684,0.188288,0.187675,0.188281,0.187666,0.188275,0.187657,0.18827,0.187649,0.188264,0.187641,0.188259,0.187633,0.188254,0.187626,0.188249,0.187619,0.188245,0.187613,0.188241,0.187607,0.188237,0.187602,0.188234,0.187597,0.188232,0.187592,0.188229,0.187588,0.188227,0.187584,0.188226,0.187581,0.188225,0.187578,0.188224,0.187576,0.188224,0.187574,0.188224,0.187573,0.188225,0.187572,0.188226,0.187572,0.188227,0.187572,0.188229,0.187572,0.188231,0.187573,0.188234,0.187575,0.188237,0.187577,0.188241,0.187579,0.188245,0.187582,0.188249,0.187585,0.188254,0.187588,0.188259,0.187592,0.188265,0.187597,0.188271,0.187601,0.188277,0.187607,0.188284,0.187612,0.188291,0.187618,0.188298,0.187624,0.188306,0.187631,0.188314,0.187638,0.188323,0.187645,0.188331,0.187653,0.188341,0.187661,0.18835,0.187669,0.18836,0.187678,0.18837,0.187687,0.18838,0.187696,0.188391,0.187706,0.188402,0.187716,0.188413,0.187726,0.188425,0.187736,0.188437,0.187747,0.188449,0.187758,0.188461,0.18777,0.188474,0.187781,0.188487,0.187793,0.1885,0.187805,0.188513,0.187818,0.188527,0.18783,0.188541,0.187843,0.188555,0.187856,0.188569,0.18787,0.188584,0.187883,0.188599,0.187897,0.188614,0.187911,0.188629,0.187925,0.188644,0.18794,0.18866,0.187954,0.188676,0.187969,0.188692,0.187984,0.188708,0.187999,0.188724,0.188015,0.188741,0.18803,0.188758,0.188046,0.188775,0.188062,0.188792,0.188078,0.188809,0.188094,0.188826,0.188111,0.188844,0.188128,0.188862,0.188144,0.188879,0.188161,0.188897,0.188178
0.0324772,0.0324246,0.0323584,0.0322786,0.0321873,0.032088,0.0319849,0.0318824,0.0317842,0.0316935,0.0316121,0.0315417,0.0314831,0.0314372,0.0314064,0.0313984,0.0314293,0.0314602,0.0314833,0.0315172,0.0315175,0.0316089,0.0315096,0.0316045,0.0315031,0.0315958,0.0314912,0.0315792,0.0314708,0.0315472,0.0314368,0.031489,0.0314094,0.0314581,0.0313663,0.0314005,0.0313332,0.0313381,0.0312712,0.0312585,0.0311958,0.0312131,0.0311465,0.0311703,0.0311047,0.0311364,0.0310712,0.0311091,0.0310429,0.0310857,0.0310171,0.0310643,0.0309924,0.0310436,0.030968,0.0310232,0.0309435,0.0310027,0.0309187,0.0309819,0.0308937,0.0309608,0.0308684,0.0309395,0.0308431,0.0309179,0.0308176,0.0308962,0.0307922,0.0308744,0.0307668,0.0308524,0.0307414,0.0308305,0.0307161,0.0308084,0.0306908,0.0307863,0.0306655,0.0307642,0.0306403,0.0307419,0.0306149,0.0307195,0.0305895,0.030697,0.030564,0.0306743,0.0305384,0.0306514,0.0305127,0.0306283,0.0304868,0.030605,0.0304607,0.0305814,0.0304344,0.0305576,0.0304079,0.0305335,0.0303812,0.0305092,0.0303543,0.0304846,0.0303271,0.0304597,0.0302997,0.0304346,0.0302721,0.0304091,0.0302442,0.0303834,0.0302161,0.0303574,0.0301877,0.0303311,0.0301591,0.0303045,0.0301303,0.0302776,0.0301012,0.0302505,0.0300718,0.0302231,0.0300423,0.0301954,0.0300124,0.0301675,0.0299824,0.0301393,0.0299521,0.0301109,0.0299216,0.0300822,0.0298909,0.0300532,0.02986,0.0300241,0.0298288,0.0299947,0.0297975,0.029965,0.029766,0.0299352,0.0297342,0.0299051,0.0297023,0.0298748,0.0296702,0.0298443,0.0296379,0.0298136,0.0296054,0.0297828,0.0295728,0.0297517,0.02954,0.0297205,0.029507,0.0296891,0.0294739,0.0296575,0.0294406,0.0296257,0.0294072,0.0295938,0.0293737,0.0295618,0.02934,0.0295295,0.0293062,0.0294972,0.0292722,0.0294647,0.0292382,0.0294321,0.029204,0.0293994,0.0291698,0.0293665,0.0291354,0.0293335,0.0291009,0.0293004,0.0290663,0.0292672,0.0290317,0.0292339,0.0289969,0.0292005,0.0289621,0.029167,0.0289272,0.0291334,0.0288922,0.0290998,0.0288572,0.029066,0.028822,0.0290322,0.0287869,0.0289983,0.0287516,0.0289644,0.0287163,0.0289303,0.028681,0.0288962,0.0286456,0.0288621,0.0286101,0.0288279,0.0285747,0.0287936,0.0285391,0.0287593,0.0285036,0.028725,0.028468,0.0286906,0.0284324,0.0286562,0.0283967,0.0286217,0.0283611,0.0285873,0.0283254,0.0285527,0.0282897,0.0285182,0.028254,0.0284836,0.0282183,0.0284491,0.0281825,0.0284145,0.0281468,0.0283799,0.028111,0.0283452,0.0280753,0.0283106,0.0280395,0.028276,0.0280038,0.0282413,0.0279681,0.0282067,0.0279323,0.028172,0.0278966
0.0380293,0.0380934,0.0381452,0.0381795,0.038192,0.0381804,0.038144,0.0380844,0.0380041,0.0379064,0.0377948,0.0376732,0.0375461,0.0374202,0.0373084,0.037246,0.0373103,0.0373994,0.0374846,0.0376137,0.0376354,0.038005,0.0376463,0.0380672,0.0376822,0.0381084,0.0376975,0.0381136,0.037677,0.0380498,0.0375976,0.0378616,0.0375156,0.0376956,0.0371431,0.0372775,0.036707,0.0366215,0.0360463,0.0360734,0.0355525,0.0358368,0.0352587,0.0355927,0.035015,0.03538,0.0348148,0.0352071,0.034652,0.0350729,0.0345215,0.0349713,0.0344175,0.0348945,0.0343335,0.0348348,0.0342631,0.0347854,0.0342008,0.0347408,0.0341421,0.0346973,0.0340841,0.0346525,0.034025,0.0346054,0.0339641,0.0345557,0.0339013,0.0345037,0.0338369,0.0344497,0.0337712,0.0343941,0.0337046,0.0343372,0.0336372,0.0342793,0.0335693,0.0342206,0.033501,0.0341612,0.0334322,0.034101,0.0333631,0.0340402,0.0332935,0.0339787,0.0332236,0.0339165,0.0331531,0.0338536,0.0330822,0.0337899,0.0330107,0.0337255,0.0329386,0.0336604,0.032866,0.0335945,0.0327929,0.0335278,0.0327191,0.0334604,0.0326447,0.0333923,0.0325698,0.0333234,0.0324943,0.0332538,0.0324182,0.0331835,0.0323415,0.0331125,0.0322643,0.0330408,0.0321865,0.0329685,0.0321082,0.0328955,0.0320294,0.032822,0.0319501,0.0327478,0.0318703,0.0326731,0.0317901,0.0325979,0.0317094,0.0325221,0.0316283,0.0324459,0.0315468,0.0323692,0.0314649,0.032292,0.0313826,0.0322144,0.0313,0.0321363,0.031217,0.0320579,0.0311338,0.0319791,0.0310502,0.0319,0.0309663,0.0318205,0.0308822,0.0317407,0.0307979,0.0316607,0.0307133,0.0315803,0.0306284,0.0314997,0.0305434,0.0314189,0.0304582,0.0313378,0.0303728,0.0312565,0.0302873,0.031175,0.0302016,0.0310934,0.0301158,0.0310116,0.0300299,0.0309296,0.0299438,0.0308475,0.0298577,0.0307653,0.0297715,0.0306829,0.0296852,0.0306005,0.0295989,0.030518,0.0295125,0.0304354,0.0294261,0.0303527,0.0293396,0.03027,0.0292531,0.0301873,0.0291667,0.0301045,0.0290802,0.0300217,0.0289937,0.0299389,0.0289073,0.0298561,0.0288208,0.0297733,0.0287345,0.0296905,0.0286481,0.0296077,0.0285618,0.029525,0.0284756,0.0294423,0.0283894,0.0293596,0.0283033,0.029277,0.0282173,0.0291944,0.0281314,0.0291119,0.0280455,0.0290295,0.0279597,0.0289472,0.0278741,0.0288649,0.0277885,0.0287828,0.0277031,0.0287007,0.0276178,0.0286187,0.0275326,0.0285369,0.0274475,0.0284551,0.0273626,0.0283735,0.0272778,0.028292,0.0271931,0.0282106,0.0271086,0.0281293,0.0270242,0.0280482,0.02694,0.0279672,0.0268559,0.0278864,0.026772,0.0278057,0.0266883,0.0277251,0.0266047,0.0276447,0.0265213
-0.0703783,-0.0706087,-0.0708538,-0.0711135,-0.071387,-0.0716732,-0.071971,-0.0722795,-0.0725978,-0.0729245,-0.0732576,-0.0735935,-0.0739259,-0.0742434,-0.0745208,-0.0746903,-0.07461,-0.0744707,-0.0743325,-0.0741462,-0.0740711,-0.0736955,-0.073958,-0.0735828,-0.0738477,-0.0734888,-0.0737567,-0.0734253,-0.0736953,-0.0734206,-0.0736833,-0.0735132,-0.0736848,-0.073507,-0.073807,-0.0736625,-0.0739463,-0.0738478,-0.0742033,-0.0739597,-0.0743224,-0.0738997,-0.0743289,-0.0738862,-0.0743418,-0.0738998,-0.0743622,-0.0739176,-0.0743788,-0.0739247,-0.0743833,-0.0739161,-0.0743732,-0.0738926,-0.07435,-0.0738576,-0.0743171,-0.0738151,-0.074278,-0.0737686,-0.0742359,-0.0737206,-0.074193,-0.0736727,-0.0741506,-0.0736259,-0.0741093,-0.0735804,-0.0740694,-0.0735364,-0.0740308,-0.0734939,-0.0739936,-0.0734529,-0.0739576,-0.0734134,-0.073923,-0.0733753,-0.0738896,-0.0733388,-0.0738576,-0.0733038,-0.073827,-0.0732705,-0.0737979,-0.0732388,-0.0737703,-0.0732088,-0.0737443,-0.0731806,-0.07372,-0.0731542,-0.0736973,-0.0731296,-0.0736764,-0.0731068,-0.0736571,-0.0730858,-0.0736396,-0.0730667,-0.0736238,-0.0730494,-0.0736098,-0.0730338,-0.0735974,-0.0730201,-0.0735867,-0.0730081,-0.0735777,-0.0729979,-0.0735704,-0.0729893,-0.0735647,-0.0729824,-0.0735605,-0.0729772,-0.073558,-0.0729736,-0.0735569,-0.0729716,-0.0735574,-0.072971,-0.0735593,-0.072972,-0.0735627,-0.0729745,-0.0735674,-0.0729783,-0.0735735,-0.0729836,-0.0735809,-0.0729901,-0.0735896,-0.072998,-0.0735995,-0.0730072,-0.0736107,-0.0730176,-0.073623,-0.0730292,-0.0736365,-0.0730419,-0.0736511,-0.0730558,-0.0736667,-0.0730707,-0.0736834,-0.0730867,-0.073701,-0.0731037,-0.0737197,-0.0731217,-0.0737393,-0.0731406,-0.0737598,-0.0731605,-0.0737811,-0.0731812,-0.0738033,-0.0732028,-0.0738264,-0.0732253,-0.0738502,-0.0732485,-0.0738748,-0.0732725,-0.0739001,-0.0732972,-0.0739261,-0.0733227,-0.0739528,-0.0733488,-0.0739802,-0.0733756,-0.0740082,-0.0734031,-0.0740368,-0.0734311,-0.074066,-0.0734598,-0.0740958,-0.073489,-0.0741261,-0.0735188,-0.0741569,-0.0735491,-0.0741882,-0.0735799,-0.07422,-0.0736112,-0.0742523,-0.0736429,-0.074285,-0.0736751,-0.0743181,-0.0737077,-0.0743517,-0.0737408,-0.0743856,-0.0737742,-0.0744199,-0.073808,-0.0744546,-0.0738422,-0.0744896,-0.0738767,-0.0745249,-0.0739115,-0.0745605,-0.0739467,-0.0745965,-0.0739821,-0.0746327,-0.0740179,-0.0746692,-0.0740539,-0.0747059,-0.0740901,-0.0747429,-0.0741267,-0.0747801,-0.0741634,-0.0748176,-0.0742004,-0.0748552,-0.0742376,-0.0748931,-0.0742749,-0.0749311,-0.0743125,-0.0749693,-0.0743503,-0.0750077,-0.0743882,-0.0750462,-0.0744262,-0.0750849,-0.0744645,-0.0751237,-0.0745028,-0.0751627,-0.0745413,-0.0752017,-0.0745799,-0.0752409,-0.0746186,-0.0752802,-0.0746575,-0.0753196,-0.0746964,-0.075359
-0.00239983,-0.00234284,-0.00228536,-0.00223086,-0.0021838,-0.0021489,-0.00213041,-0.00213147,-0.00215397,-0.00219857,-0.00226478,-0.00235098,-0.00245404,-0.00256828,-0.00268191,-0.00276341,-0.0027411,-0.00269236,-0.00264445,-0.00257,-0.00255848,-0.00236221,-0.00251639,-0.00230698,-0.0024618,-0.00225773,-0.0024134,-0.00221856,-0.00237589,-0.00220007,-0.00235776,-0.00222104,-0.00233314,-0.00221273,-0.00236059,-0.00225824,-0.00240308,-0.00235646,-0.00252322,-0.00242192,-0.00259295,-0.00240441,-0.00259448,-0.00238885,-0.00258196,-0.00236922,-0.00256188,-0.00234306,-0.00253491,-0.00230893,-0.00250058,-0.00226707,-0.00245934,-0.00221881,-0.00241247,-0.00216597,-0.00236166,-0.00211038,-0.00230854,-0.00205355,-0.00225445,-0.00199655,-0.00220028,-0.00193998,-0.00214654,-0.00188416,-0.00209342,-0.00182916,-0.00204098,-0.00177497,-0.00198918,-0.00172154,-0.00193798,-0.00166883,-0.00188734,-0.0016168,-0.00183724,-0.00156545,-0.00178769,-0.00151477,-0.0017387,-0.00146478,-0.00169029,-0.0014155,-0.00164249,-0.00136693,-0.00159533,-0.00131909,-0.00154882,-0.001272,-0.00150297,-0.00122566,-0.0014578,-0.00118006,-0.00141332,-0.00113522,-0.00136952,-0.00109113,-0.0013264,-0.00104778,-0.00128397,-0.00100515,-0.0012422,-0.000963243,-0.0012011,-0.000922037,-0.00116065,-0.000881516,-0.00112083,-0.000841664,-0.00108163,-0.000802464,-0.00104304,-0.000763896,-0.00100504,-0.000725941,-0.000967604,-0.000688581,-0.000930724,-0.000651794,-0.000894379,-0.000615562,-0.000858551,-0.000579865,-0.000823222,-0.000544683,-0.000788373,-0.000509996,-0.000753987,-0.000475785,-0.000720046,-0.000442031,-0.000686532,-0.000408716,-0.000653427,-0.000375821,-0.000620716,-0.000343329,-0.00058838,-0.000311221,-0.000556404,-0.000279482,-0.000524772,-0.000248094,-0.000493468,-0.000217041,-0.000462478,-0.000186308,-0.000431785,-0.00015588,-0.000401377,-0.000125741,-0.000371239,-9.58777e-05,-0.000341357,-6.62763e-05,-0.00031172,-3.69233e-05,-0.000282314,-7.80585e-06,-0.000253126,2.10885e-05,-0.000224146,4.97717e-05,-0.000195362,7.82555e-05,-0.000166763,0.000106551,-0.000138338,0.000134669,-0.000110077,0.000162619,-8.19708e-05,0.000190413,-5.40092e-05,0.000218059,-2.61833e-05,0.000245567,1.51557e-06,0.000272945,2.9096e-05,0.000300202,5.65661e-05,0.000327348,8.39337e-05,0.000354388,0.000111206,0.000381332,0.000138391,0.000408185,0.000165495,0.000434957,0.000192525,0.000461652,0.000219487,0.000488279,0.000246388,0.000514842,0.000273233,0.000541348,0.000300028,0.000567803,0.000326778,0.000594212,0.000353489,0.00062058,0.000380166,0.000646913,0.000406813,0.000673216,0.000433436,0.000699492,0.000460038,0.000725747,0.000486623,0.000751985,0.000513197,0.000778211,0.000539762,0.000804426,0.000566322,0.000830637,0.000592882,0.000856846,0.000619444,0.000883057,0.000646011,0.000909272,0.000672588,0.000935496,0.000699175,0.000961732,0.000725778,0.000987981,0.000752397,0.00101425,0.000779037,0.00104053,0.000805699,0.00106684,0.000832385,0.00109317,0.000859098,0.00111953,0.00088584,0.00114592,0.000912614,0.00117234,0.00093942,0.00119879,0.000966261
0.115531,0.115566,0.115593,0.115611,0.115622,0.115629,0.115633,0.11564,0.115651,0.11567,0.115699,0.115737,0.115784,0.115839,0.115895,0.115937,0.115933,0.115916,0.115898,0.11587,0.115862,0.115799,0.115835,0.11577,0.115803,0.115744,0.115771,0.115719,0.115736,0.115695,0.115694,0.115665,0.115623,0.115587,0.115535,0.11552,0.115465,0.115472,0.115444,0.115491,0.115462,0.115516,0.115455,0.115508,0.115427,0.115482,0.115391,0.115449,0.115353,0.115417,0.115318,0.115387,0.115285,0.11536,0.115256,0.115337,0.11523,0.115315,0.115205,0.115295,0.115182,0.115275,0.115159,0.115256,0.115137,0.115236,0.115114,0.115216,0.115091,0.115197,0.115068,0.115177,0.115045,0.115156,0.115022,0.115136,0.114999,0.115116,0.114976,0.115095,0.114952,0.115074,0.114928,0.115053,0.114905,0.115031,0.114881,0.11501,0.114856,0.114988,0.114832,0.114965,0.114807,0.114943,0.114782,0.11492,0.114757,0.114896,0.114732,0.114873,0.114706,0.114848,0.11468,0.114824,0.114653,0.114799,0.114627,0.114774,0.1146,0.114749,0.114572,0.114723,0.114545,0.114697,0.114517,0.11467,0.114489,0.114644,0.11446,0.114617,0.114432,0.114589,0.114403,0.114561,0.114373,0.114533,0.114344,0.114505,0.114314,0.114476,0.114284,0.114448,0.114254,0.114418,0.114223,0.114389,0.114193,0.114359,0.114162,0.114329,0.114131,0.114299,0.114099,0.114269,0.114068,0.114238,0.114036,0.114207,0.114004,0.114176,0.113972,0.114145,0.11394,0.114114,0.113907,0.114082,0.113875,0.11405,0.113842,0.114019,0.113809,0.113986,0.113776,0.113954,0.113743,0.113922,0.11371,0.113889,0.113677,0.113857,0.113643,0.113824,0.11361,0.113791,0.113576,0.113758,0.113543,0.113725,0.113509,0.113692,0.113475,0.113659,0.113441,0.113625,0.113407,0.113592,0.113373,0.113558,0.113339,0.113525,0.113305,0.113491,0.11327,0.113457,0.113236,0.113424,0.113202,0.11339,0.113167,0.113356,0.113133,0.113322,0.113098,0.113288,0.113064,0.113254,0.11303,0.11322,0.112995,0.113186,0.11296,0.113152,0.112926,0.113118,0.112891,0.113084,0.112857,0.11305,0.112822,0.113016,0.112788,0.112981,0.112753,0.112947,0.112718,0.112913,0.112684,0.112879,0.112649,0.112845,0.112615,0.112811,0.11258,0.112776,0.112546,0.112742,0.112511,0.112708,0.112477,0.112674,0.112442,0.11264,0.112408,0.112606,0.112373,0.112572,0.112339,0.112538,0.112305,0.112504,0.11227
-0.0254286,-0.0240315,-0.0224847,-0.0207941,-0.0189801,-0.0170747,-0.0151146,-0.0131353,-0.0111679,-0.00923938,-0.00737473,-0.00560168,-0.00395916,-0.00251726,-0.00143461,-0.00114442,-0.00241702,-0.00383933,-0.00505698,-0.00645772,-0.00702262,-0.00939431,-0.00760734,-0.00995121,-0.00815217,-0.0104211,-0.00861833,-0.0107828,-0.00900588,-0.0109565,-0.00933068,-0.0108132,-0.0100904,-0.0113908,-0.00996864,-0.0111285,-0.0101579,-0.011075,-0.00979071,-0.0113443,-0.0100984,-0.0122393,-0.0107294,-0.0129364,-0.0113198,-0.0135038,-0.0118457,-0.0140195,-0.0123493,-0.0145309,-0.0128584,-0.0150516,-0.0133797,-0.0155777,-0.013906,-0.0160984,-0.0144257,-0.016603,-0.014928,-0.0170837,-0.0154054,-0.0175368,-0.0158546,-0.0179615,-0.0162751,-0.0183593,-0.0166686,-0.0187322,-0.0170373,-0.0190827,-0.0173837,-0.019413,-0.0177101,-0.0197247,-0.0180181,-0.0200193,-0.0183092,-0.0202979,-0.0185844,-0.0205612,-0.0188444,-0.0208099,-0.01909,-0.0210446,-0.0193216,-0.0212658,-0.0195398,-0.0214738,-0.0197451,-0.0216693,-0.0199377,-0.0218525,-0.0201183,-0.022024,-0.0202872,-0.022184,-0.0204447,-0.0223332,-0.0205914,-0.0224717,-0.0207276,-0.0226001,-0.0208537,-0.0227187,-0.0209702,-0.0228279,-0.0210772,-0.0229281,-0.0211753,-0.0230196,-0.0212648,-0.0231027,-0.021346,-0.0231778,-0.0214193,-0.0232453,-0.0214849,-0.0233054,-0.0215433,-0.0233584,-0.0215945,-0.0234046,-0.0216391,-0.0234444,-0.0216772,-0.0234779,-0.0217091,-0.0235054,-0.0217351,-0.0235272,-0.0217554,-0.0235435,-0.0217702,-0.0235545,-0.0217799,-0.0235605,-0.0217845,-0.0235617,-0.0217843,-0.0235583,-0.0217795,-0.0235505,-0.0217703,-0.0235384,-0.021757,-0.0235223,-0.0217395,-0.0235022,-0.0217183,-0.0234785,-0.0216933,-0.0234512,-0.0216648,-0.0234205,-0.0216329,-0.0233866,-0.0215978,-0.0233496,-0.0215596,-0.0233096,-0.0215184,-0.0232667,-0.0214744,-0.0232211,-0.0214276,-0.0231729,-0.0213783,-0.0231223,-0.0213265,-0.0230692,-0.0212724,-0.0230139,-0.021216,-0.0229564,-0.0211574,-0.0228969,-0.0210967,-0.0228354,-0.0210341,-0.022772,-0.0209696,-0.0227068,-0.0209034,-0.0226399,-0.0208354,-0.0225713,-0.0207658,-0.0225012,-0.0206946,-0.0224296,-0.0206219,-0.0223567,-0.0205479,-0.0222823,-0.0204725,-0.0222067,-0.0203958,-0.0221299,-0.0203179,-0.0220519,-0.0202389,-0.0219728,-0.0201587,-0.0218927,-0.0200776,-0.0218116,-0.0199954,-0.0217295,-0.0199123,-0.0216466,-0.0198283,-0.0215629,-0.0197435,-0.0214783,-0.0196579,-0.021393,-0.0195715,-0.021307,-0.0194844,-0.0212203,-0.0193967,-0.021133,-0.0193084,-0.0210452,-0.0192194,-0.0209567,-0.0191299,-0.0208678,-0.0190399,-0.0207784,-0.0189494,-0.0206885,-0.0188585,-0.0205982,-0.0187671,-0.0205075,-0.0186754,-0.0204165,-0.0185833,-0.0203251,-0.0184908,-0.0202334,-0.0183981,-0.0201415,-0.0183051,-0.0200493,-0.0182118,-0.0199569,-0.0181183,-0.0198642,-0.0180246
0.0604507,0.0608951,0.0614082,0.061993,0.0626476,0.0633652,0.0641358,0.0649482,0.0657909,0.066653,0.0675226,0.0683856,0.069222,0.0699976,0.0706386,0.0709465,0.0705374,0.0700376,0.0695945,0.0689968,0.0687837,0.06751,0.0685094,0.0672008,0.0682225,0.0669445,0.0679874,0.0667748,0.0678274,0.0667706,0.0677689,0.0670442,0.0675636,0.066952,0.0679845,0.06748,0.0684266,0.0682832,0.0694569,0.0689637,0.0701049,0.0690137,0.0703444,0.0691512,0.0705133,0.0692873,0.0706324,0.0693804,0.070699,0.069415,0.0707118,0.0693956,0.0706777,0.0693346,0.0706082,0.069246,0.0705164,0.0691428,0.0704137,0.0690349,0.0703089,0.0689287,0.0702073,0.068828,0.0701119,0.068734,0.0700234,0.0686469,0.0699418,0.0685662,0.0698663,0.0684914,0.0697962,0.0684216,0.0697309,0.0683565,0.0696698,0.0682957,0.0696127,0.0682388,0.0695593,0.0681858,0.0695096,0.0681366,0.0694634,0.068091,0.0694208,0.0680491,0.0693816,0.0680108,0.0693459,0.067976,0.0693136,0.0679447,0.0692847,0.0679169,0.0692591,0.0678925,0.0692367,0.0678713,0.0692176,0.0678534,0.0692015,0.0678386,0.0691884,0.0678268,0.0691783,0.067818,0.069171,0.067812,0.0691665,0.0678088,0.0691646,0.0678082,0.0691653,0.0678102,0.0691684,0.0678146,0.0691739,0.0678214,0.0691816,0.0678304,0.0691915,0.0678416,0.0692036,0.0678549,0.0692176,0.0678702,0.0692335,0.0678874,0.0692512,0.0679063,0.0692707,0.067927,0.0692918,0.0679493,0.0693145,0.0679732,0.0693386,0.0679986,0.0693642,0.0680253,0.0693912,0.0680534,0.0694194,0.0680827,0.0694488,0.0681133,0.0694794,0.0681449,0.069511,0.0681776,0.0695436,0.0682113,0.0695772,0.0682459,0.0696117,0.0682815,0.069647,0.0683178,0.0696831,0.0683549,0.06972,0.0683927,0.0697575,0.0684312,0.0697957,0.0684703,0.0698344,0.06851,0.0698737,0.0685502,0.0699135,0.0685909,0.0699537,0.068632,0.0699943,0.0686736,0.0700354,0.0687155,0.0700768,0.0687578,0.0701185,0.0688003,0.0701604,0.0688431,0.0702026,0.0688862,0.070245,0.0689294,0.0702876,0.0689729,0.0703304,0.0690164,0.0703733,0.0690601,0.0704163,0.0691039,0.0704593,0.0691477,0.0705024,0.0691916,0.0705456,0.0692355,0.0705887,0.0692795,0.0706318,0.0693233,0.0706749,0.0693672,0.070718,0.069411,0.0707609,0.0694547,0.0708038,0.0694983,0.0708465,0.0695418,0.0708892,0.0695851,0.0709317,0.0696284,0.070974,0.0696714,0.0710162,0.0697143,0.0710582,0.069757,0.0711,0.0697995,0.0711415,0.0698418,0.0711829,0.0698838,0.071224,0.0699257,0.0712649,0.0699672,0.0713056,0.0700086,0.071346,0.0700496,0.0713861,0.0700904,0.0714259,0.0701309,0.0714654,0.0701711,0.0715047,0.0702111,0.0715436
0.00842348,0.00892401,0.00949128,0.0101238,0.010814,0.0115493,0.0123148,0.0130957,0.0138791,0.0146539,0.0154099,0.0161361,0.016818,0.0174302,0.0179167,0.0181231,0.0177564,0.0173169,0.0169353,0.0164716,0.0163204,0.0154406,0.0161565,0.0152667,0.0159827,0.0151162,0.015827,0.014992,0.0156829,0.01491,0.0155249,0.0148931,0.0151185,0.014565,0.0150434,0.0145348,0.0148417,0.0144738,0.0149419,0.0144065,0.0148658,0.0141388,0.0146635,0.0139026,0.0144427,0.0136824,0.0142258,0.0134664,0.0140104,0.013249,0.0137939,0.0130304,0.0135769,0.0128133,0.0133618,0.012601,0.0131518,0.0123961,0.0129492,0.0122,0.0127555,0.0120134,0.012571,0.011836,0.0123953,0.0116671,0.0122278,0.0115059,0.0120677,0.0113516,0.0119142,0.0112035,0.0117667,0.0110611,0.0116247,0.0109239,0.0114877,0.0107918,0.0113556,0.0106643,0.0112281,0.0105414,0.011105,0.0104228,0.0109862,0.0103084,0.0108715,0.0101981,0.0107608,0.0100917,0.0106539,0.00998909,0.0105507,0.00989011,0.010451,0.00979464,0.0103549,0.00970256,0.0102621,0.00961374,0.0101724,0.00952805,0.0100859,0.00944537,0.0100023,0.00936559,0.00992163,0.0092886,0.00984367,0.00921428,0.00976835,0.00914253,0.00969557,0.00907325,0.00962523,0.00900633,0.00955723,0.00894169,0.00949149,0.00887923,0.0094279,0.00881887,0.0093664,0.00876052,0.0093069,0.0087041,0.00924931,0.00864953,0.00919357,0.00859675,0.00913959,0.00854567,0.00908732,0.00849624,0.00903669,0.00844839,0.00898763,0.00840205,0.00894008,0.00835716,0.00889399,0.00831367,0.00884929,0.00827153,0.00880594,0.00823067,0.00876388,0.00819106,0.00872307,0.00815264,0.00868345,0.00811537,0.00864498,0.0080792,0.00860762,0.0080441,0.00857133,0.00801001,0.00853606,0.00797691,0.00850178,0.00794475,0.00846846,0.0079135,0.00843605,0.00788313,0.00840453,0.0078536,0.00837386,0.00782488,0.00834401,0.00779695,0.00831495,0.00776977,0.00828666,0.00774331,0.0082591,0.00771756,0.00823225,0.00769248,0.00820609,0.00766805,0.00818058,0.00764425,0.00815571,0.00762105,0.00813146,0.00759844,0.0081078,0.00757638,0.00808472,0.00755487,0.00806218,0.00753389,0.00804018,0.00751341,0.0080187,0.00749341,0.00799772,0.00747389,0.00797721,0.00745482,0.00795717,0.00743618,0.00793758,0.00741798,0.00791842,0.00740018,0.00789968,0.00738277,0.00788135,0.00736574,0.00786341,0.00734909,0.00784584,0.00733278,0.00782864,0.00731682,0.0078118,0.00730119,0.00779529,0.00728589,0.00777912,0.00727089,0.00776327,0.00725618,0.00774772,0.00724177,0.00773247,0.00722764,0.00771751,0.00721377,0.00770283,0.00720017,0.00768842,0.00718681,0.00767427,0.0071737,0.00766037,0.00716082,0.00764672,0.00714817,0.0076333,0.00713573,0.00762011,0.00712351,0.00760714,0.00711149,0.00759438,0.00709967,0.00758183
0.0758709,0.0758335,0.0757874,0.0757329,0.0756712,0.0756047,0.0755364,0.0754693,0.075406,0.0753488,0.0752994,0.0752593,0.0752295,0.0752111,0.0752051,0.0752121,0.0752253,0.0752349,0.0752411,0.0752386,0.0752503,0.0752029,0.0752509,0.0751941,0.0752409,0.075186,0.0752304,0.075179,0.0752206,0.0751752,0.0752131,0.075178,0.0751954,0.0751694,0.0751667,0.0751593,0.0751466,0.0751657,0.0751429,0.075206,0.0751754,0.0752609,0.0752,0.0753032,0.0752209,0.0753336,0.0752374,0.0753591,0.0752531,0.0753848,0.0752704,0.0754128,0.0752903,0.0754435,0.0753128,0.0754766,0.0753377,0.0755115,0.0753644,0.0755477,0.0753924,0.0755847,0.0754214,0.0756224,0.0754512,0.0756606,0.0754816,0.0756992,0.0755127,0.0757381,0.0755444,0.0757774,0.0755766,0.0758169,0.0756093,0.0758566,0.0756423,0.0758965,0.0756757,0.0759364,0.0757093,0.0759762,0.075743,0.0760159,0.0757767,0.0760555,0.0758104,0.0760947,0.075844,0.0761337,0.0758775,0.0761724,0.0759107,0.0762106,0.0759437,0.0762485,0.0759765,0.0762859,0.0760088,0.0763228,0.0760409,0.0763593,0.0760726,0.0763952,0.0761039,0.0764307,0.0761348,0.0764656,0.0761653,0.0765001,0.0761954,0.076534,0.076225,0.0765674,0.0762543,0.0766003,0.0762831,0.0766327,0.0763116,0.0766645,0.0763396,0.0766959,0.0763672,0.0767268,0.0763944,0.0767572,0.0764212,0.0767871,0.0764475,0.0768165,0.0764736,0.0768455,0.0764992,0.0768741,0.0765244,0.0769022,0.0765493,0.0769299,0.0765738,0.0769571,0.076598,0.076984,0.0766218,0.0770104,0.0766453,0.0770365,0.0766685,0.0770622,0.0766913,0.0770875,0.0767139,0.0771125,0.0767361,0.0771371,0.0767581,0.0771614,0.0767798,0.0771854,0.0768012,0.077209,0.0768224,0.0772324,0.0768433,0.0772554,0.0768639,0.0772782,0.0768843,0.0773007,0.0769045,0.0773229,0.0769244,0.0773448,0.0769442,0.0773666,0.0769637,0.077388,0.076983,0.0774093,0.0770022,0.0774303,0.0770211,0.0774511,0.0770399,0.0774716,0.0770585,0.077492,0.0770769,0.0775122,0.0770952,0.0775322,0.0771133,0.077552,0.0771313,0.0775716,0.0771491,0.0775911,0.0771668,0.0776104,0.0771844,0.0776296,0.0772018,0.0776486,0.0772191,0.0776674,0.0772363,0.0776861,0.0772534,0.0777047,0.0772704,0.0777232,0.0772873,0.0777415,0.0773041,0.0777597,0.0773208,0.0777778,0.0773374,0.0777958,0.0773539,0.0778137,0.0773703,0.0778315,0.0773867,0.0778492,0.077403,0.0778668,0.0774193,0.0778844,0.0774354,0.0779018,0.0774515,0.0779192,0.0774676,0.0779365,0.0774836,0.0779537,0.0774996,0.0779709,0.0775155,0.077988,0.0775313,0.078005,0.0775471,0.078022,0.0775629,0.0780389,0.0775787,0.0780558,0.0775944,0.0780726,0.0776101
0.0111872,0.0110416,0.0108733,0.0106824,0.0104712,0.0102438,0.0100052,0.0097603,0.00951349,0.00926832,0.00902774,0.00879448,0.0085719,0.00836569,0.00818953,0.00808577,0.00815184,0.00823228,0.00828886,0.00839981,0.0083428,0.0088354,0.00825874,0.0088485,0.00823218,0.0088276,0.00816938,0.00873782,0.0080331,0.00850717,0.00775942,0.00802383,0.00739615,0.00757314,0.00665201,0.0067706,0.00582975,0.0056306,0.0046996,0.00464652,0.0037883,0.0041601,0.00321439,0.00366081,0.00272981,0.00322258,0.00232853,0.00285728,0.00199703,0.00256013,0.00172403,0.002319,0.00149802,0.00212064,0.00130775,0.0019528,0.00114296,0.00180514,0.000994954,0.00166966,0.000857069,0.00154083,0.000724754,0.00141524,0.0005953,0.00129113,0.000467371,0.00116779,0.00034049,0.0010451,0.000214624,0.000923193,8.99076e-05,0.000802272,-3.35094e-05,0.000682496,-0.000155532,0.000563956,-0.000276135,0.000446671,-0.000395352,0.000330606,-0.000513259,0.000215684,-0.000629958,0.000101813,-0.000745564,-1.11126e-05,-0.000860192,-0.000123196,-0.000973951,-0.000234535,-0.00108694,-0.00034522,-0.00119926,-0.00045533,-0.00131097,-0.000564933,-0.00142216,-0.00067409,-0.00153288,-0.000782852,-0.00164318,-0.00089126,-0.0017531,-0.00099935,-0.00186269,-0.00110715,-0.00197196,-0.00121469,-0.00208094,-0.00132198,-0.00218966,-0.00142904,-0.00229813,-0.00153588,-0.00240635,-0.00164251,-0.00251435,-0.00174894,-0.00262212,-0.00185517,-0.00272968,-0.0019612,-0.00283703,-0.00206704,-0.00294416,-0.00217268,-0.00305107,-0.00227812,-0.00315778,-0.00238336,-0.00326427,-0.00248839,-0.00337054,-0.00259322,-0.00347659,-0.00269783,-0.00358241,-0.00280222,-0.00368801,-0.0029064,-0.00379337,-0.00301034,-0.00389849,-0.00311405,-0.00400337,-0.00321752,-0.004108,-0.00332074,-0.00421237,-0.00342371,-0.00431648,-0.00352643,-0.00442033,-0.00362888,-0.0045239,-0.00373106,-0.0046272,-0.00383297,-0.00473022,-0.0039346,-0.00483295,-0.00403595,-0.0049354,-0.004137,-0.00503754,-0.00423776,-0.00513939,-0.00433823,-0.00524093,-0.00443839,-0.00534216,-0.00453824,-0.00544307,-0.00463777,-0.00554367,-0.004737,-0.00564395,-0.0048359,-0.00574391,-0.00493448,-0.00584353,-0.00503273,-0.00594283,-0.00513065,-0.00604179,-0.00522824,-0.00614041,-0.0053255,-0.0062387,-0.00542241,-0.00633664,-0.00551899,-0.00643424,-0.00561522,-0.00653149,-0.0057111,-0.00662839,-0.00580664,-0.00672494,-0.00590183,-0.00682114,-0.00599667,-0.00691698,-0.00609116,-0.00701247,-0.00618529,-0.0071076,-0.00627907,-0.00720237,-0.00637249,-0.00729679,-0.00646555,-0.00739084,-0.00655826,-0.00748453,-0.0066506,-0.00757786,-0.00674259,-0.00767083,-0.00683422,-0.00776344,-0.00692549,-0.00785568,-0.00701639,-0.00794756,-0.00710694,-0.00803908,-0.00719712,-0.00813023,-0.00728694,-0.00822102,-0.0073764,-0.00831145,-0.0074655,-0.00840151,-0.00755424,-0.00849121,-0.00764262,-0.00858054,-0.00773064,-0.00866952,-0.0078183,-0.00875813,-0.0079056,-0.00884638,-0.00799254,-0.00893427,-0.00807912,-0.0090218
0.219203,0.219139,0.219058,0.218961,0.21885,0.218729,0.218603,0.218478,0.218357,0.218243,0.218138,0.218045,0.217963,0.217893,0.217833,0.217787,0.217766,0.217738,0.217698,0.217656,0.217583,0.217626,0.217515,0.217591,0.21748,0.217563,0.217448,0.21754,0.217417,0.217519,0.21738,0.217491,0.217352,0.217459,0.217341,0.217437,0.21734,0.217398,0.217303,0.217316,0.21722,0.217243,0.217154,0.217183,0.2171,0.217137,0.217057,0.2171,0.21702,0.217066,0.216985,0.217035,0.21695,0.217003,0.216916,0.216972,0.216881,0.216941,0.216847,0.21691,0.216812,0.216879,0.216778,0.216849,0.216744,0.216819,0.216711,0.21679,0.216678,0.216761,0.216646,0.216733,0.216615,0.216705,0.216584,0.216677,0.216554,0.21665,0.216524,0.216623,0.216494,0.216596,0.216465,0.21657,0.216436,0.216543,0.216407,0.216518,0.216379,0.216492,0.216351,0.216466,0.216323,0.216441,0.216295,0.216415,0.216268,0.21639,0.21624,0.216365,0.216213,0.21634,0.216185,0.216314,0.216158,0.216289,0.216131,0.216265,0.216104,0.21624,0.216077,0.216215,0.21605,0.21619,0.216023,0.216165,0.215996,0.21614,0.21597,0.216115,0.215943,0.21609,0.215916,0.216065,0.215889,0.21604,0.215862,0.216015,0.215835,0.215989,0.215808,0.215964,0.215782,0.215939,0.215755,0.215914,0.215728,0.215888,0.2157,0.215863,0.215673,0.215837,0.215646,0.215812,0.215619,0.215786,0.215592,0.21576,0.215565,0.215735,0.215537,0.215709,0.21551,0.215683,0.215482,0.215657,0.215455,0.215631,0.215427,0.215604,0.215399,0.215578,0.215372,0.215552,0.215344,0.215525,0.215316,0.215499,0.215288,0.215472,0.21526,0.215446,0.215232,0.215419,0.215204,0.215392,0.215176,0.215365,0.215147,0.215338,0.215119,0.215311,0.215091,0.215284,0.215062,0.215256,0.215033,0.215229,0.215005,0.215202,0.214976,0.215174,0.214947,0.215146,0.214918,0.215119,0.214889,0.215091,0.21486,0.215063,0.214831,0.215035,0.214802,0.215007,0.214773,0.214979,0.214744,0.214951,0.214714,0.214922,0.214685,0.214894,0.214655,0.214866,0.214626,0.214837,0.214596,0.214808,0.214566,0.21478,0.214536,0.214751,0.214507,0.214722,0.214477,0.214693,0.214447,0.214664,0.214416,0.214635,0.214386,0.214606,0.214356,0.214577,0.214326,0.214547,0.214295,0.214518,0.214265,0.214489,0.214235,0.214459,0.214204,0.214429,0.214173,0.2144,0.214143,0.21437,0.214112,0.21434,0.214081
-0.0379926,-0.0379144,-0.0378523,-0.0378122,-0.0377991,-0.0378159,-0.0378629,-0.0379388,-0.0380407,-0.0381658,-0.0383107,-0.0384728,-0.0386494,-0.038838,-0.0390343,-0.0392214,-0.0393287,-0.0394071,-0.0394937,-0.0395819,-0.0397897,-0.0395973,-0.0399915,-0.0396577,-0.0400743,-0.039701,-0.0401441,-0.0397322,-0.0402162,-0.0397593,-0.0403172,-0.0398216,-0.0404172,-0.0399805,-0.0406662,-0.040235,-0.040979,-0.0407665,-0.0415127,-0.0412761,-0.0420033,-0.0416528,-0.0423818,-0.0420021,-0.042703,-0.0423058,-0.04298,-0.0425688,-0.0432228,-0.0427972,-0.0434383,-0.0429961,-0.0436312,-0.0431703,-0.0438049,-0.0433241,-0.0439624,-0.0434616,-0.0441067,-0.0435869,-0.0442408,-0.0437037,-0.0443673,-0.0438147,-0.0444884,-0.0439218,-0.0446054,-0.0440261,-0.0447192,-0.0441283,-0.0448303,-0.0442286,-0.0449391,-0.0443273,-0.0450455,-0.0444241,-0.0451498,-0.0445193,-0.045252,-0.0446127,-0.0453521,-0.0447044,-0.0454503,-0.0447944,-0.0455465,-0.0448829,-0.045641,-0.0449698,-0.0457338,-0.0450552,-0.045825,-0.0451393,-0.0459148,-0.0452221,-0.0460031,-0.0453037,-0.0460901,-0.0453842,-0.0461759,-0.0454637,-0.0462606,-0.0455422,-0.0463442,-0.0456198,-0.0464268,-0.0456965,-0.0465085,-0.0457725,-0.0465893,-0.0458478,-0.0466693,-0.0459224,-0.0467487,-0.0459964,-0.0468273,-0.0460698,-0.0469053,-0.0461427,-0.0469827,-0.0462152,-0.0470596,-0.0462872,-0.047136,-0.0463588,-0.0472119,-0.04643,-0.0472874,-0.046501,-0.0473625,-0.0465716,-0.0474373,-0.0466419,-0.0475117,-0.046712,-0.0475859,-0.0467819,-0.0476598,-0.0468516,-0.0477335,-0.0469211,-0.0478069,-0.0469904,-0.0478802,-0.0470597,-0.0479533,-0.0471288,-0.0480262,-0.0471979,-0.0480991,-0.0472669,-0.0481718,-0.0473358,-0.0482445,-0.0474047,-0.0483171,-0.0474736,-0.0483896,-0.0475424,-0.0484621,-0.0476113,-0.0485346,-0.0476802,-0.048607,-0.0477491,-0.0486795,-0.0478181,-0.048752,-0.0478871,-0.0488245,-0.0479562,-0.0488971,-0.0480254,-0.0489697,-0.0480946,-0.0490424,-0.048164,-0.0491151,-0.0482335,-0.049188,-0.048303,-0.0492609,-0.0483727,-0.0493339,-0.0484425,-0.0494071,-0.0485125,-0.0494803,-0.0485826,-0.0495537,-0.0486529,-0.0496272,-0.0487233,-0.0497009,-0.0487938,-0.0497747,-0.0488646,-0.0498486,-0.0489355,-0.0499227,-0.0490066,-0.049997,-0.0490779,-0.0500714,-0.0491493,-0.050146,-0.049221,-0.0502207,-0.0492928,-0.0502957,-0.0493649,-0.0503708,-0.0494371,-0.0504462,-0.0495096,-0.0505217,-0.0495823,-0.0505974,-0.0496552,-0.0506733,-0.0497283,-0.0507494,-0.0498016,-0.0508258,-0.0498751,-0.0509023,-0.0499489,-0.050979,-0.0500229,-0.051056,-0.0500971,-0.0511332,-0.0501716,-0.0512106,-0.0502463,-0.0512882,-0.0503212,-0.051366,-0.0503964,-0.0514441,-0.0504718,-0.0515224,-0.0505475,-0.0516009,-0.0506233,-0.0516796,-0.0506995,-0.0517586,-0.0507759,-0.0518378,-0.0508525,-0.0519173
0.0220353,0.0217744,0.0214939,0.0211937,0.0208746,0.0205374,0.0201832,0.0198123,0.0194248,0.0190209,0.0186006,0.0181646,0.0177142,0.0172525,0.0167883,0.0163595,0.0161175,0.0159799,0.0158704,0.0157837,0.0155988,0.0158044,0.0154959,0.0158037,0.0154984,0.015827,0.0155214,0.0158715,0.0155567,0.0159351,0.0155942,0.0160039,0.0156905,0.0161233,0.0157849,0.0162606,0.0159683,0.0164529,0.0160519,0.0166485,0.0161775,0.0167799,0.0162879,0.0168947,0.0163898,0.0169817,0.0164697,0.0170483,0.0165353,0.0171046,0.0165941,0.0171588,0.0166518,0.017216,0.0167119,0.0172787,0.0167767,0.0173478,0.0168467,0.0174229,0.0169216,0.017503,0.0170008,0.0175871,0.0170833,0.017674,0.0171682,0.0177629,0.0172549,0.017853,0.0173427,0.0179437,0.0174311,0.0180348,0.0175198,0.0181259,0.0176085,0.0182167,0.017697,0.018307,0.0177852,0.0183969,0.0178728,0.018486,0.0179598,0.0185745,0.0180461,0.0186621,0.0181316,0.0187489,0.0182163,0.0188347,0.0183002,0.0189196,0.0183831,0.0190036,0.0184651,0.0190865,0.0185461,0.0191685,0.0186261,0.0192493,0.0187052,0.0193292,0.0187832,0.0194079,0.0188601,0.0194856,0.018936,0.0195622,0.0190109,0.0196377,0.0190847,0.0197121,0.0191574,0.0197854,0.0192291,0.0198577,0.0192998,0.0199288,0.0193694,0.0199989,0.0194379,0.0200679,0.0195054,0.0201359,0.0195719,0.0202028,0.0196373,0.0202686,0.0197017,0.0203334,0.0197652,0.0203972,0.0198276,0.02046,0.019889,0.0205218,0.0199495,0.0205826,0.0200091,0.0206425,0.0200676,0.0207014,0.0201253,0.0207593,0.020182,0.0208163,0.0202378,0.0208724,0.0202927,0.0209276,0.0203468,0.0209818,0.0204,0.0210352,0.0204523,0.0210878,0.0205037,0.0211395,0.0205544,0.0211903,0.0206042,0.0212403,0.0206532,0.0212895,0.0207014,0.021338,0.0207489,0.0213856,0.0207955,0.0214324,0.0208415,0.0214785,0.0208866,0.0215238,0.0209311,0.0215684,0.0209748,0.0216123,0.0210178,0.0216555,0.0210601,0.0216979,0.0211017,0.0217397,0.0211427,0.0217808,0.0211829,0.0218212,0.0212226,0.021861,0.0212615,0.0219001,0.0212999,0.0219386,0.0213376,0.0219764,0.0213747,0.0220136,0.0214112,0.0220503,0.0214471,0.0220863,0.0214825,0.0221217,0.0215172,0.0221566,0.0215514,0.0221909,0.021585,0.0222247,0.0216181,0.0222578,0.0216506,0.0222905,0.0216827,0.0223226,0.0217141,0.0223542,0.0217451,0.0223853,0.0217756,0.0224159,0.0218055,0.0224459,0.021835,0.0224755,0.021864,0.0225046,0.0218925,0.0225332,0.0219205,0.0225614,0.0219481,0.0225891,0.0219752,0.0226163,0.0220019,0.0226431,0.0220282,0.0226694,0.022054,0.0226954,0.0220793,0.0227208,0.0221043,0.0227459,0.0221288,0.0227706,0.0221529
-0.0186911,-0.0186237,-0.0185555,-0.0184902,-0.0184332,-0.0183901,-0.018366,-0.018365,-0.0183897,-0.0184419,-0.0185222,-0.0186307,-0.0187667,-0.0189289,-0.0191137,-0.0193058,-0.0194338,-0.0195222,-0.0196042,-0.0196791,-0.0198116,-0.0197096,-0.0198881,-0.0197154,-0.0198907,-0.0197022,-0.0198758,-0.0196694,-0.0198468,-0.0196138,-0.0198066,-0.0195411,-0.0197176,-0.0194619,-0.0196184,-0.019356,-0.0194902,-0.0192689,-0.0194479,-0.0191936,-0.0194044,-0.0191358,-0.0193444,-0.0190685,-0.0192756,-0.0189995,-0.0192076,-0.0189324,-0.0191415,-0.018867,-0.0190767,-0.018802,-0.019012,-0.0187359,-0.0189462,-0.0186678,-0.0188787,-0.0185974,-0.018809,-0.0185246,-0.0187372,-0.0184499,-0.0186636,-0.0183736,-0.0185885,-0.0182962,-0.0185123,-0.0182179,-0.0184351,-0.0181392,-0.0183574,-0.0180601,-0.0182793,-0.0179809,-0.018201,-0.0179016,-0.0181227,-0.0178225,-0.0180443,-0.0177436,-0.0179661,-0.0176648,-0.0178881,-0.0175864,-0.0178103,-0.0175083,-0.0177327,-0.0174306,-0.0176555,-0.0173532,-0.0175787,-0.0172762,-0.0175022,-0.0171996,-0.0174261,-0.0171235,-0.0173503,-0.0170478,-0.017275,-0.0169726,-0.0172001,-0.0168978,-0.0171256,-0.0168234,-0.0170516,-0.0167495,-0.016978,-0.0166761,-0.0169048,-0.0166032,-0.0168321,-0.0165307,-0.0167598,-0.0164587,-0.016688,-0.0163871,-0.0166165,-0.016316,-0.0165456,-0.0162454,-0.016475,-0.0161752,-0.0164049,-0.0161054,-0.0163353,-0.0160361,-0.016266,-0.0159672,-0.0161972,-0.0158988,-0.0161288,-0.0158307,-0.0160608,-0.0157631,-0.0159931,-0.015696,-0.0159259,-0.0156292,-0.0158591,-0.0155628,-0.0157927,-0.0154968,-0.0157266,-0.0154312,-0.015661,-0.015366,-0.0155957,-0.0153011,-0.0155307,-0.0152366,-0.0154661,-0.0151725,-0.0154019,-0.0151088,-0.015338,-0.0150453,-0.0152745,-0.0149823,-0.0152113,-0.0149196,-0.0151484,-0.0148572,-0.0150858,-0.0147951,-0.0150236,-0.0147334,-0.0149617,-0.0146719,-0.0149001,-0.0146108,-0.0148388,-0.01455,-0.0147777,-0.0144895,-0.014717,-0.0144293,-0.0146566,-0.0143694,-0.0145964,-0.0143097,-0.0145366,-0.0142504,-0.014477,-0.0141913,-0.0144177,-0.0141325,-0.0143586,-0.0140739,-0.0142998,-0.0140157,-0.0142413,-0.0139577,-0.014183,-0.0138999,-0.014125,-0.0138424,-0.0140672,-0.0137851,-0.0140097,-0.0137281,-0.0139524,-0.0136713,-0.0138953,-0.0136148,-0.0138384,-0.0135584,-0.0137818,-0.0135023,-0.0137254,-0.0134465,-0.0136693,-0.0133908,-0.0136133,-0.0133354,-0.0135576,-0.0132802,-0.0135021,-0.0132252,-0.0134468,-0.0131704,-0.0133916,-0.0131158,-0.0133367,-0.0130614,-0.013282,-0.0130072,-0.0132275,-0.0129532,-0.0131732,-0.0128994,-0.0131191,-0.0128458,-0.0130651,-0.0127924,-0.0130114,-0.0127391,-0.0129578,-0.0126861,-0.0129044,-0.0126332,-0.0128512,-0.0125805,-0.0127981,-0.0125279,-0.0127452,-0.0124756,-0.0126925,-0.0124234,-0.01264,-0.0123713,-0.0125876
0.0266442,0.0266854,0.0267172,0.0267392,0.0267526,0.0267602,0.026766,0.026774,0.0267882,0.0268119,0.0268473,0.0268963,0.0269594,0.0270367,0.0271266,0.0272218,0.0272871,0.0273255,0.0273527,0.027373,0.0274075,0.0273751,0.0274153,0.0273643,0.0273997,0.0273471,0.0273758,0.0273221,0.0273412,0.0272855,0.0272876,0.0272293,0.0271892,0.0271358,0.0270765,0.0270563,0.0269958,0.0270265,0.0269944,0.0270767,0.0270371,0.0271118,0.0270436,0.0271161,0.0270288,0.0271018,0.0270035,0.0270789,0.0269749,0.0270539,0.0269468,0.0270299,0.0269207,0.0270083,0.0268972,0.0269893,0.0268764,0.0269727,0.026858,0.0269583,0.0268415,0.0269457,0.0268268,0.0269344,0.0268133,0.0269243,0.0268008,0.026915,0.0267892,0.0269064,0.0267783,0.0268984,0.0267681,0.0268909,0.0267584,0.0268839,0.0267491,0.0268771,0.0267403,0.0268707,0.0267317,0.0268646,0.0267236,0.0268586,0.0267156,0.0268529,0.0267079,0.0268473,0.0267005,0.0268418,0.0266932,0.0268364,0.026686,0.0268312,0.0266789,0.0268259,0.026672,0.0268207,0.0266651,0.0268155,0.0266583,0.0268104,0.0266516,0.0268052,0.0266448,0.0268,0.0266381,0.0267947,0.0266314,0.0267894,0.0266246,0.026784,0.0266179,0.0267786,0.0266111,0.0267731,0.0266043,0.0267675,0.0265974,0.0267618,0.0265904,0.026756,0.0265834,0.0267502,0.0265764,0.0267442,0.0265692,0.0267381,0.026562,0.0267319,0.0265547,0.0267256,0.0265473,0.0267192,0.0265399,0.0267126,0.0265323,0.026706,0.0265246,0.0266992,0.0265169,0.0266923,0.026509,0.0266852,0.0265011,0.0266781,0.026493,0.0266708,0.0264849,0.0266634,0.0264766,0.0266558,0.0264682,0.0266482,0.0264598,0.0266404,0.0264512,0.0266325,0.0264425,0.0266244,0.0264337,0.0266163,0.0264248,0.026608,0.0264158,0.0265996,0.0264067,0.026591,0.0263975,0.0265824,0.0263882,0.0265736,0.0263788,0.0265647,0.0263692,0.0265557,0.0263596,0.0265466,0.0263499,0.0265373,0.02634,0.0265279,0.0263301,0.0265185,0.02632,0.0265089,0.0263099,0.0264991,0.0262996,0.0264893,0.0262893,0.0264794,0.0262788,0.0264693,0.0262683,0.0264592,0.0262577,0.0264489,0.0262469,0.0264386,0.0262361,0.0264281,0.0262251,0.0264175,0.0262141,0.0264068,0.026203,0.026396,0.0261918,0.0263852,0.0261804,0.0263742,0.026169,0.0263631,0.0261576,0.0263519,0.026146,0.0263406,0.0261343,0.0263293,0.0261225,0.0263178,0.0261107,0.0263062,0.0260988,0.0262946,0.0260868,0.0262829,0.0260747,0.026271,0.0260625,0.0262591,0.0260502,0.0262471,0.0260379,0.026235,0.0260254,0.0262229,0.0260129,0.0262106,0.0260003,0.0261983,0.0259877,0.0261858,0.0259749,0.0261733,0.0259621,0.0261608,0.0259492,0.0261481,0.0259363
-0.0274929,-0.0258001,-0.0239368,-0.0219103,-0.0197433,-0.0174696,-0.0151267,-0.0127488,-0.0103629,-0.00798888,-0.00564123,-0.00333137,-0.00107195,0.00111327,0.00315491,0.00478643,0.00520773,0.00524007,0.00532455,0.00539834,0.00622044,0.00480474,0.00674529,0.00479546,0.00670571,0.00461244,0.00649967,0.00421885,0.00610481,0.00353618,0.00543271,0.00255095,0.00385069,0.00101645,0.00240441,-0.000596568,9.09896e-05,-0.00306627,-0.00186895,-0.00545274,-0.00402251,-0.00719627,-0.00574368,-0.0088711,-0.00736408,-0.0103746,-0.0088036,-0.0117178,-0.0101041,-0.0129362,-0.0113023,-0.0140632,-0.0124243,-0.0151225,-0.0134874,-0.0161299,-0.014503,-0.0170958,-0.0154787,-0.018027,-0.0164199,-0.0189282,-0.0173304,-0.0198024,-0.0182132,-0.0206519,-0.0190702,-0.0214782,-0.0199031,-0.0222825,-0.0207131,-0.0230656,-0.0215013,-0.0238285,-0.0222684,-0.0245716,-0.0230153,-0.0252957,-0.0237426,-0.0260014,-0.0244512,-0.0266893,-0.0251417,-0.0273602,-0.0258148,-0.0280146,-0.0264712,-0.0286532,-0.0271117,-0.0292766,-0.0277367,-0.0298855,-0.0283471,-0.0304804,-0.0289433,-0.0310618,-0.0295259,-0.0316304,-0.0300956,-0.0321866,-0.0306527,-0.0327309,-0.0311979,-0.0332638,-0.0317315,-0.0337857,-0.032254,-0.034297,-0.0327659,-0.0347981,-0.0332675,-0.0352895,-0.0337593,-0.0357714,-0.0342415,-0.0362443,-0.0347147,-0.0367085,-0.035179,-0.0371642,-0.0356349,-0.0376118,-0.0360825,-0.0380516,-0.0365223,-0.0384838,-0.0369546,-0.0389088,-0.0373794,-0.0393268,-0.0377973,-0.0397379,-0.0382083,-0.0401425,-0.0386127,-0.0405408,-0.0390107,-0.040933,-0.0394026,-0.0413193,-0.0397886,-0.0416999,-0.0401688,-0.0420749,-0.0405434,-0.0424446,-0.0409127,-0.0428092,-0.0412768,-0.0431687,-0.0416359,-0.0435234,-0.0419901,-0.0438734,-0.0423395,-0.0442188,-0.0426844,-0.0445598,-0.0430248,-0.0448966,-0.043361,-0.0452291,-0.043693,-0.0455577,-0.0440209,-0.0458824,-0.0443449,-0.0462032,-0.044665,-0.0465204,-0.0449815,-0.046834,-0.0452944,-0.0471441,-0.0456037,-0.0474508,-0.0459097,-0.0477542,-0.0462124,-0.0480545,-0.0465118,-0.0483516,-0.0468081,-0.0486456,-0.0471014,-0.0489368,-0.0473917,-0.049225,-0.0476791,-0.0495105,-0.0479636,-0.0497932,-0.0482455,-0.0500732,-0.0485247,-0.0503507,-0.0488012,-0.0506256,-0.0490752,-0.0508981,-0.0493468,-0.0511682,-0.0496159,-0.0514359,-0.0498826,-0.0517013,-0.0501471,-0.0519644,-0.0504093,-0.0522254,-0.0506693,-0.0524842,-0.0509271,-0.052741,-0.0511828,-0.0529957,-0.0514365,-0.0532484,-0.0516882,-0.0534991,-0.0519379,-0.053748,-0.0521857,-0.0539949,-0.0524316,-0.05424,-0.0526757,-0.0544834,-0.0529179,-0.054725,-0.0531584,-0.0549648,-0.0533972,-0.055203,-0.0536343,-0.0554395,-0.0538697,-0.0556744,-0.0541035,-0.0559078,-0.0543357,-0.0561395,-0.0545664,-0.0563698,-0.0547955,-0.0565986,-0.0550231,-0.0568258,-0.0552493,-0.0570517,-0.055474
0.0143288,0.0148757,0.0155038,0.016217,0.0170137,0.0178876,0.0188293,0.0198287,0.020877,0.0219665,0.023091,0.0242447,0.0254219,0.0266137,0.0277979,0.0288774,0.0294713,0.0298679,0.0302413,0.0305589,0.0312148,0.0305571,0.0316675,0.0306397,0.0317536,0.0306357,0.0317658,0.0305537,0.0317299,0.0303957,0.0316692,0.0302161,0.0313653,0.0299542,0.0312551,0.0297867,0.0310495,0.0298461,0.0313841,0.0300478,0.031702,0.0302818,0.0319586,0.03051,0.0321424,0.0307124,0.0322936,0.0308853,0.032416,0.0310248,0.03251,0.0311282,0.0325753,0.0311955,0.0326121,0.0312293,0.0326224,0.0312343,0.0326098,0.031216,0.0325787,0.0311804,0.0325337,0.0311323,0.0324786,0.0310756,0.0324163,0.0310128,0.032349,0.030946,0.0322781,0.0308761,0.0322045,0.030804,0.0321288,0.0307301,0.0320516,0.0306549,0.0319731,0.0305787,0.0318937,0.0305015,0.0318136,0.0304237,0.0317329,0.0303453,0.0316519,0.0302666,0.0315706,0.0301877,0.0314892,0.0301087,0.0314079,0.0300297,0.0313268,0.0299509,0.0312458,0.0298722,0.0311653,0.029794,0.0310851,0.0297161,0.0310055,0.0296387,0.0309264,0.0295619,0.0308479,0.0294856,0.0307701,0.02941,0.030693,0.0293351,0.0306166,0.0292609,0.030541,0.0291875,0.0304662,0.0291148,0.0303922,0.029043,0.0303191,0.0289719,0.0302468,0.0289017,0.0301754,0.0288324,0.0301048,0.0287639,0.0300352,0.0286962,0.0299664,0.0286294,0.0298985,0.0285635,0.0298314,0.0284984,0.0297653,0.0284342,0.0297,0.0283709,0.0296355,0.0283084,0.029572,0.0282467,0.0295093,0.0281859,0.0294474,0.0281259,0.0293864,0.0280667,0.0293262,0.0280083,0.0292668,0.0279508,0.0292082,0.027894,0.0291504,0.027838,0.0290934,0.0277828,0.0290372,0.0277283,0.0289818,0.0276746,0.0289271,0.0276216,0.0288731,0.0275694,0.0288199,0.0275179,0.0287674,0.0274671,0.0287157,0.027417,0.0286646,0.0273676,0.0286142,0.0273188,0.0285645,0.0272707,0.0285154,0.0272233,0.028467,0.0271765,0.0284193,0.0271304,0.0283722,0.0270849,0.0283257,0.0270399,0.0282799,0.0269956,0.0282346,0.0269519,0.02819,0.0269088,0.0281459,0.0268662,0.0281024,0.0268243,0.0280594,0.0267828,0.0280171,0.0267419,0.0279752,0.0267016,0.027934,0.0266618,0.0278932,0.0266225,0.027853,0.0265837,0.0278133,0.0265454,0.027774,0.0265077,0.0277353,0.0264704,0.0276971,0.0264335,0.0276594,0.0263972,0.0276221,0.0263613,0.0275853,0.0263259,0.0275489,0.0262909,0.027513,0.0262564,0.0274776,0.0262223,0.0274426,0.0261886,0.027408,0.0261554,0.0273738,0.0261226,0.0273401,0.0260902,0.0273068,0.0260582,0.0272738,0.0260265,0.0272413,0.0259953,0.0272092,0.0259645,0.0271774,0.025934,0.027146
-0.117766,-0.117161,-0.116476,-0.115714,-0.114883,-0.113997,-0.11307,-0.112118,-0.111152,-0.110181,-0.109213,-0.108252,-0.107304,-0.106378,-0.105494,-0.104743,-0.104422,-0.104254,-0.10409,-0.103955,-0.103546,-0.104054,-0.10326,-0.103995,-0.103214,-0.104003,-0.103231,-0.104084,-0.103312,-0.104263,-0.103482,-0.104534,-0.103959,-0.10495,-0.104321,-0.105325,-0.10485,-0.105739,-0.105085,-0.106022,-0.105313,-0.106197,-0.105504,-0.10639,-0.105719,-0.106582,-0.105926,-0.106768,-0.106123,-0.106946,-0.10631,-0.107117,-0.10649,-0.107285,-0.106665,-0.10745,-0.106837,-0.107614,-0.107006,-0.107776,-0.107172,-0.107936,-0.107336,-0.108094,-0.107498,-0.10825,-0.107656,-0.108403,-0.107812,-0.108553,-0.107965,-0.1087,-0.108116,-0.108844,-0.108263,-0.108985,-0.108407,-0.109124,-0.108548,-0.109259,-0.108686,-0.109392,-0.108822,-0.109522,-0.108954,-0.109649,-0.109084,-0.109774,-0.109211,-0.109896,-0.109336,-0.110016,-0.109458,-0.110133,-0.109577,-0.110248,-0.109695,-0.11036,-0.109809,-0.11047,-0.109922,-0.110578,-0.110032,-0.110684,-0.11014,-0.110788,-0.110246,-0.11089,-0.11035,-0.110989,-0.110452,-0.111087,-0.110551,-0.111183,-0.110649,-0.111277,-0.110746,-0.11137,-0.11084,-0.11146,-0.110932,-0.111549,-0.111023,-0.111637,-0.111113,-0.111723,-0.1112,-0.111807,-0.111286,-0.111889,-0.111371,-0.111971,-0.111453,-0.11205,-0.111535,-0.112129,-0.111615,-0.112206,-0.111694,-0.112281,-0.111771,-0.112356,-0.111847,-0.112429,-0.111922,-0.112501,-0.111995,-0.112571,-0.112067,-0.112641,-0.112138,-0.112709,-0.112208,-0.112776,-0.112276,-0.112843,-0.112344,-0.112908,-0.11241,-0.112972,-0.112476,-0.113035,-0.11254,-0.113096,-0.112603,-0.113157,-0.112666,-0.113217,-0.112727,-0.113277,-0.112787,-0.113335,-0.112847,-0.113392,-0.112905,-0.113448,-0.112963,-0.113504,-0.11302,-0.113559,-0.113075,-0.113613,-0.11313,-0.113666,-0.113185,-0.113718,-0.113238,-0.113769,-0.113291,-0.11382,-0.113343,-0.11387,-0.113394,-0.113919,-0.113444,-0.113968,-0.113494,-0.114016,-0.113542,-0.114063,-0.113591,-0.11411,-0.113638,-0.114155,-0.113685,-0.114201,-0.113731,-0.114245,-0.113777,-0.114289,-0.113822,-0.114333,-0.113866,-0.114375,-0.11391,-0.114418,-0.113953,-0.114459,-0.113995,-0.1145,-0.114037,-0.114541,-0.114078,-0.114581,-0.114119,-0.11462,-0.114159,-0.114659,-0.114199,-0.114697,-0.114238,-0.114735,-0.114277,-0.114772,-0.114315,-0.114809,-0.114352,-0.114846,-0.114389,-0.114881,-0.114426,-0.114917,-0.114462,-0.114952,-0.114498,-0.114986,-0.114533,-0.11502,-0.114568,-0.115054,-0.114602
0.00143207,0.00138703,0.00133163,0.00126615,0.00119212,0.00111224,0.00102982,0.000948245,0.000870519,0.000799146,0.000736134,0.000683098,0.000641418,0.000612465,0.000598051,0.000601147,0.000620472,0.000645272,0.000676038,0.000710415,0.000762108,0.000744782,0.000798518,0.000755444,0.00080674,0.000759359,0.000807552,0.000756535,0.000802507,0.000746683,0.00079329,0.000733963,0.000769805,0.000726307,0.000722339,0.000710361,0.000694287,0.000733753,0.000703058,0.000801533,0.000754921,0.000860707,0.00078464,0.00090697,0.000809028,0.000938871,0.000826188,0.000962518,0.000839726,0.000983007,0.000852182,0.00100333,0.000865184,0.00102507,0.000879791,0.00104905,0.000896684,0.00107567,0.000916254,0.00110506,0.000938654,0.00113715,0.000963864,0.00117177,0.000991751,0.00120871,0.00102212,0.00124772,0.00105476,0.00128859,0.00108945,0.00133109,0.00112597,0.00137503,0.00116413,0.00142024,0.00120375,0.00146657,0.00124466,0.0015139,0.00128673,0.0015621,0.00132984,0.00161109,0.00137388,0.00166077,0.00141875,0.00171107,0.00146437,0.00176193,0.00151068,0.00181329,0.0015576,0.00186508,0.00160507,0.00191727,0.00165304,0.0019698,0.00170146,0.00202264,0.00175029,0.00207575,0.00179948,0.00212909,0.001849,0.00218263,0.0018988,0.00223635,0.00194886,0.00229021,0.00199915,0.00234419,0.00204964,0.00239826,0.0021003,0.00245241,0.00215112,0.00250662,0.00220205,0.00256086,0.0022531,0.00261512,0.00230423,0.00266939,0.00235544,0.00272364,0.00240669,0.00277787,0.00245799,0.00283206,0.0025093,0.00288621,0.00256063,0.0029403,0.00261196,0.00299431,0.00266327,0.00304825,0.00271456,0.0031021,0.00276581,0.00315586,0.00281702,0.00320951,0.00286817,0.00326306,0.00291926,0.00331649,0.00297029,0.00336979,0.00302123,0.00342297,0.00307209,0.00347601,0.00312286,0.00352891,0.00317354,0.00358167,0.00322411,0.00363428,0.00327457,0.00368674,0.00332493,0.00373905,0.00337516,0.00379119,0.00342527,0.00384318,0.00347525,0.00389499,0.0035251,0.00394664,0.00357482,0.00399812,0.0036244,0.00404942,0.00367384,0.00410054,0.00372313,0.00415149,0.00377228,0.00420226,0.00382127,0.00425284,0.00387012,0.00430324,0.0039188,0.00435346,0.00396733,0.00440348,0.0040157,0.00445332,0.00406391,0.00450297,0.00411195,0.00455242,0.00415983,0.00460169,0.00420754,0.00465076,0.00425508,0.00469964,0.00430245,0.00474832,0.00434965,0.00479681,0.00439668,0.00484511,0.00444353,0.00489321,0.00449021,0.00494111,0.00453672,0.00498881,0.00458305,0.00503632,0.0046292,0.00508363,0.00467518,0.00513074,0.00472097,0.00517766,0.00476659,0.00522438,0.00481203,0.0052709,0.00485729,0.00531723,0.00490238,0.00536336,0.00494728,0.00540929,0.004992,0.00545503,0.00503655,0.00550057,0.00508091,0.00554591,0.0051251,0.00559107,0.00516911,0.00563602,0.00521294,0.00568079,0.00525658,0.00572536,0.00530006,0.00576974,0.00534335,0.00581392,0.00538646
-0.0900633,-0.0902412,-0.0904454,-0.0906758,-0.0909298,-0.0912029,-0.0914899,-0.0917857,-0.0920862,-0.0923886,-0.0926912,-0.0929929,-0.0932938,-0.0935942,-0.093893,-0.0941741,-0.0943524,-0.0945207,-0.0947287,-0.0949574,-0.0953774,-0.0951626,-0.0957999,-0.0953439,-0.0960135,-0.0954955,-0.0962054,-0.0956318,-0.0964071,-0.0957743,-0.0966729,-0.0959897,-0.0969555,-0.096305,-0.0973601,-0.0966581,-0.0977278,-0.0972838,-0.0983727,-0.097916,-0.0990105,-0.0984233,-0.0995157,-0.0988924,-0.0999339,-0.0992913,-0.100283,-0.0996291,-0.100579,-0.0999166,-0.100834,-0.100162,-0.101055,-0.100371,-0.101247,-0.100551,-0.101414,-0.100705,-0.101561,-0.10084,-0.10169,-0.100961,-0.101807,-0.10107,-0.101914,-0.10117,-0.102012,-0.101264,-0.102104,-0.101352,-0.102191,-0.101436,-0.102273,-0.101515,-0.102351,-0.101591,-0.102425,-0.101663,-0.102495,-0.101732,-0.102563,-0.101798,-0.102627,-0.10186,-0.102688,-0.10192,-0.102747,-0.101978,-0.102803,-0.102033,-0.102857,-0.102085,-0.102909,-0.102136,-0.102959,-0.102185,-0.103007,-0.102232,-0.103054,-0.102277,-0.103099,-0.102321,-0.103142,-0.102363,-0.103184,-0.102404,-0.103224,-0.102443,-0.103264,-0.102482,-0.103302,-0.102519,-0.10334,-0.102555,-0.103376,-0.102591,-0.103411,-0.102625,-0.103446,-0.102659,-0.103479,-0.102692,-0.103512,-0.102724,-0.103545,-0.102755,-0.103576,-0.102786,-0.103607,-0.102816,-0.103638,-0.102845,-0.103667,-0.102874,-0.103697,-0.102903,-0.103725,-0.10293,-0.103754,-0.102958,-0.103782,-0.102985,-0.103809,-0.103012,-0.103836,-0.103038,-0.103863,-0.103064,-0.103889,-0.103089,-0.103915,-0.103114,-0.103941,-0.103139,-0.103966,-0.103164,-0.103991,-0.103188,-0.104016,-0.103212,-0.104041,-0.103236,-0.104065,-0.103259,-0.10409,-0.103283,-0.104113,-0.103306,-0.104137,-0.103329,-0.104161,-0.103351,-0.104184,-0.103374,-0.104207,-0.103396,-0.10423,-0.103418,-0.104253,-0.10344,-0.104276,-0.103462,-0.104299,-0.103484,-0.104321,-0.103506,-0.104344,-0.103527,-0.104366,-0.103548,-0.104388,-0.10357,-0.10441,-0.103591,-0.104432,-0.103612,-0.104454,-0.103633,-0.104476,-0.103654,-0.104497,-0.103675,-0.104519,-0.103695,-0.10454,-0.103716,-0.104562,-0.103737,-0.104583,-0.103757,-0.104605,-0.103778,-0.104626,-0.103798,-0.104647,-0.103819,-0.104669,-0.103839,-0.10469,-0.103859,-0.104711,-0.10388,-0.104732,-0.1039,-0.104753,-0.10392,-0.104774,-0.10394,-0.104795,-0.10396,-0.104816,-0.10398,-0.104837,-0.104,-0.104858,-0.104021,-0.104879,-0.104041,-0.1049,-0.104061,-0.104921,-0.104081,-0.104942,-0.104101,-0.104962,-0.104121,-0.104983,-0.104141,-0.105004,-0.104161,-0.105025
0.00500922,0.00495092,0.00487704,0.00478767,0.0046846,0.00457121,0.00445174,0.00433039,0.0042108,0.00409573,0.00398701,0.00388555,0.00379132,0.00370314,0.0036183,0.00353295,0.00345389,0.00337096,0.00328843,0.00320647,0.00310491,0.00310973,0.00301418,0.0030578,0.00296248,0.00301514,0.00291808,0.00298027,0.0028771,0.00295276,0.00283385,0.00292865,0.00280187,0.00291319,0.00281318,0.00291451,0.00284358,0.00292116,0.00283575,0.00285599,0.00276563,0.0027838,0.00270921,0.00272767,0.00265943,0.00268321,0.00261658,0.00264385,0.00257665,0.00260571,0.00253693,0.00256706,0.00249612,0.00252729,0.00245382,0.00248645,0.00241024,0.00244482,0.00236579,0.00240275,0.00232092,0.00236054,0.00227601,0.00231836,0.00223128,0.00227634,0.00218686,0.00223449,0.00214276,0.00219282,0.00209897,0.00215132,0.00205546,0.00210996,0.00201218,0.00206873,0.0019691,0.00202762,0.0019262,0.00198662,0.00188346,0.00194573,0.00184088,0.00190495,0.00179845,0.00186428,0.00175618,0.00182373,0.00171406,0.00178331,0.0016721,0.001743,0.0016303,0.00170283,0.00158865,0.00166278,0.00154717,0.00162287,0.00150584,0.00158309,0.00146468,0.00154344,0.00142366,0.00150392,0.00138281,0.00146453,0.0013421,0.00142526,0.00130155,0.00138613,0.00126114,0.00134712,0.00122088,0.00130823,0.00118076,0.00126946,0.00114077,0.00123081,0.00110092,0.00119228,0.0010612,0.00115385,0.00102161,0.00111553,0.00098214,0.00107732,0.000942793,0.00103922,0.000903562,0.00100121,0.000864446,0.000963302,0.00082544,0.000925487,0.000786542,0.000887764,0.000747747,0.00085013,0.000709054,0.000812583,0.000670459,0.000775118,0.000631958,0.000737735,0.00059355,0.00070043,0.00055523,0.000663201,0.000516997,0.000626045,0.000478847,0.00058896,0.000440778,0.000551944,0.000402787,0.000514994,0.000364872,0.000478108,0.00032703,0.000441283,0.000289259,0.000404518,0.000251557,0.000367811,0.00021392,0.00033116,0.000176348,0.000294562,0.000138838,0.000258017,0.000101388,0.000221521,6.39952e-05,0.000185073,2.66588e-05,0.000148672,-1.06234e-05,0.000112316,-4.78533e-05,7.60033e-05,-8.50326e-05,3.97322e-05,-0.000122163,3.50132e-06,-0.000159246,-3.26908e-05,-0.000196284,-6.88456e-05,-0.000233277,-0.000104965,-0.000270228,-0.000141049,-0.000307138,-0.0001771,-0.000344008,-0.000213118,-0.000380839,-0.000249106,-0.000417634,-0.000285065,-0.000454392,-0.000320994,-0.000491116,-0.000356897,-0.000527807,-0.000392772,-0.000564466,-0.000428623,-0.000601093,-0.000464449,-0.000637691,-0.000500252,-0.00067426,-0.000536032,-0.0007108,-0.000571791,-0.000747314,-0.000607529,-0.000783802,-0.000643247,-0.000820266,-0.000678946,-0.000856705,-0.000714628,-0.00089312,-0.000750292,-0.000929514,-0.000785939,-0.000965886,-0.00082157,-0.00100224,-0.000857186,-0.00103857,-0.000892788,-0.00107488,-0.000928376,-0.00111118,-0.000963951,-0.00114745,-0.000999513,-0.00118371,-0.00103506,-0.00121995,-0.0010706,-0.00125618,-0.00110613,-0.00129239,-0.00114165,-0.00132859,-0.00117716,-0.00136478
-0.151201,-0.151127,-0.151068,-0.151031,-0.151019,-0.151035,-0.151081,-0.151154,-0.151254,-0.151377,-0.151524,-0.151692,-0.151882,-0.152098,-0.152347,-0.152635,-0.152912,-0.153151,-0.153372,-0.153603,-0.153921,-0.153897,-0.154235,-0.154054,-0.154407,-0.154184,-0.154555,-0.154288,-0.154689,-0.154362,-0.154828,-0.154409,-0.154934,-0.154438,-0.154967,-0.154464,-0.154954,-0.154538,-0.155134,-0.154858,-0.155478,-0.155208,-0.155758,-0.155502,-0.156026,-0.155763,-0.156277,-0.156012,-0.156521,-0.156257,-0.156764,-0.156499,-0.157005,-0.156737,-0.157244,-0.156968,-0.157479,-0.157191,-0.157707,-0.157406,-0.157926,-0.157613,-0.158138,-0.157812,-0.158343,-0.158006,-0.158541,-0.158194,-0.158734,-0.158378,-0.158923,-0.158558,-0.159107,-0.158735,-0.159288,-0.158909,-0.159465,-0.15908,-0.15964,-0.159249,-0.159811,-0.159415,-0.15998,-0.159578,-0.160146,-0.159738,-0.160309,-0.159896,-0.16047,-0.160052,-0.160628,-0.160205,-0.160784,-0.160356,-0.160937,-0.160504,-0.161088,-0.160651,-0.161237,-0.160795,-0.161384,-0.160937,-0.161528,-0.161077,-0.161671,-0.161215,-0.161811,-0.161352,-0.16195,-0.161486,-0.162087,-0.161619,-0.162222,-0.16175,-0.162355,-0.161879,-0.162486,-0.162007,-0.162616,-0.162133,-0.162745,-0.162258,-0.162872,-0.162381,-0.162998,-0.162504,-0.163122,-0.162624,-0.163245,-0.162744,-0.163366,-0.162862,-0.163487,-0.162979,-0.163606,-0.163095,-0.163724,-0.16321,-0.163841,-0.163324,-0.163958,-0.163437,-0.164073,-0.163549,-0.164187,-0.163661,-0.1643,-0.163771,-0.164412,-0.16388,-0.164524,-0.163989,-0.164635,-0.164097,-0.164745,-0.164204,-0.164854,-0.164311,-0.164963,-0.164416,-0.165071,-0.164522,-0.165178,-0.164626,-0.165285,-0.16473,-0.165391,-0.164834,-0.165496,-0.164937,-0.165601,-0.165039,-0.165706,-0.165141,-0.16581,-0.165243,-0.165913,-0.165344,-0.166016,-0.165445,-0.166119,-0.165545,-0.166221,-0.165645,-0.166323,-0.165744,-0.166425,-0.165844,-0.166526,-0.165943,-0.166627,-0.166041,-0.166728,-0.16614,-0.166828,-0.166238,-0.166928,-0.166336,-0.167028,-0.166433,-0.167128,-0.166531,-0.167227,-0.166628,-0.167327,-0.166725,-0.167426,-0.166822,-0.167525,-0.166919,-0.167623,-0.167015,-0.167722,-0.167112,-0.16782,-0.167208,-0.167919,-0.167305,-0.168017,-0.167401,-0.168115,-0.167497,-0.168213,-0.167593,-0.168311,-0.167689,-0.168409,-0.167785,-0.168507,-0.16788,-0.168604,-0.167976,-0.168702,-0.168072,-0.1688,-0.168168,-0.168897,-0.168263,-0.168995,-0.168359,-0.169093,-0.168455,-0.16919,-0.168551,-0.169288,-0.168646,-0.169386,-0.168742,-0.169483,-0.168838,-0.169581
0.00390621,0.00367392,0.0034199,0.00314364,0.00284545,0.00252601,0.00218583,0.00182481,0.0014421,0.00103617,0.00060475,0.000144549,-0.000349378,-0.000885018,-0.00147499,-0.0021241,-0.00269456,-0.00310514,-0.00341338,-0.00368358,-0.00400325,-0.00395763,-0.00424092,-0.00406017,-0.00433933,-0.00412943,-0.00440754,-0.00416752,-0.00445403,-0.00416976,-0.00448668,-0.00412984,-0.00444557,-0.00399324,-0.00428844,-0.00378645,-0.00398359,-0.00342653,-0.00379899,-0.0032969,-0.00376319,-0.00332401,-0.00373993,-0.00332915,-0.00374829,-0.00334903,-0.00378144,-0.00339586,-0.00383756,-0.00346832,-0.0039136,-0.00355856,-0.00400406,-0.00365816,-0.00410234,-0.00376,-0.00420235,-0.00385893,-0.0042995,-0.00395204,-0.00439107,-0.00403819,-0.00447602,-0.00411748,-0.00455443,-0.00419069,-0.00462701,-0.00425878,-0.00469468,-0.00432273,-0.00475836,-0.00438335,-0.00481882,-0.00444129,-0.00487667,-0.004497,-0.00493237,-0.00455082,-0.00498621,-0.00460298,-0.0050384,-0.00465362,-0.0050891,-0.00470284,-0.0051384,-0.00475072,-0.00518637,-0.00479731,-0.00523306,-0.00484265,-0.00527852,-0.00488679,-0.00532277,-0.00492976,-0.00536588,-0.0049716,-0.00540786,-0.00501234,-0.00544876,-0.00505203,-0.00548862,-0.0050907,-0.00552747,-0.00512839,-0.00556535,-0.00516513,-0.00560229,-0.00520096,-0.00563833,-0.00523591,-0.0056735,-0.00527002,-0.00570784,-0.00530332,-0.00574138,-0.00533583,-0.00577414,-0.0053676,-0.00580616,-0.00539865,-0.00583747,-0.005429,-0.00586808,-0.00545869,-0.00589804,-0.00548773,-0.00592735,-0.00551616,-0.00595605,-0.00554399,-0.00598416,-0.00557124,-0.00601169,-0.00559794,-0.00603868,-0.00562411,-0.00606513,-0.00564977,-0.00609107,-0.00567492,-0.00611651,-0.0056996,-0.00614148,-0.00572382,-0.00616598,-0.00574759,-0.00619003,-0.00577093,-0.00621365,-0.00579385,-0.00623686,-0.00581636,-0.00625966,-0.00583848,-0.00628206,-0.00586023,-0.00630408,-0.0058816,-0.00632574,-0.00590262,-0.00634703,-0.00592329,-0.00636798,-0.00594363,-0.00638859,-0.00596364,-0.00640887,-0.00598333,-0.00642884,-0.00600271,-0.00644849,-0.00602179,-0.00646784,-0.00604058,-0.00648689,-0.00605909,-0.00650566,-0.00607731,-0.00652415,-0.00609527,-0.00654236,-0.00611296,-0.00656031,-0.00613039,-0.006578,-0.00614757,-0.00659543,-0.0061645,-0.00661262,-0.00618119,-0.00662956,-0.00619765,-0.00664627,-0.00621387,-0.00666274,-0.00622987,-0.00667899,-0.00624565,-0.00669501,-0.0062612,-0.00671081,-0.00627655,-0.0067264,-0.00629169,-0.00674178,-0.00630662,-0.00675695,-0.00632135,-0.00677192,-0.00633588,-0.00678669,-0.00635022,-0.00680126,-0.00636436,-0.00681565,-0.00637832,-0.00682984,-0.00639209,-0.00684384,-0.00640568,-0.00685767,-0.00641909,-0.00687131,-0.00643232,-0.00688477,-0.00644538,-0.00689806,-0.00645827,-0.00691118,-0.00647098,-0.00692412,-0.00648353,-0.0069369,-0.00649591,-0.00694951,-0.00650813,-0.00696196,-0.00652019,-0.00697425,-0.00653209,-0.00698638,-0.00654383,-0.00699835,-0.00655542,-0.00701016,-0.00656685,-0.00702182,-0.00657814,-0.00703333,-0.00658927,-0.00704469
0.0143551,0.0144183,0.0144829,0.0145452,0.0146003,0.014643,0.0146682,0.0146718,0.0146505,0.0146018,0.0145238,0.0144142,0.0142706,0.0140885,0.0138605,0.0135792,0.0133019,0.0130837,0.0129035,0.0127333,0.0125338,0.0125445,0.0123877,0.0124831,0.0123297,0.0124437,0.0122923,0.0124258,0.0122702,0.0124334,0.0122579,0.0124686,0.0122841,0.0125301,0.0123849,0.0126341,0.0125263,0.0127577,0.0125806,0.0127731,0.0125563,0.0127347,0.0125494,0.0127172,0.012537,0.0127031,0.0125207,0.0126835,0.0124983,0.012656,0.0124695,0.0126226,0.0124357,0.0125862,0.0123994,0.0125496,0.0123631,0.012515,0.0123286,0.0124834,0.0122971,0.0124552,0.0122691,0.0124305,0.0122444,0.0124087,0.0122228,0.0123896,0.0122038,0.0123726,0.0121869,0.0123574,0.0121718,0.0123436,0.0121583,0.0123312,0.012146,0.0123199,0.012135,0.0123097,0.0121249,0.0123004,0.0121159,0.012292,0.0121078,0.0122845,0.0121005,0.0122778,0.0120942,0.0122719,0.0120886,0.0122668,0.0120838,0.0122625,0.0120798,0.0122588,0.0120765,0.0122559,0.0120739,0.0122537,0.012072,0.0122522,0.0120707,0.0122512,0.0120701,0.0122509,0.0120702,0.0122512,0.0120708,0.012252,0.0120719,0.0122534,0.0120737,0.0122554,0.0120759,0.0122578,0.0120787,0.0122607,0.012082,0.0122641,0.0120857,0.012268,0.0120899,0.0122723,0.0120945,0.012277,0.0120996,0.0122822,0.012105,0.0122877,0.0121109,0.0122937,0.0121172,0.0123,0.0121238,0.0123066,0.0121308,0.0123136,0.0121381,0.0123209,0.0121457,0.0123286,0.0121537,0.0123365,0.012162,0.0123448,0.0121706,0.0123534,0.0121795,0.0123622,0.0121886,0.0123713,0.0121981,0.0123807,0.0122078,0.0123903,0.0122177,0.0124002,0.0122279,0.0124103,0.0122384,0.0124207,0.012249,0.0124313,0.0122599,0.0124421,0.0122711,0.0124531,0.0122824,0.0124643,0.0122939,0.0124757,0.0123057,0.0124873,0.0123176,0.0124992,0.0123297,0.0125111,0.012342,0.0125233,0.0123545,0.0125357,0.0123672,0.0125482,0.01238,0.0125608,0.012393,0.0125737,0.0124061,0.0125867,0.0124195,0.0125998,0.0124329,0.0126131,0.0124465,0.0126265,0.0124603,0.0126401,0.0124741,0.0126538,0.0124882,0.0126676,0.0125023,0.0126816,0.0125166,0.0126957,0.012531,0.0127099,0.0125455,0.0127242,0.0125602,0.0127386,0.0125749,0.0127532,0.0125898,0.0127679,0.0126048,0.0127827,0.0126198,0.0127975,0.012635,0.0128125,0.0126503,0.0128276,0.0126657,0.0128428,0.0126812,0.0128581,0.0126968,0.0128734,0.0127125,0.0128889,0.0127282,0.0129044,0.0127441,0.0129201,0.01276,0.0129358,0.012776,0.0129516,0.0127921,0.0129674,0.0128083,0.0129834,0.0128246,0.0129994,0.0128409,0.0130155,0.0128573,0.0130317,0.0128738
0.000158537,0.000195838,0.000225243,0.000246385,0.000260181,0.000268936,0.000275985,0.000285082,0.000299865,0.000323571,0.00035897,0.000408473,0.000474381,0.000559318,0.000666841,0.000799218,0.000925468,0.00101197,0.00107242,0.00112334,0.00117896,0.00117449,0.00121065,0.00118217,0.00121429,0.00118184,0.00120849,0.00117248,0.00119185,0.00115051,0.00115811,0.00110911,0.00108731,0.00104175,0.0010014,0.000986046,0.00094619,0.000981966,0.000952485,0.00101941,0.000978151,0.00103409,0.000980369,0.0010319,0.000965128,0.00101663,0.000940204,0.000992647,0.000910094,0.000963533,0.000877176,0.000931786,0.000842873,0.000899016,0.000808184,0.000866284,0.000773848,0.000834264,0.000740367,0.000803318,0.000708016,0.000773566,0.000676875,0.00074497,0.000646891,0.000717402,0.000617939,0.000690706,0.000589864,0.000664729,0.00056252,0.000639338,0.000535781,0.00061443,0.000509547,0.000589925,0.000483746,0.00056577,0.000458325,0.000541927,0.000433251,0.000518371,0.000408501,0.000495088,0.000384059,0.000472066,0.000359916,0.000449301,0.000336064,0.000426787,0.000312498,0.00040452,0.000289212,0.000382498,0.000266201,0.000360715,0.000243461,0.000339169,0.000220985,0.000317856,0.000198769,0.000296769,0.000176807,0.000275906,0.000155093,0.000255261,0.000133621,0.000234829,0.000112385,0.000214605,9.138e-05,0.000194585,7.05997e-05,0.000174762,5.00382e-05,0.000155133,2.96899e-05,0.000135692,9.5493e-06,0.000116433,-1.03893e-05,9.73537e-05,-3.01312e-05,7.84475e-05,-4.96819e-05,5.97102e-05,-6.90464e-05,4.11372e-05,-8.823e-05,2.27239e-05,-0.000107238,4.46612e-06,-0.000126074,-1.36406e-05,-0.000144744,-3.16004e-05,-0.000163253,-4.94174e-05,-0.000181604,-6.70956e-05,-0.000199803,-8.46389e-05,-0.000217853,-0.000102051,-0.000235759,-0.000119336,-0.000253525,-0.000136497,-0.000271155,-0.000153537,-0.000288653,-0.000170461,-0.000306022,-0.000187271,-0.000323267,-0.00020397,-0.00034039,-0.000220563,-0.000357395,-0.000237051,-0.000374287,-0.000253437,-0.000391067,-0.000269725,-0.000407739,-0.000285918,-0.000424306,-0.000302017,-0.000440771,-0.000318026,-0.000457137,-0.000333947,-0.000473408,-0.000349783,-0.000489584,-0.000365535,-0.00050567,-0.000381207,-0.000521668,-0.0003968,-0.00053758,-0.000412317,-0.000553409,-0.00042776,-0.000569157,-0.000443131,-0.000584826,-0.000458432,-0.000600419,-0.000473664,-0.000615938,-0.00048883,-0.000631384,-0.000503931,-0.00064676,-0.00051897,-0.000662069,-0.000533948,-0.000677311,-0.000548866,-0.000692488,-0.000563726,-0.000707603,-0.00057853,-0.000722657,-0.00059328,-0.000737652,-0.000607976,-0.000752589,-0.00062262,-0.00076747,-0.000637214,-0.000782297,-0.000651759,-0.000797071,-0.000666256,-0.000811794,-0.000680706,-0.000826466,-0.000695112,-0.00084109,-0.000709473,-0.000855667,-0.000723791,-0.000870197,-0.000738067,-0.000884683,-0.000752303,-0.000899125,-0.000766499,-0.000913525,-0.000780656,-0.000927883,-0.000794775,-0.000942202,-0.000808858,-0.000956481,-0.000822905,-0.000970722,-0.000836918,-0.000984926,-0.000850896,-0.000999095,-0.000864841,-0.00101323,-0.000878754,-0.00102733,-0.000892636,-0.00104139,-0.000906486,-0.00105543
-0.187463,-0.185869,-0.184106,-0.182179,-0.180106,-0.177915,-0.175636,-0.173294,-0.170908,-0.168485,-0.166027,-0.163522,-0.16095,-0.158275,-0.155445,-0.152471,-0.15006,-0.148375,-0.1471,-0.14593,-0.144354,-0.144787,-0.143123,-0.144262,-0.14263,-0.143945,-0.142334,-0.143858,-0.14223,-0.144083,-0.142357,-0.144699,-0.143182,-0.145927,-0.14456,-0.147398,-0.14674,-0.149859,-0.148429,-0.15114,-0.149414,-0.151558,-0.150136,-0.152111,-0.15071,-0.152604,-0.151156,-0.152974,-0.15149,-0.153222,-0.151725,-0.153376,-0.151882,-0.153467,-0.151985,-0.153521,-0.152056,-0.153558,-0.152112,-0.153591,-0.152163,-0.153626,-0.152216,-0.153665,-0.152272,-0.153709,-0.152332,-0.153756,-0.152393,-0.153805,-0.152455,-0.153854,-0.152516,-0.153902,-0.152576,-0.153949,-0.152633,-0.153993,-0.152687,-0.154036,-0.152738,-0.154076,-0.152787,-0.154114,-0.152833,-0.15415,-0.152877,-0.154184,-0.152918,-0.154217,-0.152958,-0.154248,-0.152996,-0.154278,-0.153032,-0.154308,-0.153067,-0.154336,-0.153101,-0.154363,-0.153134,-0.15439,-0.153166,-0.154416,-0.153197,-0.154442,-0.153227,-0.154467,-0.153257,-0.154493,-0.153286,-0.154517,-0.153315,-0.154542,-0.153343,-0.154567,-0.153371,-0.154591,-0.153399,-0.154615,-0.153427,-0.15464,-0.153454,-0.154664,-0.153482,-0.154689,-0.153509,-0.154713,-0.153536,-0.154738,-0.153563,-0.154763,-0.153591,-0.154788,-0.153618,-0.154814,-0.153646,-0.154839,-0.153673,-0.154865,-0.153701,-0.154891,-0.153729,-0.154918,-0.153757,-0.154944,-0.153786,-0.154971,-0.153814,-0.154999,-0.153843,-0.155026,-0.153872,-0.155055,-0.153902,-0.155083,-0.153931,-0.155112,-0.153962,-0.155141,-0.153992,-0.155171,-0.154023,-0.155201,-0.154054,-0.155231,-0.154085,-0.155262,-0.154117,-0.155293,-0.154149,-0.155325,-0.154181,-0.155357,-0.154214,-0.15539,-0.154247,-0.155423,-0.154281,-0.155456,-0.154315,-0.15549,-0.154349,-0.155524,-0.154384,-0.155559,-0.154419,-0.155594,-0.154455,-0.15563,-0.154491,-0.155666,-0.154527,-0.155702,-0.154564,-0.155739,-0.154601,-0.155777,-0.154639,-0.155814,-0.154677,-0.155853,-0.154715,-0.155891,-0.154754,-0.155931,-0.154793,-0.15597,-0.154833,-0.15601,-0.154873,-0.156051,-0.154913,-0.156091,-0.154954,-0.156133,-0.154996,-0.156174,-0.155037,-0.156217,-0.155079,-0.156259,-0.155122,-0.156302,-0.155165,-0.156346,-0.155208,-0.15639,-0.155252,-0.156434,-0.155296,-0.156478,-0.15534,-0.156524,-0.155385,-0.156569,-0.15543,-0.156615,-0.155476,-0.156661,-0.155522,-0.156708,-0.155568,-0.156755,-0.155615,-0.156802,-0.155662,-0.15685,-0.15571,-0.156899,-0.155757
0.0454051,0.045917,0.046507,0.0471796,0.0479347,0.0487682,0.0496737,0.0506452,0.0516783,0.0527714,0.0539264,0.0551493,0.0564525,0.0578594,0.0594111,0.0611429,0.0627345,0.063973,0.0649612,0.065861,0.0669292,0.066833,0.0677877,0.0672347,0.0681856,0.0675249,0.0684827,0.0677109,0.0687093,0.067778,0.0688973,0.0677149,0.0688781,0.067408,0.068523,0.0670075,0.067928,0.066427,0.0678295,0.0667161,0.0683074,0.0673532,0.0687367,0.06787,0.0691902,0.0683469,0.0696421,0.0688281,0.0701004,0.0693235,0.0705687,0.0698237,0.0710411,0.0703154,0.071507,0.0707873,0.071956,0.0712322,0.0723811,0.0716473,0.0727792,0.0720334,0.0731508,0.0723935,0.0734982,0.0727312,0.0738245,0.0730501,0.0741329,0.073353,0.0744262,0.0736425,0.0747067,0.0739203,0.0749759,0.0741877,0.0752352,0.0744456,0.0754854,0.0746948,0.0757273,0.0749358,0.0759612,0.0751691,0.0761878,0.0753949,0.0764072,0.0756137,0.0766199,0.0758257,0.076826,0.0760312,0.0770258,0.0762304,0.0772197,0.0764236,0.0774078,0.0766112,0.0775904,0.0767932,0.0777677,0.0769699,0.07794,0.0771416,0.0781074,0.0773085,0.0782701,0.0774708,0.0784284,0.0776286,0.0785824,0.0777822,0.0787323,0.0779317,0.0788783,0.0780773,0.0790205,0.0782192,0.0791591,0.0783574,0.0792942,0.0784922,0.0794259,0.0786237,0.0795545,0.078752,0.07968,0.0788773,0.0798025,0.0789996,0.0799222,0.0791191,0.0800391,0.0792359,0.0801533,0.07935,0.0802651,0.0794616,0.0803744,0.0795708,0.0804813,0.0796777,0.0805859,0.0797822,0.0806884,0.0798846,0.0807887,0.0799849,0.0808869,0.0800832,0.0809832,0.0801795,0.0810776,0.0802739,0.0811701,0.0803665,0.0812609,0.0804573,0.0813499,0.0805464,0.0814372,0.0806338,0.0815229,0.0807197,0.0816071,0.0808039,0.0816897,0.0808867,0.0817709,0.080968,0.0818506,0.0810479,0.081929,0.0811264,0.082006,0.0812035,0.0820816,0.0812794,0.0821561,0.081354,0.0822293,0.0814274,0.0823013,0.0814996,0.0823721,0.0815707,0.0824418,0.0816406,0.0825105,0.0817095,0.082578,0.0817773,0.0826445,0.0818441,0.08271,0.0819098,0.0827745,0.0819746,0.0828381,0.0820384,0.0829007,0.0821013,0.0829625,0.0821633,0.0830233,0.0822244,0.0830833,0.0822847,0.0831424,0.0823441,0.0832007,0.0824027,0.0832582,0.0824606,0.083315,0.0825176,0.0833709,0.0825739,0.0834262,0.0826294,0.0834807,0.0826843,0.0835345,0.0827384,0.0835876,0.0827918,0.08364,0.0828446,0.0836918,0.0828967,0.0837429,0.0829481,0.0837934,0.082999,0.0838433,0.0830492,0.0838926,0.0830988,0.0839413,0.0831479,0.0839894,0.0831963,0.084037,0.0832442,0.084084,0.0832916,0.0841305,0.0833384,0.0841764,0.0833847,0.0842218
