Values
-0.00438194
0.0828256
-0.0999502
-0.215186
-0.0294241
0.0838271
0.00935809
-0.111311
-0.0268205
0.189167
0.026158
0.0226097
-0.0773299
0.00237444
0.11061
-0.013397
0.0730227
0.0071079
0.0784013
-0.0129657
0.212472
-0.0561905
0.0229483
-0.0101389
0.0252111
-0.0653134
0.0259596
-0.115884
0.00733249
-0.106085
-0.00316532
-0.174606
-0.00744638
0.0137621
-0.00172918
-0.158562
0.0860177
0.00198846
-0.0638537
-0.0135267
-0.141967
0.0110258
0.127444
-0.138045
0.0332601
0.0196133
-0.0529805
0.0619604
0.120427
-0.0394197
0.0502133
-0.0939759
-0.0216497
-0.0168496
0.0218039
-0.0605431
-0.0115507
-0.036146
0.150659
-0.153788
-0.0829441
-0.0374998
-0.0878912
-0.107803
0.0248226
-0.22291
0.0871423
-0.104136
-0.0304308
-0.0970801
0.0103264
-0.0262553
-0.0853994
-0.0276704
0.0329188
0.0650955
-0.00588358
0.240284
-0.0068744
0.170763
-0.00764676
0.114937
0.0181054
0.150003
0.00460163
0.0590664
0.0300562
-0.073647
-0.0705108
0.10509
0.00756586
0.134848
-0.0705408
-0.0137728
-0.0708937
0.0522462
0.0569424
-0.0289409
0.0365865
-0.0351843
-0.0872279
-0.187179
0.113666
0.0165768
-0.112973
0.207053
-0.00329362
0.0440306
-0.0449433
-0.0672487
0.0272976
0.108664
0.0724617
0.0242645
0.0205593
-0.194399
-0.124615
-0.0406518
0.0446202
0.0827736
