Values
-0.00352253
0.0939128
-0.0981719
-0.212042
-0.0312744
0.114964
-0.00176339
-0.113286
-0.024685
0.192415
0.0220611
0.0139893
-0.0819648
0.0073022
0.106471
-0.00348755
0.0728589
0.0057158
0.0814854
-0.0213309
0.207352
-0.0714125
0.0228753
-0.0037926
0.0226652
-0.0869197
0.0245977
-0.11762
0.0117276
-0.109411
-0.00854029
-0.192332
-0.00719323
0.0166968
-0.00359765
-0.169724
0.0891872
0.00428345
-0.0651434
-0.0146315
-0.14383
0.0135181
0.13273
-0.137415
0.0327751
0.0190806
-0.0550361
0.0638753
0.118042
-0.0351033
0.0526753
-0.0898649
-0.0120688
-0.014081
0.0217483
-0.0634651
-0.0236082
-0.0369449
0.152035
-0.149384
-0.0858271
-0.0468908
-0.096975
-0.105095
0.0210248
-0.218228
0.0838604
-0.102232
-0.0308641
-0.101908
0.00558033
-0.0202659
-0.094935
-0.0214274
0.0299529
0.0623301
-0.0149079
0.238636
-0.00203165
0.173757
-0.015697
0.127983
0.00950439
0.154612
0.00112566
0.0837051
0.0310273
-0.0723359
-0.0689663
0.104107
0.0033511
0.156157
-0.0684165
-0.0111558
-0.0725101
0.0785803
0.0549827
-0.0282696
0.0373166
-0.0344982
-0.0864039
-0.20745
0.141139
0.0218236
-0.114155
0.242311
-0.025224
0.0499694
-0.0476218
-0.068654
0.0342037
0.133965
0.0790329
0.0191013
0.0237225
-0.206533
-0.106344
-0.0383577
0.0480964
0.091721
